This file contains the L23 weight matrices generated before STDP and after STDP were implemented. The network was run on test-stdp-in.txt both times, and was re-started from the saved version in the second run. 
0.0,-6.70269147942,-0.39368389174,6.38552369837,-6.39124021581,-6.34503246408,-6.731246021,-0.512856440439,0.432840762991,0.264823134052,-3.72529219869,-0.0768563888623,-6.56515222996,6.40543087424,6.36500619938,-6.50019397334,-3.6463617291,-3.54567587579,0.0745545975958,0.186307863124,-3.57855331655,0.442432388206,-6.75942265852,-6.44466024068,-6.62040914896,-6.78766758419,-6.62161821483,-6.63803769375,-6.73228600878,0.260391609358,-0.621419343798,-0.520338853862,-6.21569925652,-6.59397091609,-6.50544478262,0.307891842997,-3.63361808389,-6.74277530835,0.120350508288,6.05658208023,0.54926807027,-6.56153666325,0.026206760785,-6.49890255784,0.353694026478,-6.42343916566,0.373979299679,-6.52268985028,0.0839837931199,-3.49278019787,-0.120166990099,-3.58279571359,-6.57032493896,0.640009268312,6.41092300486,-6.4994119506,-0.457439205221,0.394950463579,-6.79962863256,-3.82098017661,-6.35163721201,-3.65987941786,6.20820421897,-6.53095409011,0.228243319902,-3.65111085365,-0.699510196575,-6.49200877822,-6.50032136022,-0.157384453803,-6.68790347299,-0.024566473182,6.51456813858,0.0,-7.36962941673,-0.537811354831,0.514389910716,-3.35639516401,0.787303549821,-7.18830872893,7.16200862036,7.17325841181,3.61472186892,5.57075170165,0.976092253359,-0.576064352177,-0.996224307753,0.800044678044,3.92941264823,3.65829266792,6.29879761125,5.4847123672,3.70001871587,7.13028158988,-3.53213657846,-3.22560658286,-3.22907539508,-3.27280827371,-3.37175178807,0.368016585762,-0.0725329708923,7.15079676891,-7.29778845055,-7.28821236793,0.292337280205,0.197907534669,0.975496513017,6.53888265986,3.87231815792,-3.50114672446,6.38297432429,-0.663171618076,6.86533605281,-3.7352450367,6.33801302065,0.532584093394,6.9169895345,-3.26748177233,7.15264571094,-3.11561114411,6.77641355494,3.89959938829,-7.17940493552,3.62577417822,0.202267534503,6.93220720166,-0.628926234317,-3.38307885122,-7.08612760373,6.97560535136,-3.00326986865,3.78852394235,0.67375372673,3.85591306361,2.97813009974,-3.61618307077,7.18028509186,3.75619220994,5.99849934716,0.719161054776,0.544555193675,6.66983761478,0.577492238186,6.47053820608,0.56257938132,7.19490753358,0.0,-7.00686815561,6.53634601979,6.64010816706,7.11291647167,-0.0430863286532,0.10550860382,-0.112498032632,3.97452033162,0.156575434985,7.13864461014,-7.1167314144,-6.79896255049,6.90558187973,4.05253171542,3.95672985622,0.319306172715,-0.0902563970974,4.16202609439,-0.205988976285,6.85201529785,6.90549246639,7.01244534692,6.89200013678,7.01748258107,7.17683150839,6.96030203914,0.0344223218824,-0.126665143856,0.0284418974361,6.83487846402,7.11252950353,7.00740066059,0.297227629024,4.03653455184,6.89795558405,0.151880678729,-6.89232585474,0.0470035807311,6.60736141189,0.561681454445,6.97389237205,-0.159285798213,6.85212671125,-0.0757465903549,6.92997958802,0.121445225934,3.84015587344,-0.497379699159,3.8234037892,7.20415867903,-0.112580044403,-6.92614970428,6.89994759674,0.263672907439,-0.116115770297,7.00182155931,3.8535966528,6.65712155773,4.18435488927,-6.69533750734,6.68676802467,0.173358166174,4.20216944031,0.734278482507,6.91943216863,7.07396803362,0.454404209591,6.78370567474,-0.264804343786,-6.54717071501,0.769993304385,7.02194269758,0.0,0.0864774271122,3.94025596826,0.109220795056,6.95567708085,-6.7073108054,-6.52787819588,-3.05143327143,-5.5706360919,0.172424525552,-0.0768850716431,0.257700316462,0.0707753886341,-3.03606785727,-2.98889938186,-6.34939807734,-5.29023914886,-2.91127021335,-6.84215504107,3.96713600885,4.13990374498,3.80391311717,3.92536112258,3.91351796559,0.348276084306,0.740611303802,-6.76144880546,7.17338012627,6.92868006554,0.0265523622244,0.278897011849,-0.0570872952963,-6.37013398665,-3.0664829732,3.83723153907,-5.978936652,0.19800832217,-6.96912786686,4.29156278985,-6.37279600971,0.12260466346,-6.71143746208,3.76415788458,-6.67917112271,3.98473951323,-6.53408652872,-2.94627506173,6.5777083701,-3.14862599005,0.261129614772,-6.78494369429,0.117963514998,3.96005456243,7.06891117943,-6.83553654276,3.83343063801,-2.90967618931,-0.0680011234468,-3.03157972705,-3.79378933487,4.07359607321,-6.91831219637,-2.94013835742,-5.47860749435,-0.121080929154,0.146484177634,-6.47789454662,0.10837498023,-6.30886155778,6.38729024529,-0.380018639102,-6.96074734414,0.120323989913,0.0,-3.96169577275,-0.00485152653488,-6.75059568613,6.96187414987,6.94379803788,2.72924609802,5.59419711588,-0.107299384937,-0.0217122326373,0.0128173214977,-0.0336846137296,3.1660519696,2.98954716551,6.19680832205,5.13113699085,3.1169104099,6.69608116615,-3.63504686202,-3.83232678991,-3.66216400705,-3.84402013745,-3.52158827759,-0.300049941951,-0.671877646913,6.75925347692,-6.86299421756,-6.65886202589,-0.109587707613,0.0415319544264,0.0208201471967,6.27610168702,2.8533936199,-3.81355534332,6.16937781091,0.0728930688952,6.70098610565,-3.82798907458,6.30755141873,-0.129671283952,6.5795100752,-3.91076249033,6.94692252303,-3.33642468598,6.56941706342,2.99138091496,-6.49509369597,2.85110161583,-0.1361078932,6.83699099191,-0.0505216310075,-3.80044066443,-6.8133496549,6.7079102673,-3.45446058434,2.92233339483,-0.111292001736,2.92263993874,3.39512792606,-3.77897140437,6.67092942776,2.91594694203,5.57921437554,-0.152348000225,-0.138308308939,6.25133245154,-0.238224941371,6.41968824579,6.60395170065,3.35547732943,-6.87481087094,-3.99232218682,3.92931422019,0.0,4.22808228916,-7.07275984765,6.67892764587,6.70332579115,4.11874866158,5.61178054023,4.23736300943,-3.86508475625,-4.32948682267,4.29893857522,4.17907314995,4.31501619797,6.43635434185,5.47270157245,4.05252340241,6.54128467636,0.0906436676069,-0.056620386248,0.398772466212,-0.0576177737393,0.169510115503,3.64125829517,3.23935065289,6.80250208975,-6.80604872944,-6.92401646834,3.94781785631,3.87560477564,4.0248172858,6.3487019736,4.21999736933,0.250259625207,6.22136384033,-4.19865065606,6.54336678567,-0.219578041393,6.64563735442,3.84476377328,6.62572743918,0.0743720830355,6.50442886166,0.238925310643,6.46001434333,4.23875703993,-6.99631783045,4.14331510957,3.52902317614,6.27175083873,-4.37150772011,-0.0866830478647,-6.85482041764,6.37988638937,0.0826095283866,4.03144120454,3.7576574501,3.96116023617,-0.393195186074,-0.40905046581,6.89188595849,4.01358035997,5.69274010384,4.25856919331,3.83370860663,6.62366814197,3.90136036476,6.35686793066,6.74912924015,-0.874060091727,-7.16252539744,0.0742359062169,-0.0669657009319,-4.27681966667,0.0,-6.91180078261,7.09310386954,6.89474693071,2.94204813242,5.64189506442,0.0713012876908,-0.0973330886851,-0.187140182581,-0.0213537257801,2.87491943227,3.06055653053,6.50931375156,5.29678502942,2.95219988653,7.15181540119,-4.123753915,-4.4371056012,-3.98187093169,-4.26196606476,-4.00196864053,-0.733071190805,-1.29855695187,6.8852228201,-7.02667035736,-6.88894903127,0.0872173950794,-0.583430269971,0.0330045331317,6.53172733719,3.22531400625,-4.18632631422,6.26593187983,-0.0539415063131,7.22121331485,-4.20054777208,6.67191785351,0.0232491000475,6.87602290509,-4.17690798738,7.18117160981,-4.01255060978,7.07464709628,2.970138245,-6.67651006637,3.13761919323,-0.55627594574,6.77016094349,-0.084143308831,-4.30346821107,-7.17600842129,6.77811433459,-3.8767825693,3.1178146882,-0.00909408659354,3.11325321023,3.68242860392,-4.24372125047,7.26106265168,2.84530928255,5.85869385957,0.0987316597816,-0.365626571307,6.62327014993,0.0264749142002,6.48521801706,0.260847487435,7.07259395542,0.00741347410207,-6.9643923727,6.7689432072,6.66315507306,6.9156197089,0.0,0.202348042351,0.0393588407286,4.0011969391,-0.0270543383236,6.89563409754,-7.06508285728,-6.77589566194,7.09181061582,3.99323980386,4.00746832479,0.36650323091,-0.000146023562301,4.25210055397,0.0450747477271,6.61046198522,6.74228899641,7.14568475031,6.88750455075,7.06004137089,7.17858379331,6.96497529908,-0.0317837618538,0.00853750986569,-0.109798112533,6.63242185632,7.26740033424,6.86774875734,0.224569096817,4.23084390444,6.70448271448,-0.105510309173,-6.8223443223,-0.0405371836287,6.7425525252,0.313138185405,6.83878961672,-0.161217396491,6.8309369373,-0.125256107279,6.85266378964,0.0934996160137,4.04683792501,-0.496851698637,3.87934896972,7.1814786965,0.0409430257504,-6.90165085978,6.71140508899,0.132055962995,0.0999878579831,7.09452139725,3.92762461411,6.5929895349,4.02202831631,-6.87706036345,6.59328088764,0.203705969219,3.96771623709,0.705023054125,7.31629326292,7.14260464181,0.302583110271,6.77670602493,0.0748682065779,-0.28238153445,-6.86563978125,0.00463041553681,6.93727744692,-6.55226586238,-6.50234541982,-7.06294313837,-0.0885666526069,0.0,-0.19949518161,-4.19220186951,0.0331032221478,-6.87171450305,7.11471486359,6.86745163193,-6.90166334838,-4.13195840827,-4.03857675078,-0.265432435463,-0.0562111537263,-3.9898901991,0.0248908850886,-6.56084772377,-6.49395289323,-6.74321904044,-6.51637014264,-6.79136442732,-6.93003211899,-6.75607906672,-0.239591935799,0.0794500287201,0.121814925171,-7.02369284652,-6.89636595536,-7.17401077852,-0.311753428181,-3.83127462341,-6.51731418655,-0.228879730312,6.92667608887,-0.0542061597,-6.4472629841,-0.366742294145,-6.90163689595,-0.0776589080942,-6.57710691414,-0.132739649739,-6.96435109327,-0.367321721989,-4.02741918394,0.670652132801,-4.2942689708,-7.02570415687,0.085089104945,6.93016994968,-6.57661785432,-0.0246342207894,0.0861740385993,-6.75646964261,-4.04667843206,-6.62232314327,-3.92556737389,6.38412623383,-6.37825455373,-0.225926376061,-3.99744000494,-0.674241962164,-6.86274683973,-7.05436344243,-0.373031478323,-6.86667585696,-0.234036449151,-0.273026868359,-6.88740389577,0.161315708428,6.68700426795,-6.71365761182,-6.55214609244,-6.92013535893,-0.118126305422,0.053358730099,0.0,-3.8484145222,0.074460644986,-6.91250156992,6.89990030938,6.73868360818,-7.04481793814,-4.08060353607,-4.03247334131,-0.213195399547,-0.14352361238,-3.94242030063,-0.117706440888,-6.45148654285,-6.69170414248,-6.85755404582,-6.55939781728,-7.07656110176,-7.2584365013,-6.97968407338,-0.156515989811,0.0550088427843,0.0385825128023,-6.90170213823,-6.9886882299,-6.96101062205,-0.223102056248,-4.15474529252,-6.5314635144,-0.130648921759,6.95403565952,0.0692097137441,-6.46776273351,-0.50802886569,-6.72175125865,0.262246984811,-6.70140241423,-0.048507520835,-6.94585585041,-0.31093706196,-4.31533223262,0.340555303551,-4.1599410233,-6.84209449698,0.0186571996465,6.74785207631,-6.55084835854,0.144621423827,0.180494991739,-6.65093610794,-4.20957266708,-6.42523011765,-3.97516035324,6.42710766056,-6.48553051209,0.0560527319121,-4.0073300477,-0.66960722607,-6.92348822142,-7.10441218888,-0.225039527669,-6.86697492502,-0.0454790967197,3.673786187,-3.63899533697,-4.03090034021,3.0650422939,-3.08101301734,-4.10864689078,-3.05802379416,-4.36671223742,4.06737041945,3.84952016399,0.0,2.57407012436,-2.85252630164,3.16889960136,2.73401427352,-2.76217095812,0.0830969667404,-0.17661691786,3.52073960545,2.71045432033,-0.123969408576,4.44465844221,-4.18526458179,-4.22783539386,-3.85149447665,-4.16791745618,-4.10204043733,-3.62453110853,-4.05176466882,3.91675507834,-3.77660201026,-4.02852460471,-3.01435782165,-3.34000066308,-2.92771905223,3.39390693108,-0.0763109367059,-4.11779132979,2.94506743807,2.45240849207,3.99607268942,-4.40178327111,3.63288351117,-3.11942146639,3.99706518559,-4.38509185063,4.01469961483,-3.77182156927,3.85686673168,0.0503162288247,-3.77579012532,-0.0882628314325,-3.61415511206,3.92361140109,2.88454636886,-4.0228037541,-4.07891368632,3.87357083464,-4.00661042978,0.00242981460539,-3.07039370621,-0.12385600392,3.77037723126,-4.24602690329,4.00853697439,-0.0141854289525,2.96389871699,-3.15807330418,-3.42348178058,3.49035184884,-3.06037947688,3.41768994027,0.000582912996136,-5.54486759547,0.235949487033,5.54085950078,-5.39300858604,-5.63415130583,-5.79267103608,-0.158945039385,-0.0168333201161,0.0167993421658,-2.88316622596,0.0,-5.56653405924,5.44413501106,5.57690463806,-5.62218166535,-2.90221044713,-2.82952078028,0.0153066956324,-0.094448812162,-2.80224065549,-0.102611439863,-5.82555700919,-5.5424783431,-5.64651149054,-5.61792070136,-5.73836912269,-5.70067119905,-5.62589063701,0.0364967437777,0.0520946619743,-0.0890368532739,-5.56801786706,-5.783822895,-5.66236243883,-0.0491914098398,-2.56722068069,-5.4838019218,0.130034790664,5.84098902899,0.101182388034,-5.52694075993,0.0713769559306,-5.75356205707,-0.0400430264202,-5.7364143373,-0.24945020337,-5.40949848792,0.015020846849,-3.0357385005,0.00347268634017,-2.89052508328,-5.54580840804,0.0554021027989,5.6475534747,-5.66960232915,-0.148224245223,-0.131122531847,-5.73659007783,-2.58857649537,-5.81504457884,-2.67750959476,5.43748771467,-5.50540526018,-0.0369872981356,-2.87235745277,-0.368257006997,-5.63043748003,-5.81149119182,0.125213188546,-5.630729223,-0.0888960954143,6.64966296164,-0.768913085605,-6.92453583726,-0.0607920132289,-0.0295121518046,-4.32565801367,0.142874211384,-7.19248387243,6.85882401999,6.87134186954,3.12285536876,5.62887756822,0.0,0.2056906893,-0.244646794448,-0.12769245489,2.89387466038,3.02557055624,6.34462983273,5.22776111305,3.10180296483,7.03985720752,-4.28375673538,-4.12486727393,-3.8914052027,-4.10473026792,-3.75579607928,-0.37476916273,-0.864854044003,7.17195169287,-6.91364174781,-6.90916757235,-0.0829214007072,-0.520406564329,-0.0305623960641,6.34099836272,2.94294104126,-4.23252828278,6.20108891936,-0.168217488028,7.00257274771,-4.05150023031,6.80263547824,-0.179338633298,7.16234073611,-4.20769110795,6.69073802579,-4.15430141672,7.15433819326,2.97644056759,-6.61143197953,3.07704964175,-0.545681544125,6.71411620315,-0.315976352184,-3.95644844823,-7.14875044195,6.92833763438,-4.19990420411,2.99199803167,0.133387702403,3.01221697737,3.82596293607,-4.15104130953,6.92249062857,3.10849462664,5.89406374143,-0.0663504791666,-0.142788891244,6.66269429322,-0.245887148194,6.7632796643,-6.59133098792,0.524258020078,7.09303572367,0.0159573420408,0.0713798988223,4.04280977826,-0.00130557142918,7.14747579549,-6.65537463229,-6.82681113821,-3.08267047272,-5.61021384348,0.256677758977,0.0,0.473396485776,-0.0872764034089,-3.30366331839,-3.0362375415,-6.35889484797,-5.54745523626,-2.99506388477,-6.6657563395,3.95207241498,4.06615461223,3.76542890377,3.9935129543,4.12705504981,0.703843002587,0.758146923814,-6.83748927122,6.98902968755,7.03897639179,0.0437266453495,-0.00297727050075,-0.0509839889552,-6.18729077221,-3.09942300716,3.94360409957,-6.01195751783,0.194787968168,-6.95356378952,4.2533642763,-6.4103132848,0.307264060892,-6.81896615226,4.00500301609,-6.68762659764,3.88273576814,-6.59419505278,-3.06862213984,6.61515659663,-3.03051214453,0.413914986361,-7.00365091525,0.234831049585,3.82126167755,6.88780677941,-6.80379042572,3.6555279452,-2.98138186659,-0.115303982466,-2.85727470269,-3.75684794573,4.38196478227,-6.9451031787,-3.04931195895,-5.70821367103,0.0480589065124,0.255271345162,-6.22019448535,0.383453787642,-6.42573995464,-6.57488474093,0.764892790166,6.77452767658,-0.237851739944,-0.337081869163,4.1197129293,0.223022006096,6.74751468102,-6.944015008,-6.79802636628,-2.75833477259,-5.59844207316,0.145765763202,0.0691294845622,0.0,0.243756129117,-2.70443113905,-2.77876083732,-6.31418392741,-5.22089141419,-2.90104994939,-6.6176975473,4.35833858461,4.0673772441,3.93101334135,4.13233144284,3.95803519211,0.410371496275,0.921852318659,-6.76376654882,6.8442049383,6.65963781537,0.17586597112,0.4295999213,0.351299074785,-6.28306247557,-2.62426739851,4.28115690125,-5.96885912648,0.144768645757,-6.78740015375,4.32055896927,-6.46028547985,0.346770989523,-6.73922754445,4.32828426624,-6.52015030769,3.96775598752,-6.38511694193,-2.79481901419,6.41092602753,-2.61578544335,0.840687854107,-6.72194662617,0.174486946861,4.45299175234,6.704844758,-6.68787810313,3.86494858991,-3.05090929401,0.398952597623,-2.93891407678,-3.91953892071,4.37470248547,-6.99446013342,-3.07917652342,-5.62388296377,0.266718119887,0.590996387122,-6.37861182174,0.377294991051,-6.38550304028,6.65436136374,-0.850792058548,-6.98923376355,0.119505134399,0.103976275349,-4.26272065254,-0.0891528763208,-7.16412312037,7.04387962118,7.04270123094,3.04729566156,5.70751015833,-0.0796700527787,-0.088109751882,-0.161187797385,0.0,2.98378512988,3.13726978828,6.53025832854,5.60811651077,2.89073184282,7.17621664444,-4.36155806597,-4.17336722198,-3.78300967212,-4.28905676397,-3.70235843149,-0.635474024803,-0.775537928315,7.050014117,-6.90141435531,-6.91694675348,-0.143222663091,-0.400324588621,0.0750818445762,6.38147339986,3.1246987106,-4.05965776911,6.22948017829,-0.0136041478853,7.02510129753,-4.20876108422,6.57578301723,-0.137400494715,7.10712016771,-4.21774409185,7.16820355129,-4.22715318975,6.96905214566,2.90874960637,-6.39540968461,3.11545128519,-0.418392548372,6.72490851349,-0.241787585855,-4.25480808026,-7.23561847582,6.92526894849,-4.06442092169,3.07694127383,0.183345712871,2.83973606822,3.66309029516,-4.15584789508,7.01773086847,3.00184310659,5.74416088355,-0.13369795977,-0.351589868635,6.5613487319,-0.367134241798,6.4320819362,3.55950335935,-3.83695408451,-4.1352873023,3.36708140003,-3.15580745008,-4.13452380858,-3.00583791637,-4.18487166538,4.04875697187,4.17219641025,0.155922814692,2.81697865131,-3.03029945568,3.15430694043,2.9267306846,-3.06806497118,0.0,-0.279250047386,3.31439090295,2.94657911358,-0.0253838591138,4.11575359315,-4.39943259949,-4.19365219882,-4.08184472042,-4.10711658145,-4.19956327,-3.68343896969,-3.976391122,4.14951853705,-4.069501056,-4.03150401231,-3.0491661471,-3.63733481073,-3.04858878585,3.54132338006,0.152650744241,-4.39795332014,3.27668811913,2.81883636996,3.99069224617,-4.34102807821,3.88340337575,-3.08368189162,3.98948686269,-4.08445846054,3.73722089644,-4.07523144276,3.82882175658,-0.00116681648821,-3.6571906305,0.11417722026,-3.52129414959,3.90041964017,2.84912882812,-4.26717220703,-4.02101444951,3.86232789009,-3.80628392997,-0.0839742257958,-3.08258439549,0.15965519895,3.53483791724,-4.15511921222,3.9343505284,0.165638174169,2.91307090978,-3.11156958483,-3.24818360942,3.58700171741,-3.14650796065,3.53059312784,3.77647349296,-3.94208554601,-3.9331223643,2.98288683457,-2.91961149761,-3.98144845607,-2.67839294458,-4.02052126428,4.11898372823,3.92688206501,-0.0983462052811,2.81280490909,-2.98351362126,3.01647838525,2.69728793385,-2.86226727277,-0.155153712386,0.0,3.21826171688,2.9387537543,-0.324668811585,3.87632702086,-4.32864122204,-4.20460139915,-4.07031754443,-4.17878540344,-3.95840555477,-3.638038247,-3.87082479719,4.06646346587,-3.9670616414,-3.85416704655,-3.17333198587,-3.33977533382,-3.01866566935,3.3802534453,-0.00931629162537,-4.20379345672,3.48833758466,2.83943253162,4.16245218371,-4.23963513402,3.47323667128,-3.06049300886,4.12035764458,-3.9569635168,4.20426222626,-4.28723622305,3.86381471006,-0.0529499989992,-3.55527682249,0.0384955893274,-3.64362109541,3.76923856326,2.57043868342,-4.32452020479,-3.90806590834,3.6845876797,-4.11542844897,0.0543897066006,-2.87747787393,-0.114224028811,3.66676871592,-4.1323371668,3.9265747338,0.0657804265371,2.79602117754,-3.04684954441,-3.5303662161,3.6296077974,-3.21601039833,3.48652055294,-0.193215127208,-6.37057249946,-0.0556338303611,6.38416846956,-6.39067482899,-6.5854224381,-6.70524307661,-0.363464639002,0.220370524533,0.219876805252,-3.56840085006,-0.0413487683982,-6.23483952484,6.3927959749,6.15250396556,-6.2810440588,-3.61454183324,-3.44414126296,0.0,0.0998917226741,-3.36266609472,0.287413979018,-6.30479854421,-6.2420931459,-6.22115022222,-6.25014320915,-6.46184053579,-6.41606857485,-6.45737044557,0.317200457163,-0.226791200009,-0.267202177139,-6.15007265604,-6.61481026141,-6.49546073452,0.143421188171,-3.36975380136,-6.33038540939,-0.104755336752,6.20663370369,0.125966372939,-6.46225893881,0.0114017539502,-6.46046531685,0.201724651876,-6.46522896727,0.0837177362656,-6.24542682214,0.0457348810834,-3.504632577,-0.0461640031649,-3.31844201919,-6.33779933756,0.220230200182,6.26801145514,-6.35429927613,-0.153332529141,0.0910949626181,-6.35312817213,-3.42786279991,-6.34544782378,-3.0691592718,6.13559983026,-6.50693828047,0.0259601918592,-3.38191125986,-0.50451432907,-6.46243862848,-6.34241845362,0.0216326917257,-6.16539466305,0.295655060054,-0.158577473743,-5.21211655647,-0.208486631493,5.19778435895,-5.33077535205,-5.30381175289,-5.31114100073,0.142292179278,-0.0678287242226,-0.155132960529,-2.88753595849,0.21937637915,-5.41587333325,5.30588118068,4.91880403444,-5.56977582922,-2.74466858694,-2.67748192434,-0.0953853870002,0.0,-2.89099118053,0.0698374150121,-5.33566766665,-5.27301749831,-5.35051789417,-5.32435293878,-5.45893768249,-5.38712662409,-5.40644075686,0.0505011282483,-0.0966691816281,-0.000496980787164,-5.24379968633,-5.43996989343,-5.42064393449,0.15445218151,-2.92727356001,-5.3344263119,-0.210952439859,5.15183044001,-0.123666263096,-5.34067912523,-4.6667994209e-06,-5.30094922426,0.050264591159,-5.41978111992,0.0651421657004,-5.50682016529,0.0114033044657,-2.81790649257,0.096769347795,-2.88030400726,-5.09114660207,0.0610966737357,5.05452737159,-5.58244055441,-0.0685349545974,-0.0152628795773,-5.56478716638,-2.70340328335,-5.45207673245,-2.7299666983,5.17287087039,-5.59033338667,0.119477252415,-3.01000683431,-0.16833764578,-5.31938288913,-5.50811839573,0.0726554953159,-5.15816106518,-0.168043919547,3.82773127241,-3.78155895984,-4.04057832013,2.84081546663,-2.94601654222,-4.26166248967,-3.12942635264,-3.98580164701,3.97130025195,3.76068598543,0.0585064893404,2.73219841338,-3.23585921218,2.88841968623,2.75217225221,-3.10612677642,0.0063380520236,-0.12499343695,3.64576342208,2.84967719595,0.0,4.02233902258,-3.98320281124,-4.30904560582,-3.95550016055,-4.15438996782,-4.11796062089,-3.34149724848,-4.11213857606,3.84809403357,-4.10467705433,-4.26930056371,-3.08875199759,-3.36786297974,-2.88906000898,3.28344821363,0.0587214282876,-4.29861610625,3.11497144999,2.71260210647,4.32855066588,-4.08646802189,3.4936240441,-3.02644024635,4.14268572662,-4.05961019301,4.02667381319,-4.05784023416,3.84031473579,0.0474620409477,-3.50695136774,-0.0316984185691,-3.7364810353,3.72539493572,2.93018869611,-4.12398244931,-4.04236096995,3.80388668938,-4.14986415146,-0.0683807187366,-3.00232626563,-0.0213255569934,3.47693860903,-4.36965580925,3.9053948348,-0.222486205555,2.76338930068,-2.76251969923,-3.3160684152,3.54157082834,-3.26582803984,3.39777884095,-0.216817999285,-6.95272522509,-0.247350854135,6.96928912646,-6.68736270118,-6.80651629093,-7.15813586623,0.131542338284,-0.0503617174222,0.0567962311428,-4.21987755117,0.0191279222353,-7.1830000537,6.81338751611,6.75413342958,-7.16346372954,-4.00962151418,-3.96096449768,-0.129666908454,-0.0220250547864,-3.86250449049,0.0,-6.89564019837,-6.78974892242,-6.68393850825,-6.52476406159,-6.89650772077,-7.11143317667,-6.70330030493,-0.0505320077147,0.0702168515761,0.15519538722,-6.93829624861,-7.17458883476,-6.97838685438,-0.17825437867,-3.94485298041,-6.71741024322,0.0797305925897,6.5243800119,0.167700350377,-6.61514630948,-0.489911102817,-6.83543107721,-0.013267396054,-6.54434593173,0.0317808034722,-6.92217986251,0.0228376162728,-3.97840106673,0.221116099402,-3.89769377968,-7.04983686504,0.0569850199849,6.90000937406,-6.66133770953,-0.0364302794958,-0.00672572453308,-6.93352778106,-4.1020963199,-6.59469165239,-4.29130548003,6.83936054486,-6.42891753629,0.137230488706,-3.94032463564,-0.754739505285,-7.11085841248,-7.14330994713,-0.422984015699,-6.64759041104,0.144496871524,6.66235696277,3.5003384756,-6.6494641552,-4.0405534044,3.83898976224,-0.0748962034266,4.43695590021,-6.66903871344,6.7331572425,6.83260025977,4.39474269088,5.57771735203,3.97842511403,-4.07447823347,-4.03767636821,4.15336330764,4.18374951334,4.24283031878,6.24196754765,5.7643975775,3.96622613847,6.5123312724,0.0,-0.100772474334,0.262149690958,0.290760475707,0.212139539409,3.58867674706,3.30880891989,6.59285533727,-6.86365116991,-6.97769094281,3.83594789731,3.85424443572,4.33988782663,6.44665785339,4.14826584873,0.126261622515,6.18511456108,-4.12308248481,6.40581323581,-0.186321949178,6.5915436127,3.92263341691,6.67523754473,0.0965122547632,6.48310931158,0.105769238573,6.52922198491,4.25252092097,-6.89561621421,4.15277029597,3.45818986786,6.22237809845,-4.41391409439,0.153057581934,-6.77007424183,6.3411065714,0.215804458074,4.02117714718,3.82433118872,4.36070894855,-0.439080043385,-0.219513615672,6.4816157809,4.20358554332,5.9334492598,4.10619826584,3.72658548056,6.48993950909,4.00958107215,6.62875639776,6.80287656065,3.53108728456,-6.792083459,-4.07663406107,3.83775556354,0.0605489913531,4.1312821636,-6.68529677994,6.50187529838,6.48594528966,4.2576717108,5.71799593566,4.20775889788,-4.06054384499,-4.38543136384,4.22738488194,4.17549133492,4.08177172995,6.34659523964,5.49611994195,4.22404857701,6.55681041361,0.0662681865805,0.0,0.134072001206,-0.0798614823916,0.188556116395,3.53738636564,3.1785451494,6.80777313838,-6.86799994523,-6.78206745621,3.76804334241,3.84752094127,4.2620849259,6.428883478,4.08491773838,-0.0587427716182,6.2382941699,-4.04472821296,6.74709542748,-0.152380818441,6.52785911108,4.19432173049,6.44385212081,-0.150161668031,6.59582464979,0.230543217399,6.69230945406,3.95095112499,-6.96366637468,3.90219021162,3.68660872336,6.36747360417,-4.33760274842,0.025770327854,-6.68986838198,6.50668855998,0.112649777105,4.36911390627,3.62345474982,4.38019073232,-0.430868428816,-0.257899171927,6.74558832547,4.07549378022,5.70423630482,4.38146774723,3.80708432741,6.5553339228,3.91772292034,6.5263952059,6.6331709498,3.37953977977,-7.05882971974,-3.71135087709,3.79299498694,-0.273003162234,4.14827718622,-6.88737130094,6.77922291141,6.84088929394,4.11367804583,5.76444356136,4.00651091247,-3.74082767869,-4.06591106494,4.17396840272,4.00902323795,3.86934078199,6.6965477608,5.44548949144,4.16599771793,6.87102031731,-0.338035547576,-0.22984963458,0.0,-0.0192838956079,-0.132222114251,3.44180954308,3.04679722293,6.8530536313,-7.02565727215,-6.70361921518,3.72985437918,3.54598238202,3.84505336777,6.21313029766,4.12814014018,-0.451616588422,6.04556576949,-3.80253461928,6.8735292476,-0.450057808314,6.49543184133,3.76875878265,6.8903859482,-0.280450362829,6.77377886237,-0.0258838875546,6.71294856816,4.13286473199,-7.18390502676,3.88800518074,3.61356006844,6.66793224675,-4.08920952383,-0.132590073109,-7.03870668716,6.58715581586,-0.0105983754099,4.07357528558,3.68508057349,4.05913388797,-0.0668288903782,-0.406805381381,6.99926239959,4.00412765679,5.81203364961,4.18778397339,3.66768372055,6.54146009105,4.02302886137,6.55843425365,6.68272538355,3.58849802892,-6.74295187672,-3.95158745456,3.67030927765,-0.122272217458,4.30111815424,-6.84837233065,6.79515539642,6.44433736672,3.96174653889,5.54769386629,4.10434418131,-4.14698255304,-4.19161581936,4.17720627536,4.30585935044,4.23347197865,6.54885500887,5.43139002343,4.39697519376,6.47030394402,-0.186672653155,-0.0194000588283,0.354764968597,0.0,0.175555688582,3.59442217067,3.32479918029,6.87132196229,-6.84741209632,-6.79119850911,3.73387109912,3.7441770017,4.17001640521,6.35948634693,4.15433610618,0.0368942958504,6.21943158621,-4.31399291052,6.66217553779,-0.137552073274,6.64947641807,3.85698261691,6.61781598921,-0.15244469098,6.73156877879,0.078094709696,6.43709031575,4.21137722661,-6.75666843254,4.25180138245,3.58361545687,6.3936685951,-4.24331906845,-0.010589978288,-6.75956586149,6.43227884721,0.0435971482535,4.1371891174,3.75710526942,4.20994009134,-0.296976964853,-0.108509965698,6.46921017819,4.15781317437,5.85205948773,4.23323024414,3.64724455715,6.59041241347,4.07299417803,6.56768237867,6.66530732071,3.01969172551,-6.8244417678,-3.81123824804,3.69377102117,-0.155702392955,4.18503220665,-7.13938114682,6.74666555978,6.7730386427,3.94067971124,5.45568909974,4.09302365019,-3.64715609203,-3.9148666177,4.01206819423,3.82000636542,4.02959089816,6.36472313583,5.54156382793,3.81481862313,6.74864621871,-0.225484043312,-0.253976346981,0.110184640264,-0.404149525565,0.0,3.46128992975,2.98048559809,6.84344489756,-7.08149223285,-6.85269417692,3.75819116409,3.64182594253,3.92394560276,6.65469494061,3.93932616483,-0.0925293847509,6.37790523265,-3.84213764423,6.78392593801,-0.54029362366,6.64054643016,3.76437326384,6.64379737221,-0.178434260567,6.83653649831,0.0359145376069,6.83402189461,3.97585669663,-7.4148039969,3.91247245238,3.46297707041,6.64056404265,-3.97279986312,-0.10505551145,-6.9415225193,6.50685179498,-0.055261773831,3.65233427746,3.6891448692,3.97918468828,-0.333555696493,-0.476901244419,6.99620597584,3.93773214752,5.69543685666,3.93889063924,3.52732683451,6.81724753456,3.75148452649,6.82684464908,6.48657437283,-0.137585807793,-7.12975191398,-0.314571178494,0.379169580698,-3.58519133832,0.318059512837,-7.3480530439,6.79981869605,6.82418031871,3.56603123693,5.63694081747,0.734959015586,-0.441332093063,-0.45669431013,0.553055230044,3.60324958931,3.58396399195,6.43353782829,5.40760472997,3.58432153081,7.20456220408,-3.6778942375,-3.85621305152,-3.54937121643,-3.54837025356,-3.51022233298,0.0,-0.485110548515,7.06002570851,-7.2863195178,-7.01827571704,0.276172681006,0.0831069723487,0.644588944629,6.41929745673,3.73048396454,-3.63505591292,6.14604325597,-0.594467881342,7.08066928744,-3.81587089218,6.54112006829,0.3794552739,7.11225841934,-3.55346733518,6.95350173038,-3.43389964082,6.81899321218,3.664570454,-6.79654915845,3.69325470595,-0.073513584759,6.70190051193,-0.197052303367,-3.59694093018,-7.35136681568,6.69759156987,-3.61443162584,3.69858645426,0.263779913323,3.67549190391,3.03904260588,-3.78274175149,7.06909863467,3.73294124278,5.94602321179,0.567124444345,-0.0433642651745,6.76889303377,0.494633391743,6.40720321979,6.62094951818,0.153446596255,-6.94191197974,-0.626045141893,0.235397338525,-2.94133007383,0.86644427561,-7.07134233142,6.75909209404,6.89758398761,3.92167265236,5.46455151874,0.875315584985,-0.854875513119,-1.24551269678,0.932624523385,3.98258261275,3.9387888588,6.42878149196,5.20567613392,4.08592851574,6.89466468134,-3.18186492683,-3.22033898483,-3.14232568661,-3.30483741614,-3.21172126364,0.288926537825,0.0,6.8221245922,-6.92758064109,-6.9146947662,0.470251355594,0.732449483074,1.00036406091,6.29157606204,4.17310392632,-3.2401851975,6.25765978152,-1.04747955948,6.94902612976,-3.31797251141,6.47437994051,0.799734039296,6.76268322701,-3.22929866751,6.54506987285,-3.1016729129,6.83436471243,3.83020665534,-7.20557461216,3.95088766436,0.366844927973,6.68644596528,-1.19975601322,-3.42002301773,-6.96725577583,6.69238629945,-3.09016408498,3.99335954208,0.594771758032,4.12963399613,2.99930554629,-3.52809669637,6.73997942823,4.07176823133,5.86947266963,0.877954629078,0.704143359909,6.4483124669,0.801687795746,6.58582469354,-0.47552393626,-6.93219495389,0.0979211583074,6.9022637728,-6.82933121421,-6.52076797239,-7.05571983613,0.0448023142287,-0.0994047871845,-0.0475727877792,-3.9239945889,0.00117424385859,-7.12750671318,6.83268714589,6.62642581825,-7.18920995052,-4.0513766708,-3.96755086777,-0.255389930319,0.0611713127135,-3.94033095526,-0.00396350578031,-6.66147997526,-6.57810211454,-6.76835445661,-6.5191572334,-6.82494885894,-6.6748807468,-6.8250549937,0.0,0.131260223064,0.0773343334593,-6.83837921705,-7.29423901344,-7.02709482269,-0.200059240181,-4.06589300541,-6.7208551167,-0.0068410302069,7.09602737739,0.0738172044718,-6.45716797666,-0.39495640052,-6.72857185959,0.178438595245,-6.54817805727,-0.0242523594607,-6.88135439063,-0.247404908793,-4.07837164533,0.349810764716,-3.89012695379,-7.00425460613,-0.189555459709,6.85348870361,-6.71058561931,0.237492909442,-0.0410563446485,-6.90808525528,-3.97648367369,-6.46626342435,-3.81628424624,6.57808986641,-6.46391187333,-0.0224302155366,-3.86916145597,-0.789011169029,-7.05482200839,-6.82679951986,-0.583612114625,-6.8235851938,-0.013947083917,0.262732180119,7.17041948136,0.097237421178,-6.85770542594,6.91753142926,6.90449650949,6.83539828646,-0.106886635107,-0.0136953230579,-0.13003098674,4.02564275276,0.133296847924,7.05282513534,-7.16255020948,-7.09693647119,7.10345489381,4.08766404389,4.14711183435,0.249395525993,0.0526359040066,4.02815161571,0.128509478516,6.89524062204,6.7058844181,6.98050304955,6.88640547989,7.00487395619,7.0327481074,7.02676061055,0.0927477275995,0.0,-0.0048189633928,6.93559673867,7.0570134975,6.92430176705,0.351222395776,3.90011284771,6.93410296206,0.1416369163,-6.82317922613,-0.0341816618439,6.62521335813,0.138294164822,6.66327831637,-0.193018941382,6.66065398023,-0.0408210125554,7.0165758875,0.32060498823,3.80640649617,-0.408493931023,4.12658720673,7.35414936782,-0.0251386989472,-6.75168241114,6.79292328325,-0.00341645344667,-0.14277954234,6.93803909276,4.03086894542,6.47060856975,3.83832800216,-6.71969447652,6.62899666474,-0.205320287943,3.91461792514,0.871209999356,6.97998775771,6.95626444012,0.245774974853,6.86587607412,-0.216757571796,0.455877775845,7.28764716664,-0.0919496364354,-7.05363503756,6.86905635585,6.7744447432,7.07195928817,0.198099207672,0.132705330921,-0.096384047754,4.0114605205,0.0274503857734,7.05685494852,-6.8920757662,-7.00977631418,7.24965541052,3.96550903806,4.06867475608,0.162797554392,-0.0517284002327,4.18192311125,-0.0575046291872,6.88437983161,6.83053440899,6.80403600071,6.82215841144,7.0764687219,7.27590189418,7.05537438457,-0.150419418593,0.0131200002638,0.0,6.88457554225,7.09355466238,6.86607394148,0.255571403646,4.1021063074,6.87002990134,-0.0928902786371,-6.80135928161,-0.168242900412,6.43883534364,0.423610453234,6.65325764525,0.0622175478801,6.60282832775,0.195220291553,7.01121781104,0.211463163836,4.05841148723,-0.282181785886,4.07401937943,7.20444833618,-0.181728379399,-6.93052167597,6.92730330741,0.0574291110468,0.0922753417001,7.00479608744,4.03475441326,6.35919137582,4.20276498254,-6.8196718096,6.67993736008,-0.0671374804334,3.97408640628,0.866187168608,6.92385987261,6.91755378035,0.534207785894,6.68266360294,-0.199201573797,6.2285682167,-0.267797307603,-6.83927848939,0.00681197306718,0.035455677417,-3.70714519891,-0.188140580802,-7.02667656943,6.83346500351,6.80497810747,3.01536475537,5.63131379807,0.0422865480255,-0.0415014763868,-0.0115054398016,-0.0249563879334,3.01408094594,2.91606319935,6.21557207648,5.06135963342,2.84936324911,6.64354217393,-3.93611422773,-3.92695399514,-3.89825276322,-3.7539704505,-3.51742242977,-0.439060585744,-0.708915160233,6.75607880727,-6.70770032935,-6.82132623541,0.0,-0.0052156732058,-0.0467824288614,6.36763637257,2.85486138532,-3.63980660861,6.03420193926,0.339993724666,6.80354747815,-4.01463353363,6.54267371069,-0.127716770033,6.6874294772,-4.05221068363,7.06398543054,-3.55896612619,6.32535735246,2.95965974818,-6.45132142145,2.78257089444,-0.172932745691,6.72470692426,-0.132340963786,-3.8520249992,-6.6324814441,6.67249192385,-3.72327767145,3.0075928171,0.0230189186479,3.08832977119,3.78631606226,-3.84220872468,6.78221297829,2.90338845025,5.65308686628,-0.0562758468817,-0.0452634655556,6.36312641835,-0.485426833316,6.44014750982,6.77294672814,-0.418532168275,-7.26934359568,-0.148085953908,-0.0704423204196,-3.84794187534,0.411453452058,-7.17911927382,7.1687215446,6.84674300821,3.21080904978,5.6950662865,0.276845529296,-0.225426471848,-0.225043790973,0.462186226714,3.07626075383,3.38466344503,6.45273222938,5.38930068973,3.43034072638,7.03292106773,-3.96623961161,-3.85760370372,-3.67004442545,-3.93116681333,-3.7461326647,-0.196566685393,-0.62741418443,7.05132109489,-7.41705087055,-7.18179393907,0.27353420438,0.0,0.548471649916,6.43636926903,3.24766085076,-3.91407407519,6.00994050313,-0.508281723325,7.10125155653,-4.03695505876,6.8153800357,0.211287162524,6.91783031478,-3.83191220629,7.10442176047,-3.51760285853,6.65083075186,3.25997973939,-6.64860049977,3.38658404894,-0.371087255524,6.7368511994,-0.503673307095,-3.68288893927,-7.33964871221,6.9937812491,-3.54386013029,3.5899161793,0.259852646252,3.14915143498,3.57785997529,-4.04816273218,6.92996559802,3.49268219829,6.076734518,0.368372842027,0.0865221369244,6.83617584252,0.306354736613,6.49003276355,6.68556072901,-0.796425866128,-7.00300387254,0.0943854347509,-0.0153815042184,-4.20956701697,0.0584869057032,-7.02298643135,7.06216332158,7.02535790393,2.848528446,5.64054789293,0.123881243852,-0.12622602815,-0.418394127771,0.0144215495537,3.11454556162,2.94596507372,6.39046311372,5.19844824629,3.02212525451,7.01251086338,-4.20626264986,-4.08971130105,-3.8259575665,-3.90013586369,-3.85238427353,-0.444716390111,-0.801317891397,7.00367327542,-7.24872161988,-6.7893273257,0.0693903346051,-0.398235889177,0.0,6.5562455966,3.12263874934,-4.19816105943,6.18503322421,-0.204254015404,7.16837044191,-4.10890487168,6.72619684509,-0.171880683424,7.09003000187,-4.19415675001,7.14526909821,-4.00245178313,6.79831490394,2.76553902134,-6.639577363,2.84339858602,-0.566748050308,6.86496274506,-0.171198034268,-4.41911463384,-7.10128426291,6.72238884721,-3.87184459511,3.18739551416,-0.127076451998,3.08360474299,3.3996490157,-4.04828277822,6.81536899913,2.89371511913,5.90433392858,-0.0253075589894,-0.247825860851,6.52027713491,-0.280625244131,6.52344654051,-0.120910723444,-6.38984601943,0.0153165206671,6.08057566222,-6.13928487715,-6.36845577359,-6.36447088448,-0.309266528043,0.306644114767,0.183908336498,-3.40755285211,0.0935548995397,-6.41474979678,6.42632487235,6.20770454907,-6.37803592884,-3.41880931884,-3.36057105452,0.0486167668849,0.0343738988701,-3.2043367088,0.239807739699,-6.41345023897,-6.39770905564,-6.22965251597,-6.21337375207,-6.4460509806,-6.55666413518,-6.45612139356,0.206357097242,-0.255563386919,-0.28128771098,-6.23018902364,-6.5889505764,-6.61030707322,0.0,-3.32964776763,-6.46473922512,0.0498175394996,6.16585469598,0.15089959396,-6.44458104532,-0.115554097992,-6.41012612037,0.0768343442372,-6.41312557203,0.214215331161,-6.37691742386,0.186408831847,-3.51552377082,-0.135221811552,-3.38305327616,-6.13957939884,0.170217162758,5.98453710434,-6.4632309207,-0.360192119078,0.209947614724,-6.21985431707,-3.40288300968,-6.36011295109,-3.45059081597,6.38244825055,-6.24024581226,0.115013616231,-3.52195135261,-0.745269701911,-6.33042208296,-6.56113624432,-0.0457422518499,-6.55453782512,0.125045439919,3.70296440581,-3.77255824633,-4.09224051855,2.90035584326,-2.95474392471,-4.26259392311,-2.98256639389,-4.09513112964,4.16481798458,3.91930635804,0.0289584130496,2.70391407531,-3.0917976337,2.97524674799,2.88752557106,-2.76328901272,0.154939931334,0.0564494488688,3.3838948844,2.86642119824,0.173533881733,3.97500421747,-4.2481821821,-4.34540515724,-4.14397183452,-4.10888318655,-4.21474305454,-3.73316002736,-4.04082192006,4.20309062044,-4.01886954572,-3.89855214851,-3.21620967867,-3.62875269632,-3.01100443174,3.5423352531,0.0,-4.36653414055,3.05278263224,2.78783790034,4.20649791487,-4.28473580119,3.57682307969,-3.15221083519,4.12415311419,-4.06351994997,3.99629121857,-4.12832943364,3.79923907979,-0.00849055530961,-3.40948119882,-0.100051438305,-3.55237436078,3.67311981752,2.82805215443,-4.19797022573,-3.99933448068,3.82339403928,-4.12809035851,0.0765374794975,-3.2099616424,-0.141070524573,3.74023555698,-4.21261334502,3.79587098434,0.0283543274233,2.82028897504,-3.12084873072,-3.37444928478,3.62067288035,-3.16286768902,3.68478240516,6.64644650571,3.41490895614,-6.72776483965,-4.14476998458,3.73068163387,0.227309103243,4.26988574025,-6.84497124767,6.64955177335,6.6340865247,4.45222657662,5.61357655538,4.34902390338,-4.1174934224,-4.19586919454,4.13177623501,3.9954113268,4.04550075177,6.39119084238,5.46856802459,4.18415526285,6.65224852331,-0.113132298257,0.0300598936792,0.132564302077,0.0578349514111,0.267997931425,3.68592903579,3.15074715356,6.30450243534,-6.86714744188,-6.67960873601,3.88251388118,3.89150870835,4.19110414074,6.6224973514,4.21236116844,0.0,6.16825687119,-4.28220744811,6.497461395,-0.604649428286,6.64406453741,4.0400470951,6.4990160564,-0.214102297844,6.5085174681,0.320468604374,6.49650495167,4.11688049244,-7.09658953601,4.4587562952,3.52460776777,6.34604855983,-4.50427221588,-0.0566215191413,-6.85737271814,6.35503181113,0.0293109607935,4.17503483779,3.85578942679,4.22517552076,-0.655890719367,-0.118442434077,6.50025396759,4.20769965903,5.81106076398,4.05564024602,3.75760487097,6.58838730444,3.86963097142,6.39779443905,0.120330209477,-6.18378987918,-0.155016905123,6.03302533098,-6.03634232982,-6.22881876241,-6.16209770135,0.0298997890259,0.0513162372753,-0.0934091481178,-3.21238315067,0.0625261584069,-6.15566269569,5.92994737404,5.83722612574,-6.17098431467,-3.46259009715,-3.25330335777,0.11203154074,-0.181943933776,-3.20137284785,0.05196547233,-6.03286409854,-6.14854627094,-6.43673634269,-6.2593282814,-6.02955163989,-6.23410053363,-6.14594569552,0.143982188639,0.015087398368,0.123156973046,-6.08931648149,-6.22668677825,-6.13693106711,0.0582907735506,-3.31414009283,-6.28834155428,0.0,5.95997167742,0.0314775457442,-6.24170188305,-0.036707824429,-5.92890027341,-0.0916372895362,-6.09006044466,0.0523480615981,-6.27560410089,0.028392107007,-3.30604318113,0.170373156219,-3.38444125716,-6.06671972577,0.102038539589,5.88799522179,-6.16714243777,-0.140203311563,0.0686270572439,-6.16255986958,-3.14421089434,-6.16511858711,-3.1663722909,6.06160756309,-6.08142805979,-0.101314339068,-3.26519942348,-0.74509159722,-6.05410122667,-6.21487349912,-0.0449781678087,-6.15993577158,-0.00597933751224,-6.43414019063,0.537477845535,6.93803384482,-0.210725295727,-0.173424227649,4.25614944573,0.475208434008,6.78878758573,-6.78483114143,-6.68163475699,-2.92273924958,-5.53844454491,0.369990782952,-0.146509947957,-0.061118837146,0.17781937527,-2.70757500517,-2.85488149739,-6.22977929065,-5.21532509779,-2.8210294637,-6.81970648615,4.27132093922,4.42623553166,3.92355595776,4.14211845214,3.97197256828,0.676396899128,1.0039776186,-6.72978940011,7.1166776685,6.84808413943,-0.10322136994,0.318688249517,0.263938072897,-6.09690913231,-2.77952575777,4.15150994631,-6.22287519192,0.0,-6.89348558062,4.10192058643,-6.22644672982,0.1774550651,-6.8088830081,4.44191094526,-6.61084940332,4.19075172564,-6.62848176424,-2.81546785399,6.47591053782,-2.95390874152,0.701828288675,-6.76276805056,0.0110125833559,4.03538729973,7.04797542124,-6.68386522832,3.99691197251,-2.7685252514,0.143006552722,-2.75184994154,-3.96768935,4.36187582868,-6.75211128483,-2.62304972581,-5.52221651402,0.147310935187,0.476103591713,-6.05686049823,0.316923732194,-6.61529452755,-0.30508642401,-7.0164482659,0.0916244528541,6.68288625294,-6.61092297151,-6.58889749156,-6.87988298015,0.0577270955949,0.218824369524,0.239463122079,-4.02803958615,-0.150101258568,-7.11124620413,6.72503624456,6.88557840845,-7.00742171048,-3.99628176099,-3.93131531211,-0.176802200215,-0.186515665969,-3.96300965145,0.00826893215747,-6.77334201467,-6.64538275174,-6.86108655813,-6.6522035955,-6.75083130224,-6.94255990538,-6.82820578252,-0.0677231834759,0.0336709351073,-0.192083890864,-6.64608414444,-6.82198920985,-7.09859828652,-0.325842972162,-4.03498942883,-6.34671139101,0.0356815641669,6.9876751053,0.0,-6.50505302431,-0.713609624165,-6.80058245784,0.142053924798,-6.6293125829,0.0261332166829,-6.71898668799,-0.274579661963,-3.98924733568,0.351678564561,-4.17462475954,-7.00871647096,-0.00253790369845,6.54294514947,-6.66477457764,0.00757791888764,-0.118197538666,-6.74072725202,-4.20115976925,-6.49509521475,-4.07842383623,6.65427442388,-6.46500056751,0.04827704263,-3.92584943701,-0.852456275833,-7.08631525387,-6.90116794556,-0.47847205744,-6.77374171127,0.157098736378,6.4618417853,3.38522425927,-6.56885178153,-4.22380289227,3.62511618088,0.247883370202,4.19208813349,-6.39245094049,6.30862681993,6.12640918344,4.28167391647,5.73923640015,4.10901820817,-4.29872607331,-4.24211181976,3.99244490458,4.24634860234,4.23198562232,6.48867969719,5.51110253055,4.20093148195,6.32566772885,0.36652307642,0.0467290213981,0.382164588659,0.0931291745815,0.638454084504,3.84221074855,3.30963524069,6.45710218353,-6.60116606431,-6.52468301735,3.75112456856,3.89501837955,4.35880976806,6.43097853192,4.20038828045,0.358809607718,6.22127422517,-4.23896316784,6.52693386979,0.0,6.44899799577,3.98117755035,6.42387895279,-0.0263224268668,6.32700499754,0.366344416554,6.43271369959,4.16088143326,-6.7683776644,4.12989032855,3.86768863408,6.15524233368,-4.02522743079,0.130054358055,-6.52802206487,6.25635205503,0.511856991062,4.42419283126,3.90270443236,4.36627488204,-0.704331814519,-0.057429462872,6.54173360093,4.23919441365,5.86134356107,4.20445028867,3.84667110719,6.67251051242,4.02196454274,6.46167457218,0.0928941140392,-6.52049290163,-0.522942578759,6.33514698117,-6.24477143633,-6.47130270478,-6.69716390211,-0.36551330766,0.346307360369,0.475166619307,-3.59872685374,0.121237660217,-6.73301346986,6.40428325115,6.26116157959,-6.63893181111,-3.59296206237,-3.89250283109,0.164600386052,-0.020293921219,-3.54956186438,0.37716055812,-6.86600654115,-6.64529165299,-6.58823138646,-6.66985974953,-6.62451334557,-6.81761040745,-6.59768819489,0.218012905647,-0.457523084151,-0.434496485524,-6.35488431343,-6.53454735211,-6.62154222759,-0.110036117617,-3.67717156207,-6.70929004616,-0.00442745264298,6.28342311756,0.427279984772,-6.62474949039,0.0,-6.53520542881,0.371463339455,-6.47743181121,0.572554150257,-6.49200406183,0.0764260381428,-3.59942383666,0.227511802717,-3.61565142881,-6.62071599185,0.539455020848,6.40390317346,-6.68265190499,-0.537173583129,0.380640270587,-6.49828480462,-3.58157336965,-6.24810198369,-3.40777628888,6.48846438954,-6.55796303278,0.173029174383,-3.81062192383,-0.470619468257,-6.51345390293,-6.6267849834,-0.118921562035,-6.54557858963,0.164251716037,6.77219515332,-0.684963188789,-6.97462942105,-0.221190451938,0.397004308936,-3.92135030748,0.170869455964,-6.68634428646,6.76845700474,6.86006312329,3.4094629517,5.54749445406,0.104073282418,-0.137430830436,-0.348746245946,0.079091677615,3.192969753,3.28202069209,6.42869240166,5.49700557326,3.03328112291,6.88372758005,-3.83994787138,-3.99984905936,-3.84030426641,-3.85311342242,-3.64443188973,-0.419016542092,-0.86422157002,6.59086433653,-6.70413614689,-6.90678443049,0.209998360027,-0.140061412796,0.213148731633,6.20219450603,3.19657919449,-3.86030978277,6.46016480556,-0.508994138329,7.1592780285,-3.87113177502,6.51821939972,0.0,6.78298218729,-4.04916983131,6.71532928463,-3.7699978315,6.87828002843,3.26345080768,-6.9697351503,2.99304192402,-0.326619139182,6.56314912371,-0.389714525339,-4.04667409508,-6.82830452646,6.54008454816,-3.91700669198,3.11978849529,0.0782857736549,3.09658254203,3.0839914646,-4.11889802038,6.68372951949,3.22998228061,5.82616606626,0.328476023332,-0.117506754326,6.48350853014,-0.0272388928262,6.64132566902,-0.427119755292,-7.24750363991,0.0614017960904,7.01657368315,-6.90327555293,-6.47104398848,-7.02998764259,0.00946962177444,0.108418587617,-0.0655335465133,-3.95703648331,0.30845623411,-6.89954785479,6.5874014878,6.74644469165,-7.0254976005,-3.93025303949,-4.01957601115,-0.30926831945,-0.137481326232,-4.06807687992,-0.148918249215,-6.62727079019,-6.73164492039,-6.76433892604,-6.52021527894,-6.75629181496,-6.97909816802,-6.85367443091,-0.043679187756,-0.100466381371,0.096248743074,-6.92493602695,-6.9140503841,-7.00631413205,-0.149881103958,-3.71808212051,-6.52679205955,-0.0171747302701,6.72025458552,-0.162536450957,-6.51221780543,-0.468160240023,-6.66611317001,0.0,-6.71904251981,0.0578011463776,-7.0437699218,-0.217909108534,-3.95728387401,0.389619957622,-4.04530223101,-6.89067648026,-0.0710784230083,6.89736001253,-6.76354001971,0.236213622967,0.145499892237,-6.85408026919,-4.06277422686,-6.65321059999,-4.25426494933,6.72594188166,-6.37950048783,-0.0173654470573,-4.11234772035,-1.05399960131,-6.92082302234,-7.21583542127,-0.491258727871,-6.8112742113,-0.189947011568,6.5566353321,3.34671378229,-6.66257941697,-3.94389982354,3.74689113262,0.023633697819,4.18202193946,-6.73165875052,6.51999088342,6.55666539644,4.29810552179,5.683584337,4.186620753,-3.96618851238,-4.20085931027,3.90114782701,4.26102243462,4.26124832073,6.49977804828,5.35447763319,4.2164564194,6.58473952856,0.152202772344,-0.119276695128,0.244255968426,-0.161686180801,0.13464274934,3.66654340352,3.10905515038,6.71358830453,-6.71836302277,-6.66018331132,3.71777037977,3.60824400983,4.18377220188,6.51351649647,4.24522264759,0.107045334998,6.14492900849,-4.39600582167,6.59760006217,-0.319800933775,6.5126576874,4.31315669972,6.65273125341,0.0,6.54336227185,0.252585457771,6.70287341373,4.30342475333,-7.23450718036,4.10323192771,3.28128645444,6.44191583073,-4.07764087544,0.11868954325,-6.75540414134,6.36044420812,0.186772544391,4.14265933823,3.74006159216,4.36770355085,-0.383186288244,0.0747955738219,6.65513811463,4.31020721809,5.6271460591,4.2073088465,3.92046153065,6.68644052608,4.06479407839,6.26932274406,-0.321977398461,-7.05757275608,0.0973377392763,6.72936540913,-6.80688695532,-6.48917170212,-7.10041231787,0.17461049062,-0.210977577463,-0.0645764897747,-3.9859783783,-0.119968322941,-6.94952999947,6.79105752541,6.85375470885,-7.01610938925,-4.10820535998,-4.13973499132,-0.222104766323,0.131786410185,-3.8887858436,0.192473661282,-6.54232424072,-6.44627802709,-6.60554864107,-6.51364919316,-6.77879726841,-7.02358734382,-6.70042734666,-0.1491352581,0.0468754240172,-0.00934265854167,-6.65791437237,-6.82240780029,-6.83323985838,-0.0229908035024,-4.01140797196,-6.55688763694,-0.0948524910138,6.74665954179,0.00667180012704,-6.3203287532,-0.58721463316,-6.79279598672,-0.0174016443909,-6.51729247193,0.0,-7.02654685474,-0.114688189706,-4.09720710543,0.360614692026,-3.77675152099,-6.92782892981,0.276433135784,6.83409309606,-6.65298568829,0.0441898597649,0.198973395869,-6.58403817283,-3.94380448465,-6.67022939017,-3.89091395494,6.83967377628,-6.42275154281,0.085379699858,-3.88643180178,-0.705877614558,-7.12537989363,-7.1570386008,-0.492111996487,-6.91603688409,0.165037370014,6.46597431342,3.15408156085,-6.88936857742,-3.79228563292,3.83910327893,-0.271585774698,4.06502715436,-6.95345909844,6.94091439273,6.84368934395,3.90829147876,5.7530075887,4.02119117388,-3.54891113841,-4.20023616067,3.9661605314,4.19485916703,4.11907383405,6.31355715463,5.36160219408,3.91134683048,6.74215780394,-0.132825340518,-0.115074804105,-0.0587704205198,-0.283498755896,0.015892055397,3.23499898734,3.09353587837,6.93585240163,-6.71358212812,-7.06691822246,3.46574670774,3.6260391205,3.76159499905,6.55249712115,3.84279021334,-0.214139530306,6.47858967191,-4.050798106,6.79947216057,-0.575917276137,6.61200319242,3.97766553774,6.8810259924,-0.107800180752,6.7210459432,0.0,7.00083872012,3.95009726236,-7.12007918844,3.79986287903,3.44115394066,6.61734908296,-3.96440245624,-0.249285749582,-6.98217796197,6.51637584109,-0.068534832952,3.91397442553,3.43134951135,4.14121711754,-0.230000896019,-0.291596791455,6.72342590937,4.15540610527,5.74088872858,3.99095401616,3.6548541247,6.45404369892,3.54608371858,6.61520758804,-0.264729266198,-6.85691655906,-0.130151892096,6.56686400626,-6.63376305997,-6.6637379417,-6.73636128153,-0.313982417709,0.0152080344718,0.253195039629,-3.84326511865,-0.0395369834408,-6.64784048356,6.54342415787,6.54433294164,-6.82003174208,-3.81059988326,-3.88745028487,-0.229548486053,0.03786818541,-3.74805931767,0.0991214190886,-6.63960965055,-6.61301414591,-6.6200834364,-6.33647714741,-6.70262995081,-6.85949127321,-6.77064507619,0.267342314644,-0.219745359359,-0.302964106592,-6.77048000874,-6.64536421515,-6.98276910705,-0.28159919684,-3.85314962228,-6.68839595814,0.135640813572,6.71658952334,0.23660527269,-6.62989386805,0.024225037084,-6.69138360212,0.35412313276,-6.49869429614,0.41080871367,-6.73255020144,0.0,-3.78013524298,0.157692060706,-3.72478003528,-6.8546049601,0.252044345163,6.45295302694,-6.67607031062,-0.160962543012,0.125841365886,-6.79907668491,-3.65851794382,-6.70037283058,-3.71212583586,6.77845391742,-6.63448903948,0.0363932448366,-3.83647946213,-0.785996371122,-6.79058089488,-6.69763421742,-0.210396662333,-6.77875413936,-0.132322237809,3.36708433605,-3.73434696083,-3.81817544494,2.78900298552,-2.96621739279,-4.05002367092,-3.04651887923,-4.2161809613,3.89609898235,3.64961599744,0.139107867773,2.52272553529,-3.14024938068,3.01983739051,2.9093857138,-3.12052126986,0.116429875731,-0.00838835418831,3.43343402206,2.8834009975,0.0894330211805,4.00729254838,-4.05519595775,-4.13696646763,-3.92052044747,-4.22971852381,-3.78870215594,-3.57414773869,-3.93532435518,4.26027960712,-4.01098117879,-4.23238170355,-3.17362865771,-3.21625420944,-2.94490676963,3.35282285396,-0.101391934876,-4.13734867275,3.24159394802,2.75446288231,3.99443286711,-4.27830935206,3.73470898318,-3.13412456558,4.04131384692,-4.18697818529,4.00429544533,-3.85988009418,3.79851612561,0.0,-3.70414110592,0.15236082788,-3.37068008714,3.89516702697,2.82867219805,-4.2609308893,-3.93885090519,3.86034260828,-3.89029138776,0.0264197358588,-3.00140532853,-0.0316348033183,3.59992762915,-4.3097313407,4.01654715219,-0.0859838076619,2.94056177815,-2.98518564295,-3.56755545411,3.58191576926,-3.22213806618,3.47141338848,-0.057329742348,7.04970002705,0.576430375651,-6.66539792221,6.43251368101,6.94283287293,6.58734130512,0.402973117084,-0.383824910322,-0.404191544469,3.52345249754,-0.022571753459,6.63108570686,-6.61549332855,-6.48060297794,6.68813706319,3.39734309142,3.61243753137,0.0741728927505,0.152485431923,3.60894806665,-0.407857629786,6.87147608974,7.11675055528,7.4001243923,7.1813670842,7.10167383997,7.00492121673,7.15556118819,-0.392003370003,0.467932449185,0.52919143763,6.26011553794,6.80214466538,6.46709265047,-0.0149091176087,3.68234943575,6.89789391667,-0.179199540617,-6.41832177374,-0.349990356545,6.94684709467,-0.0529626977893,6.94034160339,-0.259978328782,7.12867430588,-0.455743373926,7.46538869359,-0.192260073382,3.67398975408,0.0,3.56627633602,7.05805970795,-0.378558366347,-6.41318120986,6.98452478813,0.233784778264,-0.689025326444,7.14068373652,3.644834889,6.58196928999,3.6114811423,-6.96671861236,6.9988926188,-0.263674979864,3.54130735436,0.884131846025,6.70768463699,6.85402422681,-0.1090554185,6.77192283064,-0.0280417926071,3.54773926997,-3.75736648158,-4.00495327926,2.89418768108,-2.93377833249,-4.0241975717,-2.7712202642,-4.06577392269,3.97922362201,4.02558427563,-0.176494486286,2.84862839416,-3.06729020639,3.00217628319,2.68483146195,-2.96214580442,0.0786683882745,-0.120582001859,3.31987241327,2.74119595689,-0.0128861557901,3.99537856125,-4.30876982024,-4.11279685434,-4.06100197673,-4.25203378439,-3.85095438119,-3.6887624099,-4.09411922557,3.9054430782,-3.94503776472,-4.01364424665,-2.95982646072,-3.46454808695,-3.13894633059,3.44991545234,-0.0736439395224,-4.10931369615,3.19096598809,2.73964053687,4.00396667082,-4.12121571113,3.94183868047,-3.24043086603,3.87040710145,-4.10205910567,4.13988526074,-4.12489305042,3.66358788006,0.273011828953,-3.64397063669,0.0,-3.52753146843,3.92057696505,2.92329070717,-4.18218974059,-3.75457175201,3.62171949515,-3.81428292879,0.185773722986,-2.83239027871,-0.0238925141527,3.55772233086,-4.1049816436,4.17795980457,-0.0343565472114,2.84827976394,-2.74607069298,-3.32209131971,3.3661696689,-3.29014187776,3.68208439613,6.65687172885,-0.258955084944,-7.0955015424,-0.371728805503,0.199967494409,-3.41613145783,0.489911158609,-6.94317839402,7.19377900003,7.20971516573,3.65449971266,5.64527816059,0.475974736559,-0.406948317102,-0.572390866723,0.77350237735,3.56501248865,3.61211880689,6.40249098229,5.24599280171,3.71758355297,7.03464552962,-3.80616649328,-3.68008797199,-3.23853852248,-3.82640615519,-3.44470065594,0.029930897298,-0.404694425582,6.91702679415,-7.41374612563,-7.26640617434,0.214647688757,0.106596547453,0.611794426846,6.52565299051,3.68581359472,-3.77127959112,6.32597202844,-0.366009189846,7.01451293262,-3.87751582569,6.64631895318,0.206455872558,6.8845153255,-3.6567310033,6.9951622107,-3.38208913469,6.94083870051,3.6486260952,-7.07656260574,3.45529617261,0.0,6.55192689035,-0.767516614956,-3.61467514374,-7.21017834123,6.92181042366,-3.3586089942,3.63325084024,0.423004124955,3.83162075199,3.25018540052,-3.60156210576,7.05729463649,3.51415148407,5.93911209864,0.709512235306,0.349045795993,6.53556582257,0.355282025693,6.76387345865,-0.217430223763,-6.76192253152,-0.0638514045285,6.72442635509,-6.66607546619,-6.61643034762,-6.84865943986,0.0483688216887,-0.1754364427,0.153358511004,-3.91044746218,0.0509541760093,-6.76832211431,7.00057978005,6.80973606291,-6.77675223399,-3.7499640043,-3.95541638224,-0.10854383214,0.00194688736453,-3.98266148509,0.154984264157,-6.51182104486,-6.58682644796,-6.54385084668,-6.39017553982,-6.53320862702,-6.96028127599,-6.458353053,-0.039105584811,0.0170349182517,0.117671447952,-6.92255276777,-6.52137467381,-6.8692279507,-0.274832882736,-3.76512331701,-6.32622027963,-0.0490665203271,6.91228613961,0.0101732195785,-6.1135575119,-0.405512076933,-6.65774161511,-0.218764912984,-6.48772904347,0.0930273908647,-6.71641590163,-0.128908570271,-3.77487969198,0.366878943435,-4.09009598964,-6.77649047124,0.0,6.60119963806,-6.50668603156,-0.0164738425022,0.202325863066,-6.42148332011,-3.78199911777,-6.42491415328,-3.94462902596,6.70422824106,-6.01998441576,0.168442342629,-3.94844071909,-0.785359486714,-6.89027401306,-6.78173165789,-0.15753167175,-6.65384798717,0.0885861884576,-6.54696835305,0.898402059522,6.83631199738,-0.0614471545643,0.0450056193944,4.22486200896,0.381578972118,6.9539517288,-6.99782679411,-6.83436846288,-3.03554388776,-5.79042641042,0.387179831202,-0.203552296528,0.00230952725738,0.211960737959,-2.80030251293,-2.90167848234,-6.1858952796,-5.31383806538,-2.87979248227,-6.75901400958,4.13263576359,4.2309415627,4.03061626842,4.21781977807,3.97801028072,0.688307487788,0.961025203789,-6.76918692537,6.80366362315,6.70629971994,0.056899899505,0.247481737208,0.131147173501,-6.22736411583,-3.01753093869,4.01903446873,-6.09334721928,0.120133211393,-6.70317504674,4.49223365589,-6.50281384413,0.50625891348,-6.73912368291,4.20330581707,-6.76610530292,4.0303727916,-6.41803481581,-2.88517583919,6.52698668104,-2.99349735124,0.803457129232,-6.84372570996,0.0,4.52414233559,6.53150815829,-6.73670441168,4.17763960544,-2.84689861058,0.297424563514,-2.63844679605,-3.71083735249,4.07180795361,-6.93295938964,-2.93422420215,-5.81484623533,0.0515039826078,0.39455595709,-6.33093966785,0.539195268879,-6.10775868453,6.60861289006,3.40966927174,-6.9483671734,-4.02849890233,3.91072875127,0.0579520792286,4.14943673465,-6.9516270073,6.74875562431,6.60971557162,4.23611769483,5.60620247494,4.28745722904,-4.13462806167,-4.19834404153,4.18980504207,4.23228124902,4.27954826512,6.46371133519,5.48131335525,4.13562260972,6.54361199457,0.0415593773347,-0.0722275382919,0.237581120234,0.0858385780182,0.221970802849,3.57078936048,3.26623711198,6.84522691786,-6.63861501001,-6.95109492607,3.69419741951,3.55175362927,4.17397500773,6.46667906121,4.32753079652,0.050520478185,6.32123975869,-4.16619582886,6.67889766422,-0.354716810258,6.63531049806,4.05373228511,6.59612915231,-0.0594253898642,6.61121534014,0.335639819564,6.51279617688,4.23587120598,-7.03224549491,4.18575573396,3.58887188843,6.34490519507,-4.33593535882,0.0,-6.74240285756,6.41145756291,-0.0148578961638,4.13310563828,3.97901009417,4.19513167775,-0.362400337855,-0.222216679528,6.55993706105,4.1084473712,5.93242921538,4.37986383329,3.7353049606,6.608340007,3.80526450967,6.59625289626,0.28540367849,7.19583691323,-0.124539407032,-6.90535119697,6.67959804504,6.90928864932,6.85629277716,-0.108344626778,-0.118167019836,0.0347220433538,4.05369511162,-0.00375203907163,7.12653065785,-7.04413595143,-6.82500391113,7.04804480488,3.87457636341,3.97197037714,0.237324724901,0.131759792784,3.93220755479,0.148189794277,6.83965889432,6.72030435622,6.97864001778,6.88202032858,6.90713129762,7.15412879982,6.9795352834,-0.0547384406856,0.0131630715481,-0.260883371627,6.63295937364,7.1575665434,6.67237578169,0.190064864808,3.85398965302,6.83322851208,-0.173198449312,-6.70720189995,0.0253376271601,6.50549809997,0.264646727322,6.96862531677,-0.0527586529133,6.70895519923,-0.0647229049662,7.04139936866,0.193314897273,4.02621943784,-0.469021787079,4.07397505376,7.03844360556,0.196181839117,-6.68471369226,6.86102781846,0.0,-0.0548637887005,7.00513295539,4.09554396893,6.34518260247,4.18884633055,-6.43964691759,6.95371299174,-0.0299729766536,4.1584866101,0.828486744938,7.18191869628,7.29541617977,0.379713031223,6.8997536377,-0.0599845306396,-0.308903886072,-6.77850640171,0.133352539708,6.65366765143,-6.68505811254,-6.42511804175,-6.69181828161,0.0717662247654,0.0589393885067,0.115241096806,-3.79622241667,0.00438369277696,-6.94087556562,6.97178841538,6.79252677555,-6.83529900979,-3.71675757631,-3.88243947015,-0.190281476656,-0.126941039953,-3.82769631453,-0.154056817939,-6.43180921563,-6.54009257105,-6.6081353873,-6.41120292316,-6.49767171622,-6.79412127982,-6.66012469961,0.0214187386048,-0.0401758000972,0.037774352893,-6.80166333994,-6.7473986,-6.92168129174,-0.321989117747,-3.64625824483,-6.50936494618,-0.0936570210451,6.67754471085,0.0328701535289,-6.05815888037,-0.492504324404,-6.45554028419,-0.024323951279,-6.4840281087,-0.0466937491804,-6.59882584759,-0.204435491668,-3.84181235391,0.478449553305,-4.0250418963,-6.75282088912,-0.075855561452,6.66436851,-6.29387077942,-0.0289402893047,0.0,-6.63893491655,-3.96518665094,-6.40427819595,-3.91047129654,6.49457941214,-5.90430544716,0.0242716771037,-3.75283093329,-0.67928908967,-6.9755244959,-6.5920769767,-0.251821432141,-6.53920793784,-0.0801349100892,6.40957785961,3.18528564106,-6.93539935212,-3.86730462879,3.55963234464,-0.32345865872,4.06769908471,-6.77891758384,6.68614964824,7.14126050565,3.93868307829,5.34471068955,4.05168145349,-3.98025518678,-4.13576629987,4.09893509651,4.19131599759,4.05964509349,6.29946400923,5.39131275805,4.11383945623,6.58829946159,-0.208543652111,-0.113551590261,0.0572579399453,-0.219837018746,0.0890052038533,3.28712161757,3.12321838084,6.62652447631,-6.97849146125,-7.01476019408,3.57107650898,3.61270356099,4.0425753115,6.32426796347,4.01881236203,-0.249849251985,6.21221987992,-4.07118228184,6.9753987209,-0.384082990088,6.70125114884,3.72218878516,6.77830060209,-0.392985805555,6.77195052037,0.231160425126,6.73658539263,3.95221299517,-6.99202916866,3.89666898516,3.47791698606,6.60606233525,-3.96023876702,-0.393429752457,-6.96345879736,6.87835454161,0.0,4.09820178117,3.76218297421,4.02169182323,-0.262818357831,-0.481529526177,6.65612905247,4.09391284913,5.94636535963,4.08768780066,3.48995460051,6.61473384333,3.80406694886,6.46515599345,3.67434032875,-3.96505509493,-4.05590038038,3.14012928789,-3.16729478991,-4.07417985778,-2.8455002087,-4.1107883934,4.01829385918,3.7732087678,0.110436530277,2.69539182194,-3.00486158154,3.13294904671,2.84783781465,-3.09498166586,-0.0305097127724,0.0986508848578,3.40493837384,2.74299776043,-0.0226185858218,3.90813309402,-4.17898443522,-3.97737028536,-4.06466398727,-4.14418612514,-3.75019834056,-3.56874476281,-4.0518034729,3.9897018926,-4.19419516265,-3.9977191802,-3.10329269129,-3.36678903935,-3.0274959524,3.30990057297,-0.0674005026414,-4.04656330766,3.09318503029,2.85155529584,4.03163875149,-4.40628281572,3.52750534936,-3.21846169425,3.96104830126,-4.20809734152,3.93750887321,-4.0053319031,3.88027489162,-0.240325866146,-3.7372162241,0.186205378894,-3.50004645632,3.91398706836,2.95969578421,-4.22444491033,-3.95663970609,3.53268982772,-3.86564893026,0.0,-3.06568366081,0.0397987371687,3.65561564268,-4.21092238625,4.21638133271,-0.13148136891,2.94776371585,-2.70842065975,-3.15358082334,3.75314616247,-3.17746456064,3.75034548887,6.50250006407,-0.635988548615,-6.54169600859,-0.170116423171,-0.15644586972,-3.75720854741,0.0402265193555,-6.54850219571,6.59512302763,6.54239335925,3.22140908902,5.61710885172,-0.0332537437077,-0.191438655537,-0.29151175455,-0.189758343204,2.95536258349,2.94332042666,6.34140697475,5.12085160549,3.19052637223,6.71083368386,-3.63029370104,-3.83187906528,-3.52135319555,-3.80429403714,-3.4151619759,-0.58779365373,-0.686530131648,6.44298853539,-6.67919231769,-6.75782800895,-0.11824957164,-0.44914435968,-0.0104943159778,6.46596318259,3.01349935711,-3.83499068095,6.13448105997,-0.0131867943526,6.61028646268,-3.64773799795,6.51841194384,0.00571298284626,6.68246431638,-3.79242796715,6.60113587036,-3.58870513458,6.63730034187,2.84366573982,-6.61293490798,2.96794215612,-0.520768175141,6.28585738848,-0.12400119655,-3.8895981755,-6.63390008689,6.43089595343,-3.64633267406,2.80116699004,0.0,3.11874278719,3.23060707348,-3.80257772917,6.55466750027,2.91651883547,5.69618540199,0.0925385081781,-0.430195081667,6.43699175332,-0.138788517923,6.64269971234,3.62363632906,-3.78494684848,-4.21439032053,3.04559585992,-3.11692829969,-4.34919938391,-2.87393494602,-3.93198283118,3.98637447644,4.11642499296,-0.0176993271367,2.7434261869,-2.87896874203,3.02583846955,2.92348252404,-2.8856265865,-0.049371178027,-0.0255339529584,3.38585412962,2.87709754579,0.158812966073,4.16650285842,-4.25180292661,-4.25303181706,-3.81091331849,-4.2384124136,-3.96159042368,-3.55518201866,-4.04388069837,4.01576414257,-4.08805914766,-3.76918585275,-2.99910852721,-3.34272378997,-3.00870741052,3.36826810298,-0.050321267085,-4.29040766107,3.34093545283,2.77906525526,4.03255805864,-4.2393790867,3.61468005987,-3.28642674704,4.06870287736,-4.3107187785,3.96438417039,-3.95267424783,3.96096160285,0.214228816829,-3.57998792513,-0.105890932889,-3.51589660772,3.53957837845,2.51429407545,-4.17530204752,-3.9989477328,3.90050063727,-4.11943045541,-0.0383309716291,-3.26545984588,0.0,3.86162789569,-4.06376480704,3.79876801848,-0.130959469796,2.92207201565,-2.87747182533,-3.34376673416,3.60232804766,-3.09772541145,3.69112120385,-6.56921408024,-2.94127827263,6.85469902661,3.58941699793,-3.446011464,0.322121095276,-3.56455919289,6.83219044759,-6.39954415746,-6.7609841089,-3.87863385245,-5.70809662435,-3.54023206994,3.4883253982,3.72594848298,-3.63967929717,-3.56223190389,-3.49405186335,-6.30997487207,-5.08408242182,-3.53629439291,-6.53278868787,0.413031745053,0.470980720486,0.208540373433,0.424402853307,0.072407380937,-3.16152045449,-2.75711777134,-6.67332121696,6.86156217727,6.80117115143,-3.66863126243,-3.60626182678,-3.59977307103,-6.09096399806,-3.65746970712,0.374538257327,-5.98037984779,3.80991732201,-6.5772672523,0.487790875559,-6.4423935194,-3.39165542896,-6.653923706,0.415349639758,-6.50832236334,0.222683796411,-6.423047641,-3.6679089071,7.10296390486,-3.55588457887,-3.36096540012,-6.36001713939,3.85659440567,0.338032756681,6.80889333845,-6.69798469686,0.0663293828726,-3.57389516333,-3.33544073159,-3.72858283949,0.0,0.568460213758,-6.51425066905,-3.56593236969,-5.66545700575,-3.57372906226,-3.54635091151,-6.36316392073,-3.43954214633,-6.27555839678,6.49245351434,3.63543813311,-6.46556955477,-4.34949750951,3.74233654469,0.316698490585,4.49918569977,-6.44415360733,6.32128929537,6.43041877958,4.33634999006,5.53655554404,4.17860552077,-4.26243917457,-4.02539087935,4.10978391248,4.15007029186,4.22868977418,6.40616373957,5.41886452997,4.13029604457,6.29681440256,0.182204386667,0.319835978093,0.528346236211,0.359829984501,0.378351658663,3.8359274093,3.6468575203,6.43633761852,-6.86353441903,-6.61951034597,3.72837914272,3.90335041847,4.08649056544,6.630978266,4.13652456245,0.0527839638959,6.18869264657,-3.94712610916,6.21550899517,-0.0548722900136,6.60683017071,4.03669367829,6.432014764,0.471520997264,6.34080736028,0.343636107924,6.61040499108,4.23475440795,-7.05854159221,4.10190877879,3.82579762142,6.31423965024,-4.29959612213,0.0834844834243,-6.30485476815,6.26667031757,0.385042710848,4.23646195884,3.80182070616,4.11588652912,-0.590616504457,0.0,6.51934066699,4.10253283164,5.83270423917,4.26111837275,3.94775855386,6.64406904428,3.93441589431,6.37706034718,-0.411668541696,-7.15714173071,0.031124534345,6.90252236627,-6.83442724585,-6.72022750158,-7.14328291947,-0.0680799289076,-0.0405434165561,0.082866763899,-4.09377899483,0.0363265544655,-6.99456286183,6.71221860608,6.68063983981,-7.0165110659,-4.23584636251,-3.96803291271,-0.339597989341,0.0163295395364,-4.01142880632,0.0438058202403,-6.59325194337,-6.66507157956,-6.77173235397,-6.54217644393,-6.74464998316,-6.89230158571,-6.86330771168,0.066044984539,-0.0109898529721,0.087293965096,-6.72006306474,-6.98971455579,-7.13984127967,-0.253928452976,-3.97404081227,-6.45756639435,-0.153903011857,6.84021220724,-0.0331757984766,-6.44747586879,-0.34161834029,-6.87891160536,-0.044429141176,-6.76695948294,-0.101836591263,-6.75039089994,-0.13585089526,-4.33459769568,0.311886665643,-3.97219130219,-7.05746007874,0.108575550205,6.94706428453,-6.62871972449,0.0863640428164,0.144789475758,-7.01158010663,-3.94553479986,-6.65845598615,-3.94388942432,6.34469785742,-6.26054708378,0.0,-3.98330033193,-0.580357478759,-7.02472246063,-6.97143734314,-0.497375962162,-6.6971695478,0.00616073396013,3.65960255101,-3.72201026041,-4.13045198141,3.11629008826,-3.15231223206,-4.09050471113,-2.89565289706,-4.0481276396,3.80170008421,4.30513150317,0.0707197657876,2.97083037885,-2.91429766429,2.96575964348,2.77426835981,-3.10607669876,-0.10963806898,-0.0159327265985,3.51819383315,2.81151127713,0.0892616905948,3.80508024468,-4.21670535769,-3.94666265457,-4.10903126689,-4.19848066233,-3.97880262162,-3.48509102063,-3.95480826497,3.95995252749,-4.18877167317,-3.73735027586,-3.11326732284,-3.50654140968,-2.91087546073,3.31345403035,-0.18867353165,-4.20362279213,3.26380535022,2.61322764013,4.18310906873,-4.19385554038,3.46629489639,-3.3874072031,3.87767881887,-4.27004835246,3.98710901979,-3.95670809981,3.83125257907,0.0659956707928,-3.62161973729,-0.0100625726874,-3.49725480719,3.68440166802,3.00333795705,-3.93152363015,-3.80213139947,3.68134241869,-3.93976434857,0.12132960297,-2.89351307116,0.0692336661608,3.61876727573,-4.10858282618,4.05697500615,0.0,2.72461394386,-2.95420140637,-3.27101285018,3.34430472449,-3.24080861478,3.65107484397,0.506323500217,-5.85985689553,-0.760545914616,5.65461658627,-5.50474971739,-5.76222628656,-5.75389840647,-0.527672845718,0.810889878112,0.856636909871,-2.61599256053,0.728831772094,-5.88401727726,5.51180731809,5.59018088481,-5.71365414917,-2.79211144062,-2.83550935629,0.545336329892,0.191131601225,-2.65653918476,0.814539453828,-5.94749069465,-5.80724282944,-5.86046434839,-5.71333086975,-5.94864457679,-5.9973576826,-5.65650701608,0.612731157656,-0.896646834134,-0.885354472567,-5.73069211216,-5.68983647378,-6.03925400156,0.662816659088,-2.86031443372,-5.74832264521,0.46904439809,5.43572022867,0.760578877791,-5.8472509133,0.547210883026,-5.64500194689,0.852389467947,-5.6930950416,0.70144409087,-5.70622551173,0.711047713975,-2.89071829939,-0.676311871164,-2.72938273678,-5.98611438256,0.882049339756,5.5972291413,-6.04465673751,-0.946765099419,0.790226895637,-5.91556075303,-2.70936454173,-6.02386597089,-2.65887477912,5.62120458418,-6.01741447032,0.81943987373,-2.79617002482,0.0,-5.7067944472,-5.84831073351,0.647673121727,-5.79968263268,0.773875480645,6.49101201011,-0.770926171756,-6.86028250194,-8.99862314251e-05,-0.0755699597502,-4.19984370799,-0.0784714950225,-7.18319833143,7.02356992566,6.76908927018,2.97461922079,5.68011479761,-0.0846613763108,-0.206933454152,-0.185514174478,0.131892794546,3.21493779735,2.91483078442,6.27079827838,5.53545215226,3.08107998732,7.07518721683,-4.30720961456,-4.0291850242,-3.97260396415,-4.00145119889,-4.04821637947,-0.750346907657,-1.13494032883,7.02764985833,-7.02713044223,-6.95534919315,0.0868092672743,-0.229559150858,0.117328757208,6.45026027421,2.96743947813,-4.44538441487,6.27881519926,-0.318497975407,7.01700556952,-4.18372481435,6.86784484228,0.0492614529821,7.11082708917,-4.20541337342,7.13826035778,-3.74272580118,6.79129742368,2.83317901194,-6.65114411382,2.98618454038,-0.648942039676,6.86074925685,-0.245889631817,-4.36615176576,-7.00779754898,6.86877021579,-4.09522020752,3.04608135024,0.213866585533,2.95641259871,3.57097204485,-4.05358624235,7.14533990625,3.09442412401,5.74471050447,0.0,-0.395911371994,6.55445956282,-0.0237396278005,6.6286808649,6.64663028813,-0.357171036715,-7.06542038858,-0.177014367988,-0.0731890320809,-3.94418390572,0.238464039559,-7.16601057378,7.28444196077,6.9942001349,3.23434443023,5.6039316897,0.36553182459,-0.321694540359,-0.206675069426,0.483773638041,3.33028641981,3.36057527969,6.46998144803,5.43600361894,3.49785777486,6.94385802618,-3.80766213352,-3.68232198024,-3.51601093591,-3.91294791661,-3.56361095665,-0.286141048916,-0.567141601633,7.11345135549,-7.17134960785,-7.40416930965,-0.132166802066,0.071425406612,0.584991977522,6.47159233427,3.48332418398,-3.62917218954,6.4105780257,-0.434993824842,7.03436892532,-3.91219446216,6.58559105275,0.0709135618605,7.04400657926,-3.89359527465,6.96952970011,-3.50076239175,6.75239538047,3.4181182047,-6.87059901502,3.25918656452,0.0313425734791,6.51396901746,-0.176951277979,-3.68043445898,-7.14600451344,6.89222999089,-3.58749312942,3.30355897744,0.449116817638,3.15251858665,3.50662750073,-4.08836455878,7.01764898459,3.48872256539,5.81245125408,0.457820989297,0.0,6.33041190864,0.2095866301,6.41139435,0.0931781285517,-6.54761421979,-0.548150417543,6.39366095179,-6.20213988226,-6.61917490134,-6.82549438336,-0.164557009808,0.381131353463,0.711870849523,-3.66708877673,0.142161215121,-6.5242073491,6.24461090867,6.44321371726,-6.60950951893,-3.66861368325,-3.63792109588,5.6413780332e-05,0.0367602119909,-3.54320018454,0.60379130785,-6.44934888243,-6.54869746182,-6.7347848076,-6.50533452092,-6.51833514066,-6.55672765824,-6.61758516456,0.358977455198,-0.514655587619,-0.542925190212,-6.17588277956,-6.66294012939,-6.58295468344,-0.0184921930369,-3.40745605103,-6.64428762155,-0.168895037047,6.4448786458,0.263735046814,-6.64580546651,-0.0543821150939,-6.733025505,0.579943334273,-6.58096867829,0.530124458229,-6.57332413786,0.277929374613,-3.56656704321,-0.317347657513,-3.57948701886,-6.51018248266,0.52149293017,6.40705203879,-6.58668878953,-0.502690718375,0.614620421721,-6.59405581601,-3.52782771363,-6.53490682535,-3.76691374997,6.51872515004,-6.63669170971,0.329746728665,-3.62108947861,-0.358131268051,-6.60948223866,-6.7193250324,0.0,-6.48414853155,0.0436703184967,6.68741838167,-0.486539200782,-6.72932506385,-0.166366989771,0.175527305012,-3.9913672597,0.133846763996,-6.78256524478,6.71279541449,6.96600641492,3.28468126905,5.62140185021,0.195717252078,-0.00440211927637,-0.282169187837,0.242755441177,3.19003499793,3.12292848929,6.41348010358,5.49588036601,2.95156993992,6.64022787582,-3.95963412984,-4.07977517369,-3.77845470056,-3.9450995571,-3.69423399875,-0.235191665236,-0.881421825876,6.80125161864,-6.79758776732,-6.82406940741,0.200491277612,-0.306607569065,0.131480701211,6.46660456797,3.16103066307,-3.99345536392,6.09938730868,-0.488127662335,6.75106769358,-4.28967433091,6.62101196137,0.0992410605691,6.82496764899,-4.06038462488,6.80324377645,-3.93139588768,6.90729709317,3.36894851632,-6.75518867718,3.29060961988,-0.354586925632,6.64733244143,-0.531944407005,-4.0099901296,-6.76180433641,6.80318398869,-4.11702754067,3.19546531211,-0.0967071458125,3.4096215763,3.40742946801,-3.96965931332,6.72311695408,3.2867013859,5.6059853013,0.443614932179,-0.0442685190785,6.50493957648,0.0,6.47973656544,-0.335495370334,-6.58060420598,0.00118663768444,6.50467627509,-6.35407329541,-6.40378378456,-6.65392010017,0.208291558972,-0.156121649018,0.160060518589,-3.63582000824,0.119261176655,-6.65164859555,6.38649916058,6.33763846349,-6.71795298795,-3.3775423939,-3.64097620358,-0.0739345799338,0.00852304776016,-3.68596093809,-0.03789220379,-6.30756393393,-6.49466959782,-6.62023858495,-6.39602822697,-6.57716858343,-6.65264435807,-6.72618064843,0.0409808240614,-0.0585626570225,-0.00888659545599,-6.44929062915,-6.8215901912,-6.5125165531,-0.160475192119,-3.47124765816,-6.30223544096,-0.143642446449,6.41149433902,-0.0961711483069,-6.37491726746,-0.542422362284,-6.35293236676,0.055851193234,-6.29482734545,-0.101636556326,-6.47518577172,0.0180904324424,-3.66551683947,-0.0340625783931,-3.62183819012,-6.72550305074,-0.0892351213911,6.59216209261,-6.24178278293,-0.170047011134,0.103718425351,-6.67413388346,-3.58866815701,-6.72760749537,-3.74943657167,6.45338901411,-6.53366428093,-0.115806146143,-3.85831491105,-0.982161041229,-6.47195990846,-6.61613210196,-0.0494265067385,-6.78257457569,0.0
0.0,-13.7026914794,-0.59368389174,13.1855236984,-13.3912402158,-13.3450324641,-13.731246021,-0.712856440439,0.432840762991,0.264823134052,-7.12529219869,-0.0768563888623,-13.56515223,13.2054308742,13.1650061994,-13.5001939733,-7.0463617291,-6.94567587579,0.0745545975958,0.186307863124,-6.97855331655,0.442432388206,-13.7594226585,-13.4446602407,-13.620409149,-13.7876675842,-13.6216182148,-13.6380376937,-13.7322860088,0.260391609358,-0.821419343798,-0.720338853862,-13.2156992565,-13.5939709161,-13.5054447826,0.307891842997,-7.03361808389,-13.7427753083,0.120350508288,12.8565820802,0.54926807027,-13.5615366632,0.026206760785,-13.4989025578,0.353694026478,-13.4234391657,0.373979299679,-13.5226898503,0.0839837931199,-6.89278019787,-0.320166990099,-6.98279571359,-13.570324939,0.640009268312,13.2109230049,-13.4994119506,-0.657439205221,0.394950463579,-13.7996286326,-7.22098017661,-13.351637212,-7.05987941786,13.008204219,-13.5309540901,0.228243319902,-7.05111085365,-0.699510196575,-13.4920087782,-13.5003213602,-0.157384453803,-13.687903473,-0.024566473182,13.5145681386,0.0,-14.3696294167,-0.537811354831,0.714389910716,-6.75639516401,0.987303549821,-14.1883087289,13.9620086204,13.9732584118,7.01472186892,12.3707517016,1.17609225336,-0.776064352177,-1.19622430775,1.00004467804,7.32941264823,7.25829266792,13.2987976112,12.4847123672,7.10001871587,13.9302815899,-6.93213657846,-6.82560658286,-6.62907539508,-6.67280827371,-6.97175178807,0.568016585762,-0.0725329708923,13.9507967689,-14.2977884505,-14.2882123679,0.492337280205,0.397907534669,1.17549651302,13.5388826599,7.27231815792,-7.10114672446,13.1829743243,-0.663171618076,13.8653360528,-7.3352450367,13.3380130206,0.732584093394,13.7169895345,-6.86748177233,14.1526457109,-6.51561114411,13.7764135549,7.49959938829,-14.1794049355,7.22577417822,0.202267534503,13.9322072017,-0.628926234317,-6.98307885122,-13.8861276037,13.7756053514,-6.60326986865,7.38852394235,0.67375372673,7.45591306361,6.57813009974,-7.01618307077,14.1802850919,7.35619220994,12.7984993472,0.719161054776,0.544555193675,13.4698376148,0.577492238186,13.2705382061,0.76257938132,14.1949075336,0.0,-13.8068681556,13.7363460198,13.8401081671,14.3129164717,-0.0430863286532,0.10550860382,-0.112498032632,7.37452033162,0.156575434985,14.3386446101,-14.1167314144,-13.7989625505,14.1055818797,7.45253171542,7.55672985622,0.519306172715,0.109743602903,7.56202609439,-0.205988976285,14.0520152978,13.9054924664,14.2124453469,14.0920001368,14.0174825811,14.3768315084,13.9603020391,0.0344223218824,-0.126665143856,0.0284418974361,14.034878464,14.3125295035,14.2074006606,0.497227629024,7.43653455184,13.897955584,0.151880678729,-13.6923258547,0.247003580731,13.6073614119,0.761681454445,14.173892372,-0.159285798213,13.8521267112,0.124253409645,14.129979588,0.321445225934,7.44015587344,-0.497379699159,7.4234037892,14.204158679,0.087419955597,-13.7261497043,13.8999475967,0.463672907439,-0.116115770297,14.0018215593,7.4535966528,13.6571215577,7.78435488927,-13.4953375073,13.8867680247,0.373358166174,7.80216944031,0.734278482507,13.9194321686,14.0739680336,0.454404209591,13.7837056747,-0.264804343786,-13.347170715,0.769993304385,13.8219426976,0.0,0.0864774271122,7.54025596826,0.109220795056,13.7556770808,-13.5073108054,-13.3278781959,-6.45143327143,-12.3706360919,0.172424525552,-0.0768850716431,0.257700316462,0.0707753886341,-6.43606785727,-6.38889938186,-13.1493980773,-12.0902391489,-6.31127021335,-13.6421550411,7.56713600885,7.73990374498,7.40391311717,7.52536112258,7.51351796559,0.348276084306,0.740611303802,-13.5614488055,13.9733801263,13.7286800655,0.0265523622244,0.278897011849,-0.0570872952963,-13.1701339866,-6.4664829732,7.43723153907,-12.778936652,0.19800832217,-13.7691278669,7.89156278985,-13.1727960097,0.12260466346,-13.5114374621,7.36415788458,-13.4791711227,7.58473951323,-13.3340865287,-6.34627506173,13.3777083701,-6.54862599005,0.261129614772,-13.5849436943,0.117963514998,7.56005456243,13.8689111794,-13.6355365428,7.43343063801,-6.30967618931,-0.0680011234468,-6.43157972705,-7.39378933487,7.67359607321,-13.7183121964,-6.34013835742,-12.2786074943,-0.121080929154,0.146484177634,-13.2778945466,0.10837498023,-13.1088615578,13.3872902453,-0.580018639102,-14.1607473441,0.120323989913,0.0,-7.56169577275,-0.00485152653488,-13.9505956861,13.7618741499,13.7437980379,6.12924609802,12.3941971159,-0.107299384937,-0.221712232637,-0.187182678502,-0.0336846137296,6.5660519696,6.58954716551,13.196808322,12.1311369908,6.5169104099,13.4960811661,-7.23504686202,-7.63232678991,-7.26216400705,-7.44402013745,-7.32158827759,-0.300049941951,-0.871877646913,13.5592534769,-14.0629942176,-13.8588620259,-0.109587707613,0.0415319544264,0.0208201471967,13.276101687,6.2533936199,-7.61355534332,12.9693778109,0.0728930688952,13.7009861056,-7.62798907458,13.3075514187,-0.129671283952,13.3795100752,-7.71076249033,13.946922523,-6.93642468598,13.5694170634,6.59138091496,-13.695093696,6.45110161583,-0.3361078932,13.8369909919,-0.0505216310075,-7.60044066443,-13.8133496549,13.5079102673,-7.25446058434,6.52233339483,-0.311292001736,6.52263993874,6.99512792606,-7.37897140437,13.6709294278,6.51594694203,12.3792143755,-0.352348000225,-0.338308308939,13.0513324515,-0.438224941371,13.2196882458,13.6039517006,6.75547732943,-14.0748108709,-7.59232218682,7.52931422019,0.0,7.82808228916,-14.2727598476,13.4789276459,13.5033257911,7.51874866158,12.4117805402,7.83736300943,-7.66508475625,-8.12948682267,7.89893857522,7.57907314995,7.91501619797,13.4363543418,12.4727015724,7.45252340241,13.3412846764,0.0906436676069,-0.256620386248,0.398772466212,-0.0576177737393,-0.030489884497,7.24125829517,6.63935065289,13.6025020897,-14.0060487294,-14.1240164683,7.54781785631,7.47560477564,7.6248172858,13.3487019736,7.61999736933,0.050259625207,13.0213638403,-7.79865065606,13.5433667857,-0.419578041393,13.6456373544,7.44476377328,13.4257274392,-0.125627916965,13.5044288617,0.238925310643,13.4600143433,7.83875703993,-14.1963178304,7.74331510957,6.92902317614,13.2717508387,-7.97150772011,-0.286683047865,-13.8548204176,13.1798863894,-0.117390471613,7.63144120454,7.1576574501,7.56116023617,-0.393195186074,-0.40905046581,13.8918859585,7.61358035997,12.4927401038,7.65856919331,7.23370860663,13.423668142,7.30136036476,13.1568679307,13.7491292401,-1.07406009173,-14.3625253974,0.0742359062169,-0.0669657009319,-7.87681966667,0.0,-14.1118007826,13.8931038695,13.6947469307,6.34204813242,12.4418950644,0.0713012876908,-0.297333088685,-0.387140182581,-0.0213537257801,6.27491943227,6.66055653053,13.5093137516,12.2967850294,6.35219988653,13.9518154012,-7.723753915,-8.2371056012,-7.58187093169,-7.86196606476,-7.80196864053,-0.733071190805,-1.49855695187,13.6852228201,-14.2266703574,-14.0889490313,0.0872173950794,-0.583430269971,0.0330045331317,13.5317273372,6.62531400625,-7.98632631422,13.0659318798,-0.0539415063131,14.2212133148,-8.00054777208,13.6719178535,0.0232491000475,13.6760229051,-7.97690798738,14.1811716098,-7.61255060978,14.0746470963,6.570138245,-13.8765100664,6.73761919323,-0.75627594574,13.7701609435,-0.084143308831,-8.10346821107,-14.1760084213,13.5781143346,-7.6767825693,6.7178146882,-0.209094086594,6.71325321023,7.28242860392,-7.84372125047,14.2610626517,6.44530928255,12.6586938596,-0.101268340218,-0.565626571307,13.4232701499,-0.1735250858,13.2852180171,0.460847487435,14.0725939554,0.00741347410207,-13.7643923727,13.9689432072,13.8631550731,14.1156197089,0.0,0.202348042351,0.0393588407286,7.4011969391,-0.0270543383236,14.0956340975,-14.0650828573,-13.7758956619,14.2918106158,7.39323980386,7.60746832479,0.56650323091,0.199853976438,7.65210055397,0.0450747477271,13.8104619852,13.7422889964,14.3456847503,14.0875045507,14.0600413709,14.3785837933,13.9649752991,-0.0317837618538,0.00853750986569,-0.109798112533,13.8324218563,14.4674003342,14.0677487573,0.424569096817,7.63084390444,13.7044827145,-0.105510309173,-13.6223443223,0.159462816371,13.7425525252,0.513138185405,14.0387896167,-0.161217396491,13.8309369373,0.074743892721,14.0526637896,0.293499616014,7.64683792501,-0.496851698637,7.47934896972,14.1814786965,0.24094302575,-13.7016508598,13.711405089,0.332055962995,0.0999878579831,14.0945213972,7.52762461411,13.5929895349,7.62202831631,-13.6770603634,13.7932808876,0.403705969219,7.56771623709,0.705023054125,14.3162932629,14.1426046418,0.302583110271,13.7767060249,0.0748682065779,-0.28238153445,-13.6656397812,0.00463041553681,13.7372774469,-13.3522658624,-13.3023454198,-13.8629431384,-0.0885666526069,0.0,-0.19949518161,-7.59220186951,0.0331032221478,-13.671714503,13.9147148636,13.6674516319,-13.7016633484,-7.53195840827,-7.43857675078,-0.265432435463,-0.0562111537263,-7.3898901991,0.0248908850886,-13.3608477238,-13.2939528932,-13.5432190404,-13.3163701426,-13.5913644273,-13.730032119,-13.5560790667,-0.239591935799,0.0794500287201,0.121814925171,-13.8236928465,-13.6963659554,-13.9740107785,-0.311753428181,-7.23127462341,-13.3173141865,-0.228879730312,13.7266760889,-0.0542061597,-13.2472629841,-0.366742294145,-13.7016368959,-0.0776589080942,-13.3771069141,-0.132739649739,-13.7643510933,-0.367321721989,-7.42741918394,0.670652132801,-7.6942689708,-13.8257041569,0.085089104945,13.7301699497,-13.3766178543,-0.0246342207894,0.0861740385993,-13.5564696426,-7.44667843206,-13.4223231433,-7.32556737389,13.1841262338,-13.1782545537,-0.225926376061,-7.39744000494,-0.674241962164,-13.6627468397,-13.8543634424,-0.373031478323,-13.666675857,-0.234036449151,-0.273026868359,-13.6874038958,0.161315708428,13.4870042679,-13.5136576118,-13.3521460924,-13.7201353589,-0.118126305422,0.053358730099,0.0,-7.2484145222,0.074460644986,-13.7125015699,13.6999003094,13.5386836082,-13.8448179381,-7.48060353607,-7.43247334131,-0.213195399547,-0.14352361238,-7.34242030063,-0.117706440888,-13.2514865428,-13.4917041425,-13.6575540458,-13.3593978173,-13.8765611018,-14.0584365013,-13.7796840734,-0.156515989811,0.0550088427843,0.0385825128023,-13.7017021382,-13.7886882299,-13.761010622,-0.223102056248,-7.55474529252,-13.3314635144,-0.130648921759,13.7540356595,0.0692097137441,-13.2677627335,-0.50802886569,-13.5217512586,0.262246984811,-13.5014024142,-0.048507520835,-13.7458558504,-0.31093706196,-7.71533223262,0.340555303551,-7.5599410233,-13.642094497,0.0186571996465,13.5478520763,-13.3508483585,0.144621423827,0.180494991739,-13.4509361079,-7.60957266708,-13.2252301176,-7.37516035324,13.2271076606,-13.2855305121,0.0560527319121,-7.4073300477,-0.66960722607,-13.7234882214,-13.9044121889,-0.225039527669,-13.666974925,-0.0454790967197,7.073786187,-7.03899533697,-7.43090034021,6.4650422939,-6.48101301734,-7.50864689078,-6.45802379416,-7.76671223742,7.46737041945,7.24952016399,0.0,5.97407012436,-6.25252630164,6.56889960136,6.13401427352,-6.16217095812,0.0830969667404,-0.17661691786,6.92073960545,6.11045432033,-0.123969408576,7.84465844221,-7.58526458179,-7.62783539386,-7.25149447665,-7.56791745618,-7.50204043733,-7.02453110853,-7.45176466882,7.31675507834,-7.17660201026,-7.42852460471,-6.41435782165,-6.74000066308,-6.32771905223,6.79390693108,-0.0763109367059,-7.51779132979,6.34506743807,5.85240849207,7.39607268942,-7.80178327111,7.03288351117,-6.51942146639,7.39706518559,-7.78509185063,7.41469961483,-7.17182156927,7.25686673168,0.0503162288247,-7.17579012532,-0.0882628314325,-7.01415511206,7.32361140109,6.28454636886,-7.4228037541,-7.47891368632,7.27357083464,-7.40661042978,0.00242981460539,-6.47039370621,-0.12385600392,7.17037723126,-7.64602690329,7.40853697439,-0.0141854289525,6.36389871699,-6.55807330418,-6.82348178058,6.89035184884,-6.46037947688,6.81768994027,0.000582912996136,-12.3448675955,0.235949487033,12.3408595008,-12.193008586,-12.4341513058,-12.5926710361,-0.158945039385,-0.0168333201161,0.0167993421658,-6.28316622596,0.0,-12.3665340592,12.2441350111,12.3769046381,-12.4221816653,-6.30221044713,-6.22952078028,0.0153066956324,-0.094448812162,-6.20224065549,-0.102611439863,-12.6255570092,-12.3424783431,-12.4465114905,-12.4179207014,-12.5383691227,-12.500671199,-12.425890637,0.0364967437777,0.0520946619743,-0.0890368532739,-12.3680178671,-12.583822895,-12.4623624388,-0.0491914098398,-5.96722068069,-12.2838019218,0.130034790664,12.640989029,0.101182388034,-12.3269407599,0.0713769559306,-12.5535620571,-0.0400430264202,-12.5364143373,-0.24945020337,-12.2094984879,0.015020846849,-6.4357385005,0.00347268634017,-6.29052508328,-12.345808408,0.0554021027989,12.4475534747,-12.4696023291,-0.148224245223,-0.131122531847,-12.5365900778,-5.98857649537,-12.6150445788,-6.07750959476,12.2374877147,-12.3054052602,-0.0369872981356,-6.27235745277,-0.368257006997,-12.43043748,-12.6114911918,0.125213188546,-12.430729223,-0.0888960954143,13.6496629616,-0.968913085605,-14.1245358373,-0.0607920132289,-0.0295121518046,-7.92565801367,0.142874211384,-14.3924838724,13.65882402,13.6713418695,6.52285536876,12.4288775682,0.0,0.0056906893,-0.444646794448,-0.12769245489,6.29387466038,6.62557055624,13.3446298327,12.227761113,6.50180296483,13.8398572075,-7.88375673538,-7.92486727393,-7.4914052027,-7.70473026792,-7.55579607928,-0.37476916273,-1.064854044,13.9719516929,-14.1136417478,-14.1091675723,-0.0829214007072,-0.520406564329,-0.0305623960641,13.3409983627,6.34294104126,-8.03252828278,13.0010889194,-0.168217488028,14.0025727477,-7.85150023031,13.8026354782,-0.179338633298,13.9623407361,-8.00769110795,13.6907380258,-7.75430141672,14.1543381933,6.57644056759,-13.8114319795,6.67704964175,-0.745681544125,13.7141162031,-0.315976352184,-7.75644844823,-14.1487504419,13.7283376344,-7.99990420411,6.59199803167,-0.066612297597,6.61221697737,7.42596293607,-7.75104130953,13.9224906286,6.70849462664,12.6940637414,-0.266350479167,-0.342788891244,13.4626942932,-0.445887148194,13.5632796643,-13.3913309879,0.724258020078,14.0930357237,0.0159573420408,0.271379898822,7.84280977826,0.198694428571,14.1474757955,-13.4553746323,-13.6268111382,-6.48267047272,-12.4102138435,0.456677758977,0.0,0.473396485776,0.112723596591,-6.70366331839,-6.4362375415,-13.158894848,-12.3474552363,-6.39506388477,-13.4657563395,7.75207241498,7.86615461223,7.56542890377,7.7935129543,7.92705504981,0.903843002587,0.958146923814,-13.6374892712,13.9890296875,14.0389763918,0.24372664535,0.197022729499,0.149016011045,-12.9872907722,-6.49942300716,7.74360409957,-12.8119575178,0.194787968168,-13.7535637895,8.0533642763,-13.2103132848,0.507264060892,-13.6189661523,7.80500301609,-13.4876265976,7.68273576814,-13.3941950528,-6.46862213984,13.6151565966,-6.43051214453,0.613914986361,-13.8036509152,0.234831049585,7.62126167755,13.8878067794,-13.6037904257,7.4555279452,-6.38138186659,0.084696017534,-6.25727470269,-7.35684794573,8.18196478227,-13.7451031787,-6.44931195895,-12.508213671,0.248058906512,0.455271345162,-13.0201944853,0.583453787642,-13.2257399546,-13.3748847409,0.964892790166,13.7745276766,-0.237851739944,-0.137081869163,7.9197129293,0.423022006096,13.747514681,-13.744015008,-13.5980263663,-6.15833477259,-12.3984420732,0.345765763202,0.0691294845622,0.0,0.443756129117,-6.10443113905,-6.17876083732,-13.1141839274,-12.0208914142,-6.30104994939,-13.4176975473,8.15833858461,7.8673772441,7.73101334135,7.93233144284,7.75803519211,0.610371496275,1.12185231866,-13.5637665488,13.8442049383,13.6596378154,0.37586597112,0.6295999213,0.551299074785,-13.0830624756,-6.02426739851,8.08115690125,-12.7688591265,0.144768645757,-13.5874001537,8.12055896927,-13.2602854798,0.546770989523,-13.5392275444,8.12828426624,-13.3201503077,7.76775598752,-13.1851169419,-6.19481901419,13.4109260275,-6.01578544335,1.04068785411,-13.5219466262,0.174486946861,8.25299175234,13.704844758,-13.4878781031,7.66494858991,-6.45090929401,0.598952597623,-6.33891407678,-7.51953892071,8.17470248547,-13.7944601334,-6.47917652342,-12.4238829638,0.466718119887,0.790996387122,-13.1786118217,0.577294991051,-13.1855030403,13.6543613637,-1.05079205855,-14.1892337635,0.119505134399,0.103976275349,-7.86272065254,-0.0891528763208,-14.3641231204,13.8438796212,13.8427012309,6.44729566156,12.5075101583,-0.0796700527787,-0.288109751882,-0.361187797385,0.0,6.38378512988,6.73726978828,13.5302583285,12.6081165108,6.29073184282,13.9762166444,-7.96155806597,-7.97336722198,-7.38300967212,-7.88905676397,-7.50235843149,-0.635474024803,-0.975537928315,13.850014117,-14.1014143553,-14.1169467535,-0.143222663091,-0.400324588621,0.0750818445762,13.3814733999,6.5246987106,-7.85965776911,13.0294801783,-0.0136041478853,14.0251012975,-8.00876108422,13.5757830172,-0.137400494715,13.9071201677,-8.01774409185,14.1682035513,-7.82715318975,13.9690521457,6.50874960637,-13.5954096846,6.71545128519,-0.618392548372,13.7249085135,-0.241787585855,-8.05480808026,-14.2356184758,13.7252689485,-7.86442092169,6.67694127383,-0.016654287129,6.43973606822,7.26309029516,-7.75584789508,14.0177308685,6.60184310659,12.5441608835,-0.33369795977,-0.551589868635,13.3613487319,-0.567134241798,13.2320819362,6.95950335935,-7.23695408451,-7.5352873023,6.76708140003,-6.55580745008,-7.53452380858,-6.40583791637,-7.58487166538,7.44875697187,7.57219641025,0.155922814692,6.21697865131,-6.43029945568,6.55430694043,6.3267306846,-6.46806497118,0.0,-0.279250047386,6.71439090295,6.34657911358,-0.0253838591138,7.51575359315,-7.79943259949,-7.59365219882,-7.48184472042,-7.50711658145,-7.59956327,-7.08343896969,-7.376391122,7.54951853705,-7.469501056,-7.43150401231,-6.4491661471,-7.03733481073,-6.44858878585,6.94132338006,0.152650744241,-7.79795332014,6.67668811913,6.21883636996,7.39069224617,-7.74102807821,7.28340337575,-6.48368189162,7.38948686269,-7.48445846054,7.13722089644,-7.47523144276,7.22882175658,-0.00116681648821,-7.0571906305,0.11417722026,-6.92129414959,7.30041964017,6.24912882812,-7.66717220703,-7.42101444951,7.26232789009,-7.20628392997,-0.0839742257958,-6.48258439549,0.15965519895,6.93483791724,-7.55511921222,7.3343505284,0.165638174169,6.31307090978,-6.51156958483,-6.64818360942,6.98700171741,-6.54650796065,6.93059312784,7.17647349296,-7.54208554601,-7.5331223643,6.38288683457,-6.51961149761,-7.58144845607,-6.27839294458,-7.62052126428,7.51898372823,7.32688206501,-0.0983462052811,6.21280490909,-6.58351362126,6.41647838525,6.09728793385,-6.46226727277,-0.155153712386,0.0,6.61826171688,6.3387537543,-0.324668811585,7.27632702086,-7.92864122204,-7.80460139915,-7.67031754443,-7.77878540344,-7.55840555477,-7.238038247,-7.47082479719,7.46646346587,-7.5670616414,-7.45416704655,-6.77333198587,-6.93977533382,-6.61866566935,6.7802534453,-0.00931629162537,-7.80379345672,6.88833758466,6.23943253162,7.56245218371,-7.83963513402,6.87323667128,-6.66049300886,7.52035764458,-7.5569635168,7.60426222626,-7.88723622305,7.26381471006,-0.0529499989992,-7.15527682249,0.0384955893274,-7.24362109541,7.16923856326,5.97043868342,-7.92452020479,-7.50806590834,7.0845876797,-7.71542844897,0.0543897066006,-6.47747787393,-0.114224028811,7.06676871592,-7.7323371668,7.3265747338,0.0657804265371,6.19602117754,-6.64684954441,-7.1303662161,7.0296077974,-6.81601039833,6.88652055294,-0.193215127208,-13.3705724995,-0.255633830361,13.1841684696,-13.390674829,-13.5854224381,-13.7052430766,-0.563464639002,0.220370524533,0.219876805252,-6.96840085006,-0.0413487683982,-13.2348395248,13.1927959749,12.9525039656,-13.2810440588,-7.01454183324,-6.84414126296,0.0,0.0998917226741,-6.76266609472,0.287413979018,-13.3047985442,-13.2420931459,-13.2211502222,-13.2501432091,-13.4618405358,-13.4160685748,-13.4573704456,0.317200457163,-0.426791200009,-0.467202177139,-13.150072656,-13.6148102614,-13.4954607345,0.143421188171,-6.76975380136,-13.3303854094,-0.104755336752,13.0066337037,0.125966372939,-13.4622589388,0.0114017539502,-13.4604653168,0.201724651876,-13.4652289673,0.0837177362656,-13.2454268221,0.0457348810834,-6.904632577,-0.246164003165,-6.71844201919,-13.3377993376,0.220230200182,13.0680114551,-13.3542992761,-0.353332529141,0.0910949626181,-13.3531281721,-6.82786279991,-13.3454478238,-6.4691592718,12.9355998303,-13.5069382805,0.0259601918592,-6.78191125986,-0.50451432907,-13.4624386285,-13.3424184536,0.0216326917257,-13.165394663,0.295655060054,-0.158577473743,-12.2121165565,-0.408486631493,11.9977843589,-12.330775352,-12.3038117529,-12.3111410007,-0.057707820722,-0.0678287242226,-0.155132960529,-6.28753595849,0.21937637915,-12.4158733332,12.1058811807,11.7188040344,-12.5697758292,-6.14466858694,-6.07748192434,-0.0953853870002,0.0,-6.29099118053,0.0698374150121,-12.3356676666,-12.2730174983,-12.3505178942,-12.3243529388,-12.4589376825,-12.3871266241,-12.4064407569,0.0505011282483,-0.296669181628,-0.200496980787,-12.2437996863,-12.4399698934,-12.4206439345,0.15445218151,-6.32727356001,-12.3344263119,-0.210952439859,11.95183044,-0.123666263096,-12.3406791252,-4.6667994209e-06,-12.3009492243,0.050264591159,-12.4197811199,0.0651421657004,-12.5068201653,0.0114033044657,-6.21790649257,-0.103230652205,-6.28030400726,-12.0911466021,0.0610966737357,11.8545273716,-12.5824405544,-0.268534954597,-0.0152628795773,-12.5647871664,-6.10340328335,-12.4520767324,-6.1299666983,11.9728708704,-12.5903333867,0.119477252415,-6.41000683431,-0.16833764578,-12.3193828891,-12.5081183957,0.0726554953159,-12.1581610652,-0.168043919547,7.22773127241,-7.18155895984,-7.44057832013,6.24081546663,-6.34601654222,-7.66166248967,-6.52942635264,-7.38580164701,7.37130025195,7.16068598543,0.0585064893404,6.13219841338,-6.63585921218,6.28841968623,6.15217225221,-6.50612677642,0.0063380520236,-0.12499343695,7.04576342208,6.24967719595,0.0,7.42233902258,-7.38320281124,-7.70904560582,-7.35550016055,-7.55438996782,-7.51796062089,-6.74149724848,-7.51213857606,7.24809403357,-7.50467705433,-7.66930056371,-6.48875199759,-6.76786297974,-6.28906000898,6.68344821363,0.0587214282876,-7.69861610625,6.51497144999,6.11260210647,7.72855066588,-7.48646802189,6.8936240441,-6.42644024635,7.54268572662,-7.45961019301,7.42667381319,-7.45784023416,7.24031473579,0.0474620409477,-6.90695136774,-0.0316984185691,-7.1364810353,7.12539493572,6.33018869611,-7.52398244931,-7.44236096995,7.20388668938,-7.54986415146,-0.0683807187366,-6.40232626563,-0.0213255569934,6.87693860903,-7.76965580925,7.3053948348,-0.222486205555,6.16338930068,-6.16251969923,-6.7160684152,6.94157082834,-6.66582803984,6.79777884095,-0.216817999285,-13.7527252251,-0.247350854135,13.7692891265,-13.4873627012,-13.6065162909,-13.9581358662,0.131542338284,-0.0503617174222,0.0567962311428,-7.61987755117,0.0191279222353,-13.9830000537,13.6133875161,13.5541334296,-13.9634637295,-7.40962151418,-7.36096449768,-0.129666908454,-0.0220250547864,-7.26250449049,0.0,-13.6956401984,-13.5897489224,-13.4839385082,-13.3247640616,-13.6965077208,-13.9114331767,-13.5033003049,-0.0505320077147,0.0702168515761,0.15519538722,-13.7382962486,-13.9745888348,-13.7783868544,-0.17825437867,-7.34485298041,-13.5174102432,0.0797305925897,13.3243800119,0.167700350377,-13.4151463095,-0.489911102817,-13.6354310772,-0.013267396054,-13.3443459317,0.0317808034722,-13.7221798625,0.0228376162728,-7.37840106673,0.221116099402,-7.29769377968,-13.849836865,0.0569850199849,13.7000093741,-13.4613377095,-0.0364302794958,-0.00672572453308,-13.7335277811,-7.5020963199,-13.3946916524,-7.69130548003,13.6393605449,-13.2289175363,0.137230488706,-7.34032463564,-0.754739505285,-13.9108584125,-13.9433099471,-0.422984015699,-13.447590411,0.144496871524,13.6623569628,6.9003384756,-13.8494641552,-7.6405534044,7.43898976224,-0.0748962034266,8.03695590021,-13.8690387134,13.5331572425,13.6326002598,7.79474269088,12.377717352,7.57842511403,-7.87447823347,-7.83767636821,7.75336330764,7.58374951334,7.84283031878,13.2419675476,12.7643975775,7.36622613847,13.3123312724,0.0,-0.300772474334,0.262149690958,0.290760475707,0.012139539409,7.18867674706,6.70880891989,13.3928553373,-14.0636511699,-14.1776909428,7.43594789731,7.45424443572,7.93988782663,13.4466578534,7.54826584873,-0.073738377485,12.9851145611,-7.72308248481,13.4058132358,-0.386321949178,13.5915436127,7.52263341691,13.4752375447,-0.103487745237,13.4831093116,0.105769238573,13.5292219849,7.85252092097,-14.0956162142,7.75277029597,6.85818986786,13.2223780984,-8.01391409439,-0.046942418066,-13.7700742418,13.1411065714,0.015804458074,7.62117714718,