1,-1,-1,-1,-1,-1,-1,-1,-1,1,-1,-1,-1,-1,-1,-1,-1,-1,1,-1,-1,-1,-1,-1,-1,-1,-1,1,-1,-1,-1,-1,-1,-1,-1,-1,-1,1,-1,-1,-1,-1,-1,-1,-1,-1,1,-1,-1,-1,-1,-1,-1,-1,-1,1,-1,-1,-1,-1,-1,-1,-1,-1,1,-1,-1,-1,-1,-1,-1,-1,-1,-1,1,-1,-1,-1,-1,-1,-1,-1,-1,1,-1,-1,-1,-1,-1,-1,-1,-1,1,-1,-1,-1,-1,-1,-1,-1,-1,1,-1,-1,-1,-1,-1,-1,-1,-1,-1,1,-1,-1,-1,-1,-1,-1,-1,-1,1,-1,-1,-1,-1,-1,-1,-1,-1,1,-1,-1,-1,-1,-1,-1,-1,-1,1,-1,-1,-1,-1,-1,-1,-1,-1,-1,1,-1,-1,-1,-1,-1,-1,-1,-1,1,-1,-1,-1,-1,-1,-1,-1,-1,1,-1,-1,-1,-1,-1,-1,-1,-1,1,-1,-1,-1,-1,-1,-1,-1,-1,-1,1,-1,-1,-1,-1,-1,-1,-1,-1,1,-1,-1,-1,-1,-1,-1,-1,-1,1,-1,-1,-1,-1,-1,-1,-1,-1,1,-1,-1,-1,-1,-1,-1,-1,-1,-1,1,-1,-1,-1,-1,-1,-1,-1,-1,1,-1,-1,-1,-1,-1,-1,-1,-1,1,-1,-1,-1,-1,-1,-1,-1,-1,1,-1,-1,-1,-1,-1,-1,-1,-1,-1,1,-1,-1,-1,-1,-1,-1,-1,-1,1,-1,-1,-1,-1,-1,-1,-1,-1,1,-1,-1,-1,-1,-1,-1,-1,-1,1,-1,-1,-1,-1,-1,-1,-1,-1,-1,1,-1,-1,-1,-1,-1,-1,-1,-1,1,-1,-1,-1,-1,-1,-1,-1,-1,1,-1,-1,-1,-1,-1,-1,-1,-1,1
-0.3816609417277875,-0.025782272512852564,-0.05884434887189485,-0.2852390193252681,0.15741559570414249,0.012276286380738435,-0.12544145755716596,-0.03654865256772594,-0.027513789124371683,0.020779574865081328,0.09390796816507203,-0.12844074137309847,-0.0004283078512024045,0.08456330497201311,0.41085728961399814,0.2118129341592056,-0.04656432553250648,0.12805363840878498,0.16313090689027732,0.39343020029773357,0.04855944261197446,-0.11996298174396998,0.08648553105700355,-0.032225623804923456,0.16037195671515642,-0.239136603143333,-0.0629861421583867,-0.11895328426228781,0.09556302357556073,-0.25791485341901615,0.10962670156331901,0.4075290169287831,0.06244319757071007,-0.2500466609028943,-0.07070188184126633,-0.2169389945470836,-0.08304165758583816,-0.03450908682690036,0.11054122343739664,-0.19813520096897375,-0.02025335328082822,-0.2602086017176146,0.13563414068070323,-0.42440446370487833,0.14230405812634303,0.14756142174917303,0.029992387861946544,-0.16068165693348088,-0.05897143932218336,0.01624185407183451,-0.01050903000018532,-0.08233119650865425,0.005283292299585185,-0.03195224966400757,0.04382888527169635,0.3023945443124024,-0.2616482214559302,-0.03649474722446001,0.0030599859059915057,-0.16466344280940806,-0.04979903217699039,-0.17857640319584248,-0.3272608635041653,-0.2972225998098758,0.12151398947424924,-0.053991608415674394,-0.41716071561848234,-0.3857418762976005,-0.1848908057594431,0.024284293620730438,-0.12078366570203516,0.14747428471988366,-0.15776883126266839,-0.10609329684999003,0.04301169479449743,-0.06043194085121506,0.19144470933952873,0.008277810804663303,0.2654764866068226,-0.13785510801471865,-0.21733001984087222,0.016733706922947508,0.012929233093069323,0.2941494857420507,0.19600262013451422,-0.0038396730837471655,0.007570070999605254,0.07267700399694979,0.14520173403218792,-0.21555554158446977,-0.17019102341204068,0.10943586535963735,0.03599640100609883,0.0786463264835218,0.23405285460326636,0.0667652860361349,-0.25229042635766896,-0.06223371578784432,0.12397143714193068,-0.08222946472826971,-0.09202226520760755,0.0747690627487603,-0.013022874553253032,-0.18276032293608493,-0.1371444357340102,-0.1021205902981091,-0.30246309240386127,0.06813337848441872,-0.16126511752954492,-0.2655867434921719,0.10565891289068131,-0.07733753845573794,-0.15806245587595427,0.10435444305374654,0.04944720137946915,0.057692634256343245,0.22664715509332947,-0.050196317874217564,-0.04550570428637685,0.014625070343280701,0.19179427548054095,-0.24417398303031013,0.25251389322317225,0.06370204394510115,0.041093247044719824,0.07530743661881519,0.13514630097302244,0.36082207029274277,0.08436780228665376,-0.16567629374670884,0.1965070736760256,0.2741862432708928,-0.031762721179557245,0.3327381580943557,0.23023624300707196,0.02933992967382904,0.1886570243317569,0.09839385276057247,0.012967108716927904,0.1294325998601824,0.108680733572179,0.22085022003810373,-0.07288346840740319,0.025646230515323724,-0.24172305952262402,-0.2619584671403601,-0.2276681503629669,0.2355838471394958,0.19849952698849485,0.40755080938403543,0.07657195522673074,-0.15161840243371005,0.06561888023172494,-0.029459590953077867,-0.21244785690245005,0.13613813058623814,0.2677254080115099,-0.14150392301182238,0.0696789660506751,-0.2509024877598743,0.13040471002545972,0.20330268960755626,-0.11625202352937965,0.1130383442650384,0.23808062012182446,-0.15316753731105304,-0.0853092155103316,-0.05953405782773921,0.3964117795576155,-0.022747300730395506,-0.20647666519342106,-0.1884818585870392,-0.13507040793442163,0.3384316844813123,-0.03201488861954037,0.04153195919944247,0.2139226280341149,0.13772053516260435,0.13544617036558232,0.03479870831130958,-0.004344893097614335,0.20004521868976158,-0.008954961778722122,0.1932229311587658,0.2603912262232033,-0.12302776223563106,-0.14228544556897776,0.039373179128727724,0.3452894628207699,-0.21550587863912776,-0.11037128150716881,0.08894704689846235,0.1840958453880104,-0.10890885531177975,-0.16165009594680083,0.018375770519259513,0.18042894970023193,-0.0005061189054194732,0.1008707139946419,0.290048210409807,-0.16246132463484772,-0.12412553014423429,-0.050822963287637093,0.24824988971954612,-0.15280983673841259,0.09748946333114925,-0.10288398754145918,-0.13078051588666362,0.011120238696544202,0.1484319906495742,-0.16858362395991494,-0.0898066161580306,0.058769464219711146,-0.10424636433153307,-0.029116991802664638,-0.19289259633458755,0.13371143028302052,-0.24464579078375748,0.2959028877738748,-0.0466621401865184,0.2845681657498767,-0.09616250538463562,-0.20809177492491698,-0.33853603597637216,-0.009378118077838895,0.1409224936225985,-0.01376163148079726,0.10554383136621438,-0.211444392783515,-0.15715390662998752,-0.15324527888888076,0.13122303262266927,0.30677458273755825,-0.11451462870939672,-0.08248757901763634,0.3422953760648258,0.30130780268505064,-0.08193868142924705,-0.18341690766052537,0.30426437006398926,0.007543872647350149,-0.12398929584493625,0.2262156774270837,0.008217812107518981,0.09365456780644267,0.04828387408813238,0.3007208333665865,-0.007143293214122171,0.0310036010381006,-0.020389631026333458,-0.052175429362772446,0.05925508425891405,0.008301288238974351,0.06825382160667487,0.10923279277486747,0.08366942099457331,-0.18602524531335302,-0.12158495758790906,0.19005809621583475,-0.05791540954374336,0.004367440869423306,0.212157183382371,-0.16920917714402953,-0.05865568046075654,0.15625562931097478,0.029474357984341136,0.0642253629482896,0.11898655004360403,-0.12921054519356096,0.0016741625972697964,0.07465465697937917,-0.1539531994324754,-0.07284983714251637,-0.058026618395349755,-0.12375896058729065,0.08242681952267983,-0.03733648743706571,0.21684462147839192,0.05765918700622331,-0.02706337199998735,-0.17968681629488836,0.21616995698848088,-0.13056147139483654,-0.0509467320780501,0.07826539797680131,0.10952218106717306,0.001250602260831072,0.08388197676866171,0.09640007834955357,0.15875690610740623,0.21622031456087742,0.39913926928988697,0.03509621288657399,-0.012981682343562298,-0.10604046951156301,0.18251462927347165,0.3319438503886172,0.034673954439754386,-0.08919535920397328,0.19649541088152855,0.20436228770415887,-0.09809133953993505,-0.09974519827656526,-0.032021666558344375,-0.03942653969432513,0.09495323353323484,0.033675862302365675,0.12135644943612214,0.11350996210973553,0.09044807043313038,-0.03429707397323184,-0.023578483981559886,0.08850811068078131,-0.14420815726572747,-0.03439083424421446,-0.20351042044856443,0.008498728437848213,0.3342728590531832,0.2566044432562541,-0.2621283592870797,-0.27351289394461387,-0.2655714727025992,0.0007375598156190555,0.01957446812805766,-0.04092183873415994,0.01671452583709522,0.0755692947796309,0.04248539159598576,-0.274377983790888,-0.30732089034165466,0.23982808355270951,0.07443620688966635,0.047545844341011424,0.11212380605130393,-0.207280186534537,0.059482130947068584,-0.1716289919400361,-0.15321918965108444,-0.08861916818686463,0.11803683255082484,-0.37925368792524866,-0.14218177788100422,-0.06738338699668624,0.2332711580547714,-0.1361348259297623,-0.06014212386495711,-0.035798624164176174,0.037820085085635904,-0.15188326296625448,0.08250192191789713,-0.13014580605653464,0.08064148379908165,-0.03905882669000159,-0.012787388471340484,0.09443854143416726,-0.14538380176590998,0.09809495500827027,-0.15283396841953686,0.05220876160832009,0.10430701370203227,0.28461914676918865,-0.17666757562682878,0.08804834745951373,0.003923579263871933,-0.1976915991224263,-0.2097664476608944,0.03198521289945997,-0.10692051422556682,-0.0269706523664975,-0.0823444460922292,-0.17597700840633204,0.22072453364232597,-0.035402067226055295,-0.3756072503296638,-0.01178838570480659,-0.18355204720081414,-0.10118662507802524,-0.02128599892649841,-0.010687138068856551,0.24057804906830088,-0.06541111772988376,-0.19679022921795442,0.008680433481422955,-0.0487803059877211,0.2004062188119852,0.02124064273018294,0.06555879613958591,-0.07777062608047805,-0.19251509084339594,0.023582608116562036,-0.26362657884714125,-0.017591823389238825,0.02872835981376655,-0.033881669611174385,-0.21455891859298337,-0.029738815420474466,-0.022385792474850234,-0.030658110154832708,0.11828595339934146,-0.02200674390027741,0.21391258231469534,-0.028608221978689164,0.17501689610897758,-0.04081575245273198,0.00798708503039358,-0.07430471037486283,0.011867916114116252,-0.23359268950907422,-0.32487243802447374,-0.05625754620067267,-0.012059152406156475,-0.2114916404706905,-0.369061421860844,0.0754370465000756,-0.06810192756671482,-0.06186038222615659,-0.05048693604645488,-0.08794929360346784,0.34791232165055286,0.10844490299381795,0.19263727332354266,0.29146323611724806,-0.2186803505815318,-0.08837715781062766,-0.28581615759507695,0.1390076969144095,0.10080258795492282,0.23048726562923819,0.042880347561909296,-0.10571721072378362,-0.19651806321824072,0.44282806292565635,0.320367048980024,-0.12412544275389928,-0.10604034070397139,-0.09250398026972946,-0.05480379580004136,-0.005321317834415359,-0.024929709022252236,-0.04707920050369236,-0.31475831208123994,0.03354369144055332,0.09724475999889233,-0.1567007848657886,-0.19893949008491874,0.027794758713866413,0.24049675966077244,-0.1599754424041482,0.005537276370928169,0.2317990229056689,0.2568561682046132,0.1301003379462896,0.05875674842689138,0.3511624965392704,-0.12474076474817625,-0.046392061054661406,-0.1526300677284951,0.016623443170284104,-0.04745563825215303,-0.14816576962009656,-0.15552771716790892,0.2331708792800569,-0.2740002894455412,0.1638020788498828,0.10589079201944053,-0.252120052977176,-0.17796681681813803,0.1048412746292186,0.0979084446951417,0.31353239228470436,0.20178833359010853,0.11152510247455506,0.03431973629143728,-0.44847564917625743,-0.28931990534175356,0.05355910061696678,0.14479285478504694,0.1196297521667398,0.07347419072187261,0.05938617691921064,-0.08336963532329307,0.16567823608126342,0.19204839544923238,-0.04527821423517134,0.28467741792041573,0.13154114341422374,-0.26383764592159287,-0.03680574082263982,0.11833483423701965,-0.2902008591552957,0.04087297711869482,0.20960594183689363,-0.4783363747874055,0.03089739212956344,-0.18679119088420054,-0.17357264207152578,-0.30405810861979865,-0.001871959636341733,-0.04791513666512741,0.1344351569393977,0.1653055654656549,-0.21873067369749422,-0.023008412562234754,-0.15893643584710543,0.1419872006994257,0.26973031401527364,-0.12964940658611168,0.053818911677817244,0.23265821703986445,-0.01586987501088485,0.16889867828684663,-0.0764249171702275,0.02849028894090028,0.07336208141807801,-0.0015043759779191177,0.15688981561735035,-0.05715253440348225,-0.17388711497949041,-0.0022294728583579643,0.23520855730276052,-0.2702285376458155,0.20083454851032403,-0.08287755485104044,-0.25289613760927304,-0.12635144070602908,0.05906871395639346,-0.18479700332374197,-0.012515219665153118,0.11301856633032488,-0.16677099024661513,0.012479754397997355,0.14380103167068667,0.030349879691684543,0.13685961120081486,0.13056470607404105,-0.46543652938097485,-0.0760880544303014,0.1301566016084867,0.34105474064222047,0.020283088453221475,0.021338549981203676,-0.26267415056070675,0.050356500161391746,-0.3256461484245914,0.023469030683226984,-0.3947779566624001,0.08435199716266911,0.093373430357581,-0.17139278665607655,-0.08604699734718697,0.0036442631742408084,-0.16714600760424095,-0.14613145552072274,0.2642929265527256,-0.15718913660424583,0.14641078101304575,-0.010130536603330789,-0.12738079477933753,0.07273675416955303,0.1987008755338468,0.011211639852631204,0.16691660217586884,0.07999617421738081,0.370351747894669,0.07037068688967552,-0.05766823553860312,-0.07403538532114476,-0.1270103245849047,0.03396879904192159,0.09163580568322285,-0.15504758744405636,0.020858874022471927,0.28467600087949085,0.15094796907110047,0.17523164633880206,-0.15505538152920628,-0.13605664432645106,-0.13207848691778834,-0.04618729535713978,0.17020694488873805,0.002582513494931947,-0.06597535286373192,-0.007674751140046584,-0.12444100907734917,-0.12468678330580836,-0.18986388513000252,-0.16781211742704788,0.14885123345394607,0.0706028619126875,-0.22223277010272374,0.13611407861477534,-0.11097146868794128,0.14995879494338143,-0.1508894205730615,-0.09671793500433624,-0.03888494827752598,-0.08097072296656359,-0.07769173173606475,0.08254837807350562,0.1350120627231609,0.11560633656194563,0.11190438017879917,-0.0703915453446652,0.2044394277803651,0.10127372072048892,0.07281929777917266,-0.18075459568196922,-0.15279945471709044,-0.14414844111343195,-0.25156027321380037,0.009914126511964546,-0.14993994053373882,0.33411799215046095,-0.02805510210220561,0.06840649298656501,-0.051077584266748105,-0.03303079368853387,0.032139124651469266,0.010123322450297977,-0.14691629651460467,0.16953082918719908,-0.1821676976079491,0.03763723121709963,-0.1594098145186547,0.09044656590396069,-0.08527424896755788,-0.11980722682729153,0.04202766306006166,0.02663864887945755,0.09199474684813075,-0.046201031161366604,0.12484972438282715,-0.40829735463841643,0.043895521312074484,0.06009369146632229,-0.16347022292177477,-0.09348897737179593,0.3509167230242894,0.49710480022656994,-0.22244445997844334,0.21682955749613153,0.049673624935174944,-0.22408906399799758,-0.0467215879994866,-0.18433972657323305,0.13475418732573957,0.0008460815366619921,0.08060996156105807,0.04560667245357961,-0.1110869660051644,0.13300590568654308,0.1127718853003244,0.23458126345990848,-0.01387039904615104,0.08155277908641553,0.3895273416376651,-0.2578569183275809,-0.13347656689218274,-0.3575004967203945,-0.001565841362283239,0.33569131958948395,-0.35630595116738256,-0.04647489342013559,0.0360166217555074,0.1603341177517676,0.04294374012513005,0.41976857766615105,-0.08226029374047372,0.05841557680280555,0.04784455249899769,0.11909141310701932,-0.2218626859876687,-0.08534824301978745,0.18942755009754558,0.03818020791435965,-0.05263602974049722,-0.22591157897854486,-0.012859448261705559,-0.25988135278281815,0.10435459182520598,-0.07319851102893574,-0.46483097766427406,0.002202574800665492,0.232895044224201,0.2683555670847215,0.30345317042168307,0.009991805584422905,-0.019593703138540707,0.1310003805107056,0.29436924637739015,-0.047674576678949816,-0.0410841004159306,-0.006114253274640154,-0.000948321705899862,-0.037127701051275976,0.24635617174105987,0.11860176315077021,-0.08678120847381307,-0.18402310931374505,-0.019684293595314137,0.22829653574279812,-0.19363064630255755,-0.28068792493600403,0.30362698912035374,-0.12284710209314079,0.009942277322854921,0.08197501024848663,0.08997431441777962,0.019809595120318182,0.1313174067697697,0.036882264169218984,-0.11054148130018904,-0.01793816605197878,0.07314127831423584,-0.35987068401456246,-0.028809413931525477,-0.02132463817827298,-0.2170816546826523,0.21529242233593784,0.040646456252968276,0.10761581443198182,-0.016331874719023413,-0.2028979541482977,0.014222806291346996,-0.37323981655898814,-0.1058570952520519,-0.16235964015500381,-0.13460311957854912,0.11431927300446622,0.03628039430623303,0.2712697374857827,-0.023339089136732147,0.14561055154395552,0.008865945450450573,-0.08593071485787326,0.2119561622614015,0.06777471692084434,0.2626296560758559,-0.2186141747056144,0.21385866209608662,-0.1912317887723165,-0.07285054657260694,0.11092446245792521,0.14584094954259613,-0.08041966745892952,0.14105293342365305,-0.0629587694979959,-0.23073248103390034,-0.0428206438846165,-0.1120866312499447,-0.127510650748184,-0.0643886786612961,0.4509979811520507,-0.19821266500702167,0.21911867299385948,0.09224430840527266,0.07118851073540972,0.03512975124764166,0.19034922425036965,0.026080520372849476,0.15840690903158244,-0.004334291945463543,0.025225723228073208,0.15056799066982846,-0.033792527627061364,-0.047246502654027855,-0.15232458923305536,-0.3391145914068852,-0.22408449245548834,0.041485300081282615,0.09904671080280632,-0.06129103338043279,-0.21918524471325665,-0.28091080567293986,-0.12449445652324366,0.0965311125701664,-0.06495723144730794,0.03332832971628305,-0.17176350072874508,0.032127053017542484,0.5121849446724186,0.18751102806570644,0.2268641444543788,-0.12293333628696157,-0.2430876460637063,0.00527539571053077,0.15995807283957536,-0.058905366025244654,-0.13450366253039986,-0.16050666790847262,0.3230309958117864,-0.08727450804470595,-0.11427168209188221,0.03603176923013379,-0.1548043116301063,0.16416573270460602,0.0019656159935720827,-0.17443941747816377,0.08325065163192397,0.06254808328322115,-0.5018886557779375,0.11305981207666312,-0.018233500911618558,-0.16795402555463812,-0.06692805174254747,0.08113455274978554,0.041054960586676,-0.15999551279082763,-0.16025255868274424,0.12639998996940852,0.17811350475838952,-0.008249647334274312,-0.0495164113337206,0.05077329027357814,-0.11055493341373748,0.13731013650943302,0.1754455438676952,0.16597073073357338,0.23470946002127785,0.14940102844389347,0.22915056826093638,0.022526008358322303,-0.12279809574656704,-0.17428021349018608,0.056419743780872875,-0.039695675400277346,-0.048548367309062625,-0.05487893688916497,-0.13766860065513498,0.0095419066730097,0.011857426194298549,0.11857959453346759,-0.08210151617554391,-0.12097398119550254,-0.1704003885330675,-0.001584924314894418,-0.047553176600515196,-0.1621982261696499,-0.010138482018964482,0.04209950698936946,0.05077033601731115,-0.08744011699058808,-0.3251681723142056,0.12006493941027109,-0.22849633097569488,-0.08623526766583267,0.08890411817376936,-0.013666905129665431,0.16745385049328104,-0.02495870856054424,-0.031158263691093608,-0.06938148859878919,-0.1292323256676777,0.023040357340674923,-0.08662505127462235,0.030331222359334793,-0.16977619732858235,0.05164893862249563,0.053415204696353163,0.1722226718532827,-0.004532472799559045,0.07238573650703986,-0.09703665897332173,-0.06028002287545969,0.03916303866202045,0.004569208847089891,-0.1606701685213743,-0.17536243110466157,0.22019193600250214,0.15292194620794292,-0.12640205066187604,0.017215660075843638,0.06707680076528386,-0.009747650621970968,0.032476293343645435,0.02424318368558246,-0.1626310890690909,-0.18748230957668346,-0.12230528180274809,0.19844528510177256,0.045565937284826524,-0.011615501815297887,0.08883375053732176,0.20862752987535166,-0.07691232091326942,-0.21603820939505183,0.2854909059389368,0.13741117862768154,-0.02907595261071246,0.2373232896503753,0.07867046211330397,0.021112916786671987,0.0985512810135556,0.06973616103157497,-0.19634215704288444,0.041720269343208945,-0.16569793661339824,-0.12395737313822741,0.13038691494286636,0.057798758987761156,0.29533139680299597,-0.22022639686092338,-0.1571973192894656,0.03322171335624341,0.06835046399717364,-0.2769719639971051,-0.07016053214475272,-0.0841750342861578,0.09380947288577646,0.3133148621043369,-0.2735626223894802,0.1528678952108318,-0.06477976338592378,0.04009474812289194,0.06072200745518523,0.01807992146068141,0.10807480115558527,0.12286847681895435,0.03746500908103269,-0.058838717316416524,-0.1933505020168107,0.04351633667125671,0.28689843259993675,-0.0924681099537913,0.04542791689408103,0.23349158117186922,0.03659419584357234,-0.07135798348171017,0.06616328419295747,-0.018676487372420315,-0.1749472565867474,-0.16258628213537557,-0.10452456936088728,-0.1831846294072747,0.18839719492187723,0.03448896812691267,0.015273980453166587,-0.2073437851370421,0.026620951932239525,0.18976216592667156,0.036994167546554026,-0.13945312899841747,0.05447658832131112,0.22275513586917817,0.05655598380872376,-0.16747560517806853,-0.20977558847153477,-0.17195465479218308,0.278429200062617,-0.22977095022882324,0.12905276793709614,0.11029391033374765,0.06514110478661644,0.3227789387997969,-0.14435620115605532,-0.02651266115992504,-0.12986784016369382,-0.2515937254575668,-0.18402484191843127,-0.16178618413852797,-0.07253140976428261,-0.10938862816158054,0.1306069396775434,0.0001597333969762596,-0.11659014906366247,0.14683168181390033,0.11727577491493385,-0.2096162156280057,0.018321539971208552,0.08335177022520043,-0.1509297413166313,-0.026170950819936548,-0.4000823562924878,-0.12899017463664741,-0.2669969249945356,-0.11415186008607722,-0.09288939848521155,0.0028531205334491883,0.21200943005527262,-0.03636664522012534,0.24274736850571743,-0.3059315817128216,0.031498868557482324,-0.029738303506479175,-0.13995296115636502,-0.36627901966060167,-0.2179434897629086,-0.0031451317442020314,-0.30081811132177366,-0.052695305228217,0.06766207179140851,-0.13645808430315443,-0.05714640586151552,0.09642508661076382,-0.025666530660166696,-0.058825067619939345,0.15640653879888555,-0.11725753151956442,0.2016275925952451,0.10526983222714134,-0.009062478624978377,-0.20650250824130117,-0.11485072392652626,0.16832963148747632,0.12474552645596022,-0.011270345082849294,0.23882718925659818,0.1916075182548288,-0.3882221035159315,-0.015980290318199267,-0.11974640394586655,-0.21839396271044878,-0.09612083231273112,0.2727637975172941,-0.015412479898180379,-0.03978969483934082,-0.12892932392594186,0.16326532542652697,0.11579078311434154,-0.1557876716567419,0.09406422645626222,-0.036719665370544025,0.09538400437254198,0.07092013087864898,0.1818603188344899,-0.08487357897887654,0.09040312407747725,0.018243587559636773,-0.05242674039610729,-0.2089032163625956,0.19412951208030094,-0.05508927582580496,-0.25900565622334326,0.029673483728307637,0.05215229972601713,-0.0901666371147284,-0.061944761773192414,-0.2379995507236862,0.29368613779468766,0.06899651792030505,-0.1105844355283634,0.04909599671539669,0.07062927330899281,0.13870538128743518,-0.12972792139314765,-0.19797123529781363,0.031097701314309004,-0.04992461991105812,0.09713748112651172,0.13959194651011203,-0.23013390006334072,-0.09621411007329495,-0.049427895557968074,0.049785805401636,0.16909721807569494,-0.08050527027088814,-0.10456689045537376,-0.43453930270437807,-0.2449974945684428,-0.01059875518066176,-0.09660419138030442,0.10167832877108765,0.1550928863322188,-0.11320522840904254,-0.22276540259774716,-0.13032710043785464,-0.14596617156559083,-0.007411592291791289,-0.04521121704781248,0.06031382496360133,-0.3934452886394682,0.0913300489562468,-0.08107705869086405,-0.305712714080901,-0.0747617555473892,-0.059407158388897235,-0.08386854765897579,-0.16862263362769164,0.07744769255298042,0.09950899625380473,0.1210650885285652,0.3064394502020654,0.1977559060800134,-0.023698245475265098,0.00395054698437644,-0.052146377525818396,-0.040018426759257604,-0.3137763698101172,-0.04244927973954116,-0.109700064894896,-0.10184661206336185,0.08253629246296873,-0.10740047858388987,0.009782486442211816,0.0704210124039995,0.007273503564857011,-0.19567320062644006,0.23723528717745507,0.2235579048677941,0.03484684562250377,0.19274577579686406,0.13078743202447704,-0.13726598360461786,-0.319305284787456,0.031676629583721555,-0.03775271584281017,-0.058508204518491626,0.07178573015255815,-0.0005596700980275335,0.0036313694266562916,0.05080270806802071,0.08579229101596822,-0.11233502637569606,-0.025549214404198058,0.2154957498508342,-0.13983968932317187,-0.18974710912296655,-0.0885447919792224,0.03978338965416108,0.276229936306878,-0.40077486945510976,-0.09440856047095192,0.04503513346756012,0.04791951504293183,0.022892984410523582,-0.05256718211701126,-0.001930178090774757,-0.17124754148757132,-0.018191625980158135,0.042118698662827525,-0.006686542208165473,0.10041868503708304,0.33441779113254844,-0.09386525257215979,-0.06794757107464736,0.21348740946611902,0.2107290019265914,-0.07578898537493156,0.2139426738140791,-0.1875048340778397,-0.18148821936008766,-0.11023386750601462,-0.08157644414563335,0.07877598225409102,0.03488916680756995,0.129325825044475,0.08889228356554725,0.22359597861469493,-0.041278640128819766,-0.09607353697123124,0.11649142446297717,0.15373749348522212,0.1940812041553074,-0.26825121178649636,0.24005624398260694,-0.22001323742530082,-0.20662783366172244,0.029159096924702047,-0.061148699680998383,0.02140029496803101,0.31963194601188716,0.011571640932305258,-0.06182127561966981,0.2932998493658366,0.18992834345498413,-0.292176559170885,-0.20047443701178413,0.1345814164912319,-0.1512682615891781,0.27448432606642037,0.020395324048140612,-0.031042432714009686,-0.3371313562753052,0.06275818420853277,-0.07148538210874038,0.2390259861073806,-0.0057468464179467466,-0.10683394031267547,0.16312260653647803,-0.01030628687466624,0.15913119067544718,-0.13557430868185005,0.12302431290294039,0.1414865678239397,0.1612963477342269,0.241576411697633,0.07695542686695864,-0.0262523520590282,0.2468827395909145,-0.09003903824512467,-0.279745679812322,-0.16658138979775255,0.06268894262049282,0.14597080954319558,0.004516380721055166,0.19541028753504608,-0.011548407197708662,0.21630483640311918,0.10340640287310321,-0.08162333589366798,0.2556824579212882,-0.08633971991345066,0.1115484160176157,-0.26086866911697076,0.29236379702467563,-0.17497490803675425,-0.12945787857947166,-0.055563904388572345,-0.02857377357664351,0.1145187677235506,0.001385076157241282,0.02159068977642025,-0.09237555375613694,-0.04388780425620507,-0.11512505975286391,-0.16329502703907858,0.20710420390957995,0.32445462003380077,0.06199731369262129,0.22494094382347718,-0.19168834933317194,0.03282560737364418,0.08787902372038428,0.05955746657980267,0.2696412759085331,-0.03624676703389756,-0.12012488891911449,-0.23004859543322012,-0.20894779762908733,0.08455749081229327,0.058397449700757595,-0.0889374867348295,0.3274601764575213,0.015177319732265205,-0.16875532891746337,0.017670438686588533,-0.18832867010696513,-0.056699728201982214,0.2177444693947232,0.12150266292223512,-0.002987556316911701,0.03342464015178881,-0.03923178720387022,-0.07794673960818357,-0.03676296056545959,-0.16119518719960413,-0.03867710216195588,0.12853936338367303,0.019988169392426675,0.05194408380606638,0.11625403296843985,0.16307679620737026,0.08675021289493656,-0.10154376506262215,0.02487438709547605,0.1335912720114006,-0.19509001534468542,-0.032076021376383816,0.38175474288252687,-0.055790476531610275,0.27024913006779483,0.02479917607649334,0.2192033843321381,-0.31031279220751906,0.06842896692248887,-0.23191904521909393,-0.0450685036483046,-0.19248496810031007,-0.05543702719184179,0.01897819291849584,-0.21682275695097988,-0.06438501897684373,0.1883761915900491,-0.2112837055270621,-0.03930288754073502,-0.0006193741396345239,-0.13668989929244685,-0.23167193758823612,0.03126627825095943,0.0765951936314866,0.1191411516685192,-0.16621527112496035,-0.33777343821163935,-0.02242563310533973,0.13122113694189894,-0.4090760236686519,0.09795022986907384,0.12254062884273503,0.16044015205334633,0.21910780669982835,0.042706947829226634,0.07201945911874066,0.048625263533250036,-0.020860610909776298,-0.06889365604437275,-0.01733432026246601,0.2124184623072175,-0.038874358041305755,0.17134398285170963,-0.21464539935751228,-0.019242782530961573,-0.32220331797331603,0.1074628906441243,-0.011980347767675415,-0.3165498778881908,0.09048957728115227,0.03336591402893172,-0.006588904553454662,-0.05972868823663438,-0.15641978393709208,0.14023513858117242,-0.1601427789415744,0.025509328455795722,-0.07124455519654403,-0.09732017809494965,-0.035727460925259004,0.004857798618403104,0.17699894490456994,-0.1432360253507888,-0.11340960816568975,-0.0063630289093267005,0.11761640823833071,-0.3864004660837873,-0.17421728455944646,-0.30312528043874065,0.03760958060528997,0.15558128327043177,0.2211221103500296,0.24604471598281744,0.03176554103780199,-0.5588322891318505,0.09330486125003862,0.039456575071528506,0.11137765253943838,-0.13895996246174372,-0.19661723243840062,-0.4761256478001739,-0.011780984550434387,-0.43602734872150173,0.10376225506598655,-0.29101525112068616,0.22830097469107596,-0.0646554461876405,-0.07678131040767931,-0.05021423252770577,-0.1789101835279753,0.000154633523846742,0.2659243821232538,-0.3139449844218708,0.07164084918677688,0.005110568714320727,-0.3672117708229068,-0.08584775549990803,-0.24732561539215764,-0.03196515183743375,0.33952281375410465,0.1817174537601532,-0.10639107777732554,0.009310497270768516,-0.10554742450006893,-0.08875579081473106,0.1090698058563862,-0.14511603901919903,0.1535654296668842,-0.014195433397055982,-0.04177372799981081,-0.1050986512316319,0.0361013581633455,0.089647961589505,-0.014039591449655964,0.07043191237806151,-0.0875415470676063,0.02887971566978565,-0.21561541309470147,0.05452581047096156,-0.13339929963145616,0.15382408894065142,-0.19213415130483802,0.1790554912976119,0.2575383503641324,0.19608666230728958,-0.15269301215956624,-0.15829835055385322,0.09461013135864518,0.08594542427899046,-0.0450694876430426,-0.0515422935418689,-0.2183527280662857,-0.05085273961723154,-0.2197525335566748,-0.11227659165403733,0.09412651468095215,-0.2495378214301241,-0.21719619677537821,-0.04993661301182041,0.22366107401060342,-0.1127369269358325,0.14155709654566578,-0.09337994425041721,0.10490205519480256,0.10209451187391397,0.16873606608514594,-0.1042007846836012,-0.14445442597591474,-0.09144556295668604,0.05237723525929405,0.12013812277805014,0.19271400367590014,-0.15104011682825794,-0.11900479523118201,0.3581737506699628,-0.10347902268291749,0.11245385297102996,-0.20826245546634642,0.0836379512671538,-0.13579805481613516,0.03834264687893348,0.0734319748560572,0.06498440725041511,-0.11678152268449868,-0.08125648810917983,0.09927000595796709,-0.16690649002582492,-0.15156376133488267,0.008072361050595214,0.06527283453241445,-0.026271172427635672,0.17340002397758697,0.08362242567530503,-0.005776294377053418,0.08170457710074588,0.06100979477324538,0.1702178701264392,0.2778600921651549,-0.17159231507121575,-0.21715590786604533,-0.04346669150968702,0.10949251786057264,0.1422960178515714,0.053766592467218946,0.19608715564361315,0.3964803435802309,-0.0076711225756675066,0.04280868169770055,0.09674865729708766,-0.18668299930656176,-0.2997187438584938,0.15710423304375526,0.0619052977171632,0.021783228443892733,-0.19816530461166518,0.0071776405672628754,-0.15405063207239095,0.030843068985797972,0.026077671843937847,0.060296126286065545,0.15875252686997243,-0.26811642203234204,0.24651688124163132,-0.17353078202521244,-0.3312270468645276,0.1338561478427818,-0.00066640298927965,-0.10554770252893066,-0.09822011277315995,0.09500560321783436,0.02967135330091997,0.12312878841804421,-0.051477767246668596,-0.14183840725416647,-0.0447261896963809,0.07150578947307869,0.23328368454342457,-0.21872235419762676,0.22805309128440937,-0.22417987743962242,-0.0407819841951498,-0.12695649530749023,0.07973626612767101,-0.05466435311619196,0.12575203899838688,-0.011008027517770618,-0.18238175084965613,-0.30419764870518395,0.021528909269287327,0.4095677482911768,0.0449712669442834,-0.22181046949415179,-0.015758417573779,-0.13939167461825475,0.18458808014024955,0.11784474256467943,-0.3913033791472014,-0.0698667937732114,0.2243055123873583,0.06914551869288285,-0.1464185290775682,-0.00811235362587173,-0.18944817885999882,-0.15365701962578032,0.05939303199659221,-0.40409303604089036,0.2951185051454281,0.17268317083601686,-0.18340995978254795,0.07917287583905663,0.11008519836574428,-0.11682334213262685,-0.129774707912666,-0.15721974622029738,-0.07610914819555495,0.12898177295349025,-0.25782574978856154,0.024839984964824584,-0.07829072771046287,0.024781633870163113,-0.17298735643196594,0.1093255245340904,0.1522628961369089,-0.12088135219197073,0.19383111143569237,0.2566507674062651,0.14687302674861713,-0.032323655667751645,-0.04539243482708231,-0.11474233919573429,0.020958424541862863,0.04761673846253897,0.018341566699206804,0.09916133687615998,-0.2024460997500544,-0.15790951856639948,0.19616117558744572,-0.14259674647174503,-0.10280980858827146,0.05368354650000766,0.251367560501254,-0.03699448072918586,-0.03942427246478008,-0.06708739046889262,-0.13397396509071877,0.03302744693152243,-0.13475651967760865,-0.05564156764420186,0.14787773085577097,0.22126033240484966,-0.26691590778151475,0.16674441867109407,-0.11707880870382287,-0.26546245351198827,-0.14214201463105264,0.17969294761349452,-0.11595198986352404,-0.43158831605404974,-0.3563123246139378,-0.05602090665525693,-0.1573582167668948,0.07762850242773128,0.031464715021002745,-0.00176182581142166,0.020328397547286794,-0.052386885856019035,-0.23706576622120346,-0.1610473763552317,-0.21260143819618574,-0.1442558896505807,-0.2772051297302076,0.12377115922961046,0.2363860273647578,-0.03753858292712227,-0.029693603735978825,-0.1646873225858703,-0.2601119450682043,0.025836374437796867,0.45442898324752334,-0.1600978583319478,-0.08928709944048581,-0.1767982759646125,0.021361350840208532,-0.09371309948428982,0.04191680887417382,-0.16266735129205284,-0.11562223891224695,-0.03271739322315059,-0.13437324366030656,0.11272590280755368,0.08584651937728408,0.030850375946561197,0.10656088501827676,0.20571469095713826,-0.13311677117190374,0.17276062591421876,0.05050125427630151,-0.046650481612382194,-0.1871524583782081,-0.0617742557365886,-0.07645656834783433,0.0866262929825304,0.45166989045784167,-0.03467029182639881,0.07628375721838947,0.2363871552175728,-0.2991569606525575,0.12136646667350001,0.2082425600565524,0.18433529580717706,0.012909470735179021,-0.027728067855013312,0.001764937498061535,0.06791947812271867,-0.10502614006025979,-0.12657247314991515,-0.15423646872877395,-0.037865444948594215,-0.08093049739162546,0.15567840701961166,0.023786592997609622,0.03310374234582527,-0.11416047839773398,-0.1490913908600307,-0.013336366751764302,-0.355789580902719,-0.1041035097414961,0.07983913462439292,-0.06982411461384487,0.012670955733885585,0.24316931044207152,0.16866953457522527,0.10603375691393327,-0.3937533185918605,0.11136990062143295,-0.28226015218383727,0.014738627666814708,0.12680904456517528,0.14462562931259298,0.2860948923907578,-0.17300945126298534,0.011459610305600967,-0.10482723397640978,-0.0494434785779409,0.14560920481369607,-0.061257699924873316,0.010236295609423558,-0.13972486200443446,-0.07215662279366843,-0.031883157359782414,-0.03814901701126735,0.16748518778635707,-0.09673143673874046,-0.09859955815920907,0.19995839847867816,-0.022985641011883357,-0.22074834465561244,-0.06900846069761538,-0.10722845740853743,0.12632927870024624,0.017362652778605225,-4.230831000391231e-05,-0.053801477810656986,0.15725459852446863,-0.1406624821035436,-0.016269511391967445,-0.03191197689291855,-0.05671841453771109,0.124408442369419,0.10019203581054265,-0.21093332209593788,0.06488389209452923,-0.32980569883641775,0.06869988767915781,-0.21174194858147224,0.19592519037474965,0.14748483163072182,-0.20610132024532615,-0.10028432374160126,-0.07555251880124861,0.404811601668901,0.24447614181255067,-0.16946250801017518,-0.23181866244021443,-0.28150023878455976,0.3403209717349747,-0.06658683238427948,0.37871712385950085,-0.3023193812821181,-0.1244279874478694,0.13763836203803295,0.05102873170171718,0.04606181352887946,0.044358214220882944,0.09327699724414656,-0.13332098123069192,0.183722577267723,-0.06841856153334895,-0.20480615264008423,-0.22566542850871285,-0.25635681922827136,0.017138334748668976,-0.03800499190562086,-0.3570044430013708,0.15007435601800462,0.07958246789915019,0.16998279650883508,-0.04677217970503398,-0.32211168207022195,-0.24908729923590947,0.10765988772872753,-0.23684075405313637,-0.017710578742472047,-0.08592763723725674,0.0107942075513931,0.17775202718934652,-0.009411223972280284,-0.21565092214132953,0.12302621999582361,0.05399739724498086,0.16732262555071814,0.04664543252634868,-0.13976392474148663,-0.029331879242174404,-0.12267085635805827,-0.14675656504352488,0.2132888615145898,-0.24367719826359202,0.40804350157054115,-0.00766663391502117,-0.08363944676562834,0.21954903832075368,-0.21387799339343486,0.03125460065947657,0.11968085193130976,-0.43462189133259654,-0.10272737804101972,0.3363975332495769,-0.3097079257694157,-0.03338714869005136,0.11518547091668264,-0.15063952188149587,-0.22375703604759425,-0.13595840057205788,-0.024056273324540738,0.016171942972981697,-0.09498126009853414,-0.07816933201159139,-0.07685455669340767,-0.030910016003797492,-0.10562781288940679,0.026043332264681356,-0.04449613946230434,0.25706820569532196,-0.37753966517565885,0.16149190862633567,-0.16500924899281388,-0.0772780827988706,-0.030253333132806516,-0.034035712506652334,0.39848627233317113,-0.13181609830467644,-0.07943779538358874,-0.05817046115258592,0.1671457867645455,-0.006962419436858364,-0.21765599333439717,-0.28099014166574565,-0.2587520505830859,0.01782681021203855,0.07534178607913543,-0.22672940821313817,-0.16552300865321692,-0.11828850170166652,0.044638848873739874,-0.1569375757329749,0.20024212037167138,0.16797145035777977,0.16350316220904082,-0.11986939418545661,-0.0342570001551389,-0.08394009142563605,-0.20049934509064107,0.340706630458652,-0.002394720360266684,0.2359159784293871,-0.14941451534557915,-0.15035318758242666,-0.09112424413337106,-0.23572839853581262,-0.016875522931751347,-0.05265876408414112,0.15303188396833628,-0.022273242455010403,-0.11933444837594138,0.3538731594446486,0.1311277022220191,0.13067874088029988,0.20107275780155037,-0.35959208636593704,-0.3429832076776924,-0.17664198689086003,-0.12186964496419357,0.06746255328124337,0.047235818507522294,0.03986433367723636,0.23338024070904156,-0.05673999850354572,-0.14047622442120122,-0.1991635919769511,-0.01244586683201473,-0.190452000030241,-0.15289283558430256,-0.11701126247252099,-0.11962576520733173,0.07462831884666765,0.038356936577849485,0.26553998600422835,0.23159671504314233,-0.3015833834121728,-0.35940417774267486,0.09314944540725667,-0.41070174531961046,0.1252608934619639,-0.03688476024153936,0.25934782483211105,-0.19121986337044275,0.24955622408082306,0.12224161086583335,-0.014407146448971796,0.04349519371033759,-0.059227371165182494,-0.41923778499655207,-0.19051015654482487,-0.18743376729837963,-0.21683128801748164,-0.043715915395676486,-0.026334673899727448,-0.28174326120650284,-0.0022406987822187374,-0.2531825151016046,0.017370527208804873,-0.11722015484452639,0.2434338472111156,-0.3663756254564408,-0.09531145773115092,0.004148672327676531,-0.028642420292716533,0.15100795062339703,-0.024581467299212338,-0.3509496632279826,-0.1857940305057582,0.3086137248693225,0.2558050103460869,0.035855658024530765,-0.17385195866574804,-0.28454383034473385,-0.07955110138294502,-0.05331849732625413,-0.13792273290399046,-0.0352352215523985,-0.21718431908776487,-0.09673288162827615,0.2693973453925035,-0.03263120206137414,0.13736967621011184,0.09694622719613247,0.20062127477205685,0.26549748516969374,-0.11993391827815264,0.2799463906416245,0.031356080805683056,0.0011527496220890008,-0.2010687292671941,-0.005164601135695328,-0.19496298639708212,-0.11817881553452378,0.14567441158615113,0.20793167028185128,0.004401971784480426,-0.036766683774254016,-0.21938386048551453,-0.03283724326565467,-0.20795870453451426,0.03609430623177135,-0.04311455252441142,0.1190760865573553,-0.23997554141057356,0.017140306339928947,0.1252390583417416,-0.14814769285740187,-0.05453277323542376,-0.11415172711464072,0.012406764745852181,-0.15983294387107735,0.11444556110638146,0.0785791756569328,-0.24168413779344144,-0.08381149809931317,0.08039338740748006,-0.06347737871574259,0.08211589922662514,0.12311382213964939,-0.2320314369416145,0.05013658761982141,0.27517283967447914,-0.16168492074377583,0.12097636936409979,-0.3276696456085283,-0.2545963372990209,0.012485763355180177,0.15674174257104717,0.17827031118017936,0.22816049279574063,-0.14890928964461028,0.02220450473218339,-0.1499865442962084,0.09131270946901815,-0.10560029389593707,-0.2787594342860142,-0.0002055896387686122,-0.036021739693535365,-0.047356508347586375,-0.04251350288502721,0.0059264177922662056,-0.2518910202071881,0.016187125442731494,0.08965750167768782,-0.08585309240662228,-0.0026241981047411917,-0.17164428950449312,-0.07522383631611484,0.07751283299749424,-0.0566330947152452,0.11626642252930748,0.10681490255489745,0.253449836370641,-0.05816665619281815,-0.11531446086468634,-0.005677592662891941,-0.2387180552722159,-0.2706410045020133,0.04068506997261974,0.10311746656047617,-0.11982982473748646,-0.18388735411933094,-0.03975499952204937,0.06349279165597352,0.11968930911159173,-0.03330950103839148,0.22584894770427655,0.1796041005135032,-0.06271760964969635,-0.16707068596417524,0.20270506486957762,-0.17659129013422017,-0.09585926143396706,-0.1821271619998507,-0.28417799249096964,-0.17887637555242422,0.07551360557441057,0.10756860973338563,-0.06878748024902864,-0.11350897306040571,-0.246206315972375,0.21588855054712497,0.2670404522197144,-0.1238185179952321,0.10900405346984549,-0.2753811514545895,-0.03395260095344416,-0.04197289104817377,-0.059369234318177894,0.10568274892942373,0.024341340664480106,0.06759442801041436,-0.0400862430359579,0.12521521259501722,-0.061334085667497026,-0.22206910243021727,0.036150718250701645,0.13399266089810827,0.06436012598163739,-0.24338185823854375,-0.19607258917645126,-0.1110585392844105,0.11351826948991064,-0.19626463632048613,0.16686971898210096,-0.26275037087610364,-0.0528804763594041,-0.1157831098228921,-0.14454310909696955,-0.2583040531994434,-0.020336976808877617,-0.23090585330959235,0.29745876963752915,0.20066838344694626,-0.08328898070589258,-0.039178465165752206,-0.14114484217466608,-0.10407516174241549,-0.16631697665825929,0.06828668097501245,-0.01989745325369607,0.3159100181257949,0.11151273671205073,-0.0880847480743246,0.25327666340459687,-0.12398485058842204,0.12508900756034352,0.16308157128686326,0.1714955376757038,0.03188103723557133,0.14391063522810907,-0.27234441398214265,0.2681103710419666,-0.1854376247514056,-0.0179415919968032,0.18687097649253243,0.008780906334670859,0.1594009306970587,-0.372319184789786,-0.15817958298942217,0.10187884709358583,0.14162091731584275,-0.18127796853038564,0.16961821567388116,0.012748949699750435,0.13237748746316663,0.0640559664479211,-0.10390690182291346,-0.17926194416976163,0.37327047392142254,-0.010884192629370537,-0.33086989427468905,0.06676016397406262,0.10754075108609032,0.30305101154819475,0.07258176895345708,0.2192376581869342,0.04532600565287021,0.12948899942402856,0.11787289523996863,-0.0533048020791963,0.057518654895048024,0.2251719834190187,0.18053063751475232,-0.17620066009375318,0.13610402118613912,-0.012208987533440512,-0.10727979579958148,-0.10117494220769914,0.14089384805368038,-0.13891611574898904,-0.15297094738231914,0.032788903244137066,-0.43208562043689147,-0.033228484017735004,0.08396824026889071,0.2602266773187478,-0.13898225988135357,0.3773678443504499,-0.14018862711012658,-0.2585462347871919,-0.12806441686089698,0.20643071267369079,-0.1451432552118066,-0.13231740714056978,0.08230383671802347,0.3245929182980757,-0.05021250572734774,0.04689833301172528,0.001489168962330107,-0.049509933260541886,-0.18761088220178124,-0.01707641857321456,0.008277316316805195,0.019642079264425634,-0.11692782960315785,-0.07215081125581244,0.21515213226954416,-0.028131193780527863,0.010874526615224422,-0.01707581265353026,-0.26101576692232553,-0.21320551742401353,-0.09251399819465575,0.2796677800438268,0.03161101162486515,-0.09170868977946528,0.01986301490912645,0.1087609365561554,-0.27033188361167615,0.07678196173894165,-0.06481789609201336,-0.10805254194540899,0.07735959010413665,0.001284488257454508,-0.10093989254956953,0.14374150873922908,-0.11339087358795671,-0.021352880620049308,-0.3619423340295089,0.20290146265244718,0.014871261967628899,0.04406258866244193,0.19052541942915213,0.09923240935008722,-0.14044947898188317,0.005061781085516889,-0.21029920941499317,-0.35000338344267035,-0.2385519109488613,0.16250940791903434,0.08116872607387215,0.0552006452682021,0.0903723290915695,-0.0531856848682997,0.10261513731985519,-0.2927751164361999,0.11915456511089764,-0.028195093828063678,0.08317782933738911,-0.15189476395769652,-0.04597366714740128,-0.2661951990123843,-0.08796079163905443,0.11171346169713664,0.05918955518300041,-0.09497415114735426,0.3288600359185483,0.43809112916210086,0.36427487411697285,0.2778993887925859,0.08164865753215206,0.13117481979830026,0.10048497457885987,-0.01735781726577654,0.0609334820090616,-0.0956747023637429,0.1988152370831692,-0.2966594456360863,-0.04456558965048413,-0.08070587283820357,-0.09318845630584251,-0.02398497040204113,-0.10315281185185939,-0.23889590469702615,0.1946488627284249,-0.31775620855244263,0.015408280455613044,0.03141431550740847,-0.16400219891271695,0.08118482244116879,0.1370460028305414,-0.20124551928905915,0.2787399756549954,-0.07441674965105971,-0.10756808176780121,0.18119372905062717,0.12776891251314265,0.18251400909126494,-0.2899979115541812,0.027019567619209775,-0.09608348203101227,-0.15980122894743468,-0.09377588452765243,-0.19932223188718315,0.13506673071191594,-0.25272004320058095,0.027069927899447954,0.1342068321387705,-0.019996844261733926,0.24407995287927656,0.10916524842247208,-0.2725027136226093,0.17351509871683635,-0.2297122743116785,0.08183121001013484,0.18580316641022035,-0.19388082567563436,0.08110103082664041,-0.12031386957517659,-0.12375249598729667,-0.0431030695976205,0.013852676456033032,0.18056428499516525,0.02339963554875446,-0.14780548602986243,-0.0934030869354156,-0.14819321257834475,0.0662590597347861,0.13632034407869936,0.06613613369701055,0.058487911225078126,0.07821153773131147,0.08689602734028395,-0.45315103800993556,-0.26377036325361025,-0.13883652168625754,0.011978003665916729,-0.053168183939685094,0.004727083829098223,0.05433831010358523,0.004206464627142157,-0.1871073513526406,-0.10912259296065532,0.3836092315166224,-0.1459020402913603,0.05720475585187425,-0.1759959015098676,0.41577756600575,-0.014462171604457421,-0.11539512884546727,-0.19505171268971602,0.0491607374782672,-0.0777069007081207,0.09894443368383116,-0.003185297505573519,-0.12709743468983203,-0.18968892840619855,0.024407643979724256,-0.1205962533777782,0.34144435662201666,0.12486032872013986,0.04765844734233832,-0.08228624939853862,0.00034185195522418583,0.10777693074383989,-0.12478501164125072,-0.23695709333554094,0.02645325858978015,-0.03993189055223026,0.2720571984909288,0.12521536896761376,0.36055148907151535,0.09385600608794926,0.23630988234456102,0.024356572704160504,0.11712147871447116,-0.11796221548979037,0.031266415033798234,-0.3232199872058163,0.12883380968259428,0.16593193048919241,0.03183111890089101,-0.19302473724280694,0.11005349228288037,-0.2377293019787345,0.0648795028500347,0.013384000966991067,-0.14046492662663496,-0.04007322017605322,-0.3552009751913483,0.11258378128549813,0.019538561201472248,-0.055012585156973215,-0.25202463119513596,0.1844848031563704,-0.0655818089570764,-0.038244223498281826,0.15373399042633507,-0.20103022710763552,0.13648304770845796,-0.07134892380246632,0.02836217548458553,0.03359506752240427,-0.09924631272405883,-0.0023035623093547947,-0.03896484563736674,0.15483147260725666,0.14416724724916774,-0.46294944954287875,0.17842467331643053,0.0519159454656635,0.1081542214099272,0.01837175050051273,-0.2884806978283566,0.12246360645012008,-0.12847616775411644,0.1440644668365006,0.2067060125580743,0.06961703082796067,-0.05471413706695405,0.028599235721466946,-0.29034127181223196,-0.14849292903689548,0.013005917066100776,-0.07331730612795137,0.04694744531122287,-0.28294710942403034,-0.1237532582122235,0.0738739035749203,0.09751117610424234,0.01637342922392422,-0.231898679360327,-0.4072634479379716,-0.10291448375736093,0.14748130554519268,0.039644865027777976,0.10917171261015607,0.20596110419105268,-0.0848520304576976,-0.011644651987283264,-0.21559728942556977,-0.15163152269817137,0.08880986942554989,0.11084571258737025,-0.2775536967165844,-0.2651701028520528,-0.08613259276831477,0.14470008598756728,0.05404441011659492,-0.05726718261317269,-0.02163905934835441,0.03573871740463887,0.13463015614487803,0.01869400822836215,0.13406672059311533,0.20755099889061038,0.12784256675260128,0.06190393454351878,0.22306716359420511,0.1264577836664049,0.08282976104049986,0.14997064566297658,0.1133773838877237,-0.4063107520959356,-0.2824926426394944,0.2089881763389777,0.25706062287991316,-0.006301591283087865,0.11755236458593844,0.09804415676959617,-0.04860707585749195,0.07766719701663306,0.2571934455731598,0.20233186502453032,0.0698634677165019,-0.025412928924069926,0.031132304751331462,-0.0023518340987411317,0.28148088380413194,-0.03299379042266899,-0.11241876425156673,-0.09113913194121043,0.4633311542797843,0.3023997153261424,-0.0023737385819480924,-0.12848332226574982,0.11196975888705475,-0.07166211961369545,-0.13533260069185055,0.01807244225631119,0.031178785706315885,-0.019044804767732154,-0.07770704865536837,-0.025689251174535247,0.05642792637163149,-0.13962884439768714,0.10374620822860975,-0.2805350176348402,-0.036007892076472356,0.2538362778249387,0.37498498503709526,0.23103325199002092,-0.08101700898424691,-0.21213128516524848,0.3555429656216249,-0.003494874625568919,-0.0701954795298965,-0.13024069011741332,-0.18940207390814937,-0.16976758907563533,-0.398320162059662,-0.10533417122815325,0.21026571271304112,-0.052552255447042714,-0.27627892346332616,0.07067566354201273,0.03181394938735971,-0.12539949637946143,0.09340098096234906,0.3586651489505034,-0.043880361006657626,0.0641625307015948,-0.2811924422870552,0.09719756142899402,-0.04303822300178477,-0.29543101183512455,0.12426769421118472,0.19781399579663206,0.3369485838739038,0.29378423959029526,-0.39235436871631185,-0.4637248155375965,-0.13688780070122997,-0.08797503067187307,0.09949206080023457,-0.33889461360125034,0.08320869482951981,-0.050461169618340324,0.14414064182339964,0.008289628669500343,-0.03204121160864488,-0.19009032901014894,0.03275381554269602,0.18467345948670758,0.32850984558241053,0.04460981626232266,0.168324738269841,0.07834223640020015,0.2763045419961073,0.07879026335330241,0.07114946608990377,-0.0024866596622263684,-0.04245349401592791,-0.10128263270666135,0.07412827566498903,-0.10389125551285422,0.24188332982500682,0.20577238810799273,0.13672611555280648,0.02524189659403642,0.06269663344985928,0.30370674439758893,-0.16773669479078682,-0.04798977400873867,-0.04981792671751056,-0.14321500438224805,-0.08525002816763816,0.038209630360812735,-0.3219939760073759,-0.0930704856305079,0.08301565622044182,-0.19948025648216544,-0.03937097539247744,-0.04853582947100338,0.13190893096219108,-0.11793034060317859,-0.1457758853247497,0.058133208702168176,-0.01739086814067577,0.261756977653579,0.1485616727887491,-0.10733430267180295,-0.24662281554677773,-0.18209577170022262,0.0924758630366245,0.11731384798438295,-0.23058166391141102,0.07607884991538758,0.03724978646882626,-0.17915369627088507,0.19980901061242956,0.1495220319183191,-0.11932554628737008,-0.12077377959821559,0.12126884883289463,-0.3132292716537495,0.18165046439287824,0.048786378216968476,0.28585170043225694,0.12626651669904929,-0.0007147819759757274,0.04385410488271478,0.039042372389456986,0.14842238964032006,-0.051019647014282306,-0.051753195160078494,-0.1409552309520434,-0.12611179654336865,0.46429318966048083,0.15535044031613598,0.051898190810348355,0.24645025032187035,-0.014129027005456773,-0.09316391845439564,0.25783833707876846,0.05992711177390431,-0.10114744218460703,0.3231511066902056,-0.045596609565655505,-0.2582007279698442,0.06625421223645445,0.029590116365342888,0.17549849550275431,-0.02045547261218595,0.07147135603636702,0.035909560909890004,-0.05470782930064111,-0.21151386026061206,-0.2274496147334344,0.16896885145661814,-0.14954613374223502,-0.021988057254067956,0.19549761767509355,-0.2874283617157511,0.16446802689109122,-0.19917692700968317,-0.2570969351503076,-0.29035661879796193,-0.239480813169476,0.1353387748235633,-0.11954610503419336,-0.19170255031195133,-0.012506136684260103,0.0670343383036649,0.08304215671973106,-0.01610347006404546,0.1499483702180679,-0.031193385186407074,-0.18031083553777896,0.05332209411962943,0.0017702082544300527,0.10697564595978426,0.15577795404524142,-0.004596307866277295,-0.11410904468230962,-0.12183158986944304,0.24527113392247782,0.1625966290899974,-0.1956407061651545,0.2821687457461219,0.1775132402482026,-0.26422327230191084,-0.15613853588185128,-0.15080398564054617,0.02880366440137451,0.102540085965611,-0.010254764843619396,-0.16091949951845438,-0.26246490271318845,-0.024074550625781763,-0.06422722499979541,0.04100746644310571,0.006124715431021773,0.24383478240237835,-0.20814700180943013,-0.09483083769417779,-0.0053626229841741814,0.010321791471416934,-0.0712317648919318,0.1336617449393504,-0.11070574105952709,0.05824118175344876,-0.10634890889696097,0.23538086568687036,-0.10775074861090511,0.1592346267416143,0.15950979120148503,0.2854167257618345,0.11968183334000887,-0.00791519103044862,-0.11141994433284569,0.13986602392798136,0.26201866492098036,0.044840493607786955,0.0267773737043297,-0.18606164397780556,-0.12043689143890841,-0.11484853544674146,-0.16149685702101343,0.09994267440939042,0.15929729289929226,-0.13174361604386509,0.07826994695552426,-0.13977212769954522,-0.007039958082423289,0.3289364180653946,0.14149022465709948,-0.07843968422543994,-0.261737756383088,-0.03390781839221444,-0.13884866566138512,0.23226092242872745,-0.018498149589173618,-0.09942604790364412,-0.07754210584060237,-0.2889516490139367,0.016895307002736663,0.004344577396329544,0.0014094112053951975,-0.07007636787457222,0.0695391680088805,0.13060259108233857,-0.21199493015723087,-0.10138000314824447,-0.09523328810241989,0.01210871586290975,0.08450228546674557,0.027141761962516567,0.05805430329688027,-0.10726645388475275,0.18198374013491486
0.0,0.07910364987449102,-0.06440851675876715,-1.0,-1.0,1.0,-1.0,-0.1275643382641725,1.0,1.0,1.0,-0.027833597519008157,-0.28414626226081857,-1.0,1.0,-0.31210690301618654,1.0,0.10782672517473713,0.07311760882455962,0.17528196486309217,0.05094465392864588,1.0,-0.18676364372869061,0.2538945401091207,1.0,1.0,1.0,0.05468042510759615,-1.0,-1.0,-0.12234229918276093,-1.0,-0.003746106738422664,0.13872337767982487,0.15355389860872343,-0.17598559169084482,-1.0,1.0,0.0009880029956741351,-0.1734567094972917,-0.07679975167637879,-0.004572591525094377,-1.0,-1.0,-1.0,1.0,-0.11672535721449454,0.1352408098331073,1.0,0.26266418202663666,-1.0,1.0,-0.04364756951852772,1.0,-0.3771260137288073,-0.2656583632214525,-1.0,-1.0,0.10740562684972799,1.0,-0.12279501263870062,1.0,0.08593706071855443,1.0,0.17663235951960024,-1.0,-1.0,1.0,-1.0,-1.0,0.08086969608284501,-0.0832936698683273,-0.04671103847736282,0.0,-0.2455175325971426,-1.0,-1.0,1.0,-1.0,-0.07935704382071314,1.0,1.0,1.0,0.2477556756168489,-0.09948016972297165,-1.0,1.0,0.07998075444383816,1.0,0.3019858128299865,0.017915217855715197,-0.344128818337218,-0.3502288055445472,1.0,-0.0172337026260862,-0.036945664304674504,1.0,1.0,1.0,0.14386120777120565,-1.0,-1.0,-0.13395094127913817,-1.0,0.09566118936087203,-0.061433705657315756,-0.2058832856650539,-0.02200303876274843,-1.0,1.0,0.18371794407443173,-0.10318644356848375,-0.08203461721068418,0.2928571575818474,-1.0,-1.0,-1.0,1.0,-0.12374646377554314,0.166257369971442,1.0,0.0362931313874991,-1.0,1.0,0.19840683427263567,1.0,0.024044518400241625,-0.02233374978502274,-1.0,-1.0,0.031843869916184396,1.0,-0.1535005898691249,1.0,-0.053506281676499276,1.0,0.23110943497760272,-1.0,-1.0,1.0,-1.0,-1.0,-0.004505095212127533,-0.013976974391950234,0.05051039694959644,0.015837634561322523,0.0,-1.0,-1.0,1.0,-1.0,0.07548167108702596,1.0,1.0,1.0,0.28417639672321543,-0.11042329644923579,-1.0,1.0,0.019315058424726618,1.0,0.30143242609813486,-0.20761509736120787,-0.02229842263350764,-0.1258354530339918,1.0,-0.2011542733628533,0.1258270682367993,1.0,1.0,1.0,0.16646390640296133,-1.0,-1.0,0.07518830244027702,-1.0,-0.12925592227242813,0.05883962533508585,-0.1666444763450309,-0.06913830124739405,-1.0,1.0,-0.008457897468164971,0.13268484365013222,-0.21315411012110846,0.05061718240411887,-1.0,-1.0,-1.0,1.0,-0.02623864499571879,0.2917828132135852,1.0,0.14583655095507866,-1.0,1.0,0.21554616394800732,1.0,-0.34983108603219415,-0.18123944144671544,-1.0,-1.0,-0.17940761092096183,1.0,-0.2810811715989243,1.0,-0.32952489827458975,1.0,0.12283228501611172,-1.0,-1.0,1.0,-1.0,-1.0,0.0834011045939636,0.018346483170610335,1.0,1.0,1.0,0.0,-0.15199785280553485,0.019075189702820093,-0.2509785842261379,1.0,-0.16746128190451387,0.008682104231961809,-0.037206068382698264,-1.0,1.0,0.3792232846984424,-0.10527905018162494,1.0,-0.10014416262240029,1.0,-1.0,1.0,-1.0,0.002241911315168491,-1.0,1.0,-0.13703902124081582,-0.08174103137874077,-0.031122183483737145,1.0,-0.007350697671488403,-0.02132396533830694,-1.0,0.211134230807379,-1.0,1.0,1.0,-1.0,0.3230171769248129,-0.2850789007811339,1.0,-1.0,-1.0,1.0,1.0,0.16735822667176686,-0.16359022241512858,0.03447571890646613,-1.0,1.0,-0.26195770080090963,-1.0,0.11706700561727636,-0.1808135885813548,1.0,-0.056892757244849324,-1.0,-1.0,0.17564847602371897,0.1896241937859135,1.0,-0.19329855104189106,1.0,-0.11463381342713926,1.0,0.04806725711273289,1.0,0.11411758456487454,-0.16903319888854448,0.009358730642729721,0.16050506931983785,0.19456328206667084,-1.0,1.0,1.0,1.0,1.0,-0.12010847617554843,0.0,-0.23051667235945253,-0.4419941789595137,1.0,-0.06123271066012224,-0.007987770589353549,0.1112678267139719,-1.0,1.0,0.1513663504785736,0.20203102598800365,1.0,-0.1564259227267016,1.0,-1.0,1.0,-1.0,0.3614821315264423,-1.0,1.0,0.3394572111893429,-0.003455217954370546,0.12865741695560712,1.0,-0.06265392579301099,0.10454213044896597,-1.0,0.0510435942382036,-1.0,1.0,1.0,-1.0,-0.10301658277051526,-0.0482475608865939,1.0,-1.0,-1.0,1.0,1.0,-0.03657252604075291,-0.2567812568424963,-0.10833083426624779,-1.0,1.0,-0.14034859883822057,-1.0,0.24612975796175093,-0.07446714956122787,1.0,0.15025946768255694,-1.0,-1.0,-0.06562782720034951,0.2825643334080624,1.0,0.011435084881901317,1.0,-0.16701999856085317,1.0,0.005311846399026857,1.0,-0.015861167614156044,-0.05087462061333299,-0.09246561967245201,-0.09160828540424379,0.09791565814995927,-1.0,1.0,-1.0,-1.0,-1.0,-0.04285256470210413,0.20019196718124382,0.0,0.21676493456805002,-1.0,-0.13109694811836856,0.11852461512202392,-0.04944071609786631,1.0,-1.0,-0.16980311295252123,0.22087016722169261,-1.0,0.036233940323458384,-1.0,1.0,-1.0,1.0,0.3163780163177643,1.0,-1.0,0.06522017690220852,0.2146225565992221,0.059866847996482536,-1.0,0.09251525787664673,-0.1820945229603172,1.0,0.238368725723905,1.0,-1.0,-1.0,1.0,-0.20163919126907603,-0.03205661580286228,-1.0,1.0,1.0,-1.0,-1.0,0.06905518104350918,0.12657441649212414,-0.2965486752496717,1.0,-1.0,0.23762538278026973,1.0,-0.10455547107464867,0.03152720086066466,-1.0,-0.08750770828582882,1.0,1.0,0.0877631941326462,-0.23343372840533913,-1.0,0.023668630847658516,-1.0,0.21547721231051553,-1.0,0.0031557247123645653,-1.0,0.06514765337037368,0.06313175980293852,-0.23924399203485447,0.24750015696679456,-0.009737112279047102,1.0,-1.0,1.0,1.0,1.0,0.2137182072477144,0.41728123387748844,-0.2111643769477067,0.0,1.0,-0.3610203447528486,-0.4782173311338132,-0.3338153172141053,-1.0,1.0,0.47046633616189293,-0.2727947003116047,1.0,-0.3338449119768808,1.0,-1.0,1.0,-1.0,-0.5767296710140437,-1.0,1.0,-0.29577095844500956,-0.4144619532893083,-0.5101055734714697,1.0,0.4329387269362846,0.2971633648855034,-1.0,0.5378378403466796,-1.0,1.0,1.0,-1.0,0.20518684924337435,-0.4269615856424483,1.0,-1.0,-1.0,1.0,1.0,0.41583145390387805,0.36274306919452637,-0.22487178851167294,-1.0,1.0,-0.2846075455319874,-1.0,0.1794825721235587,-0.3747154768622114,1.0,-0.3422495004692559,-1.0,-1.0,0.4666738582687182,0.42823642982248455,1.0,-0.21932703323368447,1.0,-0.28466165819146944,1.0,-0.235480778334911,1.0,0.3438419123611579,0.20152816950873004,-0.31848476330361386,0.061458834115655246,0.47232651916511037,-1.0,1.0,-0.09248259129070252,0.1009389729036515,-0.08593820111369059,-1.0,-1.0,1.0,-1.0,0.0,1.0,1.0,1.0,0.2414844117292385,-0.3890856393099899,-1.0,1.0,-0.10675719291299776,1.0,0.07636803997776652,-0.11499235479674544,-0.039321676813361794,-0.24080090383307837,1.0,-0.382015152973995,-0.004265894775888261,1.0,1.0,1.0,0.2841105095939818,-1.0,-1.0,-0.23429445726776632,-1.0,-0.08802701328390737,-0.04700440042611508,-0.17508242577615826,-0.07263019005959093,-1.0,1.0,0.21167049161829368,-0.125058700507287,-0.25389876775989656,-0.017463140068542264,-1.0,-1.0,-1.0,1.0,-0.1331056110891788,0.5002016359753712,1.0,-0.12963783858333064,-1.0,1.0,0.38232323764785264,1.0,-0.08086837667572173,-0.18516354897796658,-1.0,-1.0,0.06570360605200237,1.0,-0.014722638111366626,1.0,-0.22953807723483263,1.0,0.04537853184486185,-1.0,-1.0,1.0,-1.0,-1.0,-0.09310487186910317,0.15827133950862832,-1.0,-1.0,-1.0,-0.08111013337401903,-0.09689618109741807,0.0270714983816382,0.6715348111748976,-1.0,0.0,-0.07869331045493475,0.14824396197608725,1.0,-1.0,-0.22593403871352244,0.1295162926321931,-1.0,0.10656101200575786,-1.0,1.0,-1.0,1.0,0.05116191501836613,1.0,-1.0,0.27356805525334277,-0.14420643290506832,0.02638962082173344,-1.0,0.3130212554496271,0.037009177940441874,1.0,-0.0419475312737448,1.0,-1.0,-1.0,1.0,0.0836924417915162,-0.11335135250658161,-1.0,1.0,1.0,-1.0,-1.0,-0.18983628536984767,-0.053626474832608614,-0.051713050758318904,1.0,-1.0,0.0745257789382646,1.0,-0.1039879143671822,0.025682381737203705,-1.0,0.11604105234107753,1.0,1.0,-0.08941309075311779,0.01922853061605074,-1.0,-0.06228587573690938,-1.0,-0.018337613578544444,-1.0,-0.051872712906317404,-1.0,0.12286911388159903,-0.07868732851456461,-0.014220808734516562,0.10530583849075573,0.10007271186666704,1.0,-1.0,-1.0,-1.0,-1.0,0.2644912464198292,-0.14841027743079488,0.00872624786432036,0.40256652157493084,-1.0,-0.07548151009440515,0.0,0.018263382312194286,1.0,-1.0,0.10018093684138414,-0.15701398867711444,-1.0,0.23535645471332828,-1.0,1.0,-1.0,1.0,-0.14689521435703884,1.0,-1.0,-0.1159442125515022,0.2149470479948915,-0.24340687212904338,-1.0,0.11073109130829763,-0.061083197619206976,1.0,-0.12318347879189374,1.0,-1.0,-1.0,1.0,-0.05834030964429317,0.12911394760254197,-1.0,1.0,1.0,-1.0,-1.0,-0.11495731245136263,0.13267370523960986,-0.5091838500125894,1.0,-1.0,0.03183399357849512,1.0,-0.018742102388519005,-0.09632536897507933,-1.0,0.009995335726251291,1.0,1.0,0.1958432289729853,-0.15675477024965986,-1.0,0.03385740421196182,-1.0,0.11493067616694594,-1.0,-0.05222169074773883,-1.0,0.056770742921522475,0.18493380329395304,-0.02584586232859859,-0.13200195136625215,0.20104360040723346,1.0,-1.0,-1.0,-1.0,-1.0,-0.054936928158790616,-0.05644309888897063,0.11257597709255891,0.36169370195002876,-1.0,-0.0054514434132791525,0.23527371628757082,0.0,1.0,-1.0,-0.3037191630652448,0.150316195074845,-1.0,0.16271781123875617,-1.0,1.0,-1.0,1.0,-0.05978167191451139,1.0,-1.0,-0.06846705592965158,0.1299145373999944,0.031007684772428476,-1.0,0.021626271429376197,-0.2004658353854145,1.0,-0.1045327014472778,1.0,-1.0,-1.0,1.0,-0.08816525508203027,-0.0005195800570827417,-1.0,1.0,1.0,-1.0,-1.0,-0.11163271953837528,0.09952710940919088,0.08748455970896436,1.0,-1.0,0.016192690779089962,1.0,-0.08827298511321933,0.022547933416663134,-1.0,0.0453428557469306,1.0,1.0,0.06020075286016851,0.006973693631738977,-1.0,0.11643655758285915,-1.0,-0.03463520695507359,-1.0,-0.06903243225082945,-1.0,-0.1975692299374272,-0.07346531202799922,-0.3045646405306837,0.1314651032539762,-0.09179334418122925,1.0,-1.0,-0.15882186236591306,-0.10403863646651594,0.05613102009099857,1.0,1.0,-1.0,1.0,-0.030104366052283768,-1.0,-1.0,-1.0,0.0,-0.2017126346097124,1.0,-1.0,-0.01100925029822369,-1.0,-0.039872099410522145,0.08802607973192365,-0.06633880757882474,0.060276661049278556,-1.0,0.17037376371145557,0.3366860326621847,-1.0,-1.0,-1.0,-0.28799652757732835,1.0,1.0,0.03410519433505447,1.0,-0.024950668891043887,-0.07988421301721031,0.0965716159589098,0.05221915455960608,1.0,-1.0,0.13254933926042878,-0.10682529122022817,0.2074666366038938,-0.08338806147125354,0.9976429773960448,1.0,1.0,-1.0,-0.08380680919499589,-0.07639082900912293,-1.0,0.09909726845537016,1.0,-1.0,-0.3649002251161635,-1.0,0.24367099509629764,-0.24151510915023888,1.0,1.0,-0.14320362175577928,-1.0,0.14006736534016329,-1.0,0.269370442673474,-1.0,-0.18723054356748103,1.0,1.0,-1.0,1.0,1.0,0.2574484022264139,-0.06515616351664469,-0.011372704162259103,0.06834681105266714,0.12229951618824435,-1.0,-1.0,1.0,-1.0,0.020717549525282507,1.0,1.0,1.0,0.11101633043711531,0.0,-1.0,1.0,0.16197969981053612,1.0,-0.185486354983106,0.010576889928178833,0.1099386636081882,-0.04548876483428771,1.0,0.09703220309681121,-0.1309030156213594,1.0,1.0,1.0,0.11777867988960242,-1.0,-1.0,-0.2957724849936529,-1.0,-0.23732989733553406,0.16709380337520047,-0.03978125268283704,0.10746095534729785,-1.0,1.0,0.19165552479351522,-0.03185361253153909,-0.3266980607946649,-0.017366454248070456,-1.0,-1.0,-1.0,1.0,-0.3611010205414409,-0.2074187906124038,1.0,0.06682229197320895,-1.0,1.0,0.043409472682372524,1.0,-0.26313178078299576,0.0580280636713769,-1.0,-1.0,0.23860422728554215,1.0,0.13798733618013673,1.0,-0.34475087442969626,1.0,0.3328862933533071,-1.0,-1.0,1.0,-1.0,-1.0,-0.12957322051977607,-0.016974332616351114,1.0,1.0,1.0,-0.009025759235714954,-0.13905444802851524,0.08273869665542587,-0.3535324317475582,1.0,0.3785343852817289,-0.06878188186200294,0.11318699805178696,-1.0,1.0,0.0,0.3902144092274123,1.0,0.06799679154570858,1.0,-1.0,1.0,-1.0,0.20735647276707606,-1.0,1.0,-0.0903432077378687,-0.21249382780800402,0.20083947912636707,1.0,-0.09370410789732916,-0.06426999824771774,-1.0,-0.31235572519694554,-1.0,1.0,1.0,-1.0,-0.007619240401490871,-0.07738779504646905,1.0,-1.0,-1.0,1.0,1.0,0.021783973605459264,-0.028641200004490476,-0.024862832534934945,-1.0,1.0,-0.1843823507941615,-1.0,-0.1955044041021338,-0.09798724717475368,1.0,0.1566622682889478,-1.0,-1.0,-0.02365402038465944,-0.4294517788410441,1.0,-0.0002011963043340812,1.0,0.10094785610788,1.0,-0.01019541433899865,1.0,-0.1608257067592852,-0.05414656201393687,0.176595878262233,0.06354997213889614,0.049804605837271074,-1.0,1.0,-1.0,-1.0,-1.0,0.17015677365890444,0.08338501068875605,-0.21171114461753202,0.46401322264467165,-1.0,0.22796883615999142,0.12294151244355812,0.025463434644893104,1.0,-1.0,-0.3223768345555053,0.0,-1.0,-0.2321101998538171,-1.0,1.0,-1.0,1.0,-0.04155850506533913,1.0,-1.0,-0.013026230510148135,0.03937025570245427,0.0013255726540244723,-1.0,-0.017336746019991044,0.07985096064614852,1.0,0.005192580168110457,1.0,-1.0,-1.0,1.0,-0.16697454230533568,-0.006104181850084869,-1.0,1.0,1.0,-1.0,-1.0,0.051685626970090874,0.19144473008058932,0.2496936454943306,1.0,-1.0,-0.14610183327097365,1.0,0.21911034168024032,0.07283560855159579,-1.0,-0.056337940967637994,1.0,1.0,0.12282367874271323,-0.2715251901529539,-1.0,0.0883338634402419,-1.0,0.13924762241006602,-1.0,-0.1463293682157504,-1.0,-0.057251914858826615,0.08850514254845117,0.005549434924215403,0.07761436058456511,0.005929205304113323,1.0,-1.0,0.21956338761431454,-0.059082763656852194,0.04372421912490271,-1.0,-1.0,1.0,-1.0,0.07628216824443453,1.0,1.0,1.0,-0.1635073161010162,0.06357233624290727,-1.0,1.0,0.0,1.0,-0.05404529863045032,-0.10225129350067118,0.03166919651710107,0.04545909655140773,1.0,-0.3485987215165399,-0.08255747440764423,1.0,1.0,1.0,0.06304054122606875,-1.0,-1.0,-0.29667119438701905,-1.0,0.04412270426461844,-0.027883907722570635,-0.08304743376169119,0.1014062985828109,-1.0,1.0,0.2277495062178721,-0.013517146845200436,-0.3333968835368087,0.09156131387084787,-1.0,-1.0,-1.0,1.0,-0.05371853822151378,0.30017717101302815,1.0,-0.27011617298645363,-1.0,1.0,0.12630427543114595,1.0,0.12589186606424418,-0.04926898403333358,-1.0,-1.0,0.021586024595389358,1.0,-0.30919646390567185,1.0,-0.1886780306185287,1.0,-0.056704188144391605,-1.0,-1.0,1.0,-1.0,-1.0,-0.018945324818624133,-0.04985227802898274,-1.0,-1.0,-1.0,0.02865375863167454,0.04716936341646844,-0.06652967086131135,0.5382670745785798,-1.0,-0.22377888120895767,-0.2386924375390213,-0.1430659997809636,1.0,-1.0,-0.1906569221083898,-0.04000133310326139,-1.0,0.0,-1.0,1.0,-1.0,1.0,0.037863431235098215,1.0,-1.0,0.16324730342303384,-0.0501790337916029,-0.11494424985758273,-1.0,-0.01770568023915456,0.09314235923768598,1.0,0.17670993297498813,1.0,-1.0,-1.0,1.0,-0.21154686429158087,-0.020971535488785636,-1.0,1.0,1.0,-1.0,-1.0,-0.06237182613940794,-0.10956902898262978,-0.015495784658022389,1.0,-1.0,-0.33727714812044335,1.0,0.07329529606807651,-0.04646584686978818,-1.0,-0.4366538280214082,1.0,1.0,0.014704680103188721,0.08470865399773357,-1.0,0.1158605864851129,-1.0,0.06191426791384532,-1.0,-0.3574596621650829,-1.0,0.1943182511424533,-0.07193733277054808,-0.3763815197659176,0.06412987281662809,-0.09424936013342725,1.0,-1.0,-0.23816412772601753,-0.23549211817831658,0.10054434197932678,-1.0,-1.0,1.0,-1.0,0.12333730957445095,1.0,1.0,1.0,0.18870463758005482,-0.1602572296331408,-1.0,1.0,0.023565864854550277,1.0,0.0,-0.1511669353802946,-0.19817919467483885,0.011133195087497261,1.0,0.023800704438331897,-0.03550197384464705,1.0,1.0,1.0,0.33909442005862556,-1.0,-1.0,0.07119836013760704,-1.0,0.07104449289719406,-0.10465053757326288,-0.17195128683349292,-0.0984215135449496,-1.0,1.0,0.09517871563740557,0.027547202080413516,-0.029773440833434153,-0.1500091305606924,-1.0,-1.0,-1.0,1.0,-0.0830566138122553,-0.00843269413843993,1.0,-0.023388997926691697,-1.0,1.0,0.30393228301568487,1.0,-0.07281156367122085,0.1035829658312139,-1.0,-1.0,0.10654791088285875,1.0,0.05651479396168849,1.0,-0.1320990122686087,1.0,-0.12160641801764005,-1.0,-1.0,1.0,-1.0,-1.0,-0.08179625475080403,-0.052313801871652264,-0.04291247276003877,-0.04443270601426613,0.14880787881114485,1.0,1.0,-1.0,1.0,0.4632851246506753,-1.0,-1.0,-1.0,-0.24746751241958526,-0.0018153335241656889,1.0,-1.0,0.18672859875686695,-1.0,0.21182325478068895,0.0,-0.08401186907796657,0.10898273882076152,-1.0,0.26490199123004154,-0.0008367976399247367,-1.0,-1.0,-1.0,-0.09462206251147022,1.0,1.0,-0.1311350565796976,1.0,0.10065523145944809,-0.38622564038598967,0.03174908459258519,-0.16373846868537845,1.0,-1.0,0.28228875984647156,0.07803930871578793,-0.20747494903169988,0.22890571953195268,0.9976429773960448,1.0,1.0,-1.0,0.04618993605564973,-0.1422310878756155,-1.0,0.03287139905209602,1.0,-1.0,-0.07832632412007964,-1.0,-0.34599711405827754,0.010110216965801127,1.0,1.0,0.3059189514396399,-1.0,-0.29516833335311315,-1.0,0.2815027347908649,-1.0,0.07890100944136666,1.0,1.0,-1.0,1.0,1.0,0.0011456265635646223,0.11672192379016469,-0.20557949029857675,0.11346021307527074,0.1894445365343281,-1.0,-1.0,1.0,-1.0,-0.23091179597610922,1.0,1.0,1.0,-0.08960628375009748,-0.08215148297531996,-1.0,1.0,-0.09536608771622469,1.0,-0.020344257758373008,-0.0034041085680491957,0.0,-0.17609642827812388,1.0,-0.05810737483140356,0.07223133320361325,1.0,1.0,1.0,0.1676172865417989,-1.0,-1.0,-0.21679418919339496,-1.0,-0.1803870128345135,0.02289001066162713,-0.04840703681662291,0.2950592455289917,-1.0,1.0,-0.01999063662848534,0.25016575458579465,-0.4021310397827813,0.08209582169744108,-1.0,-1.0,-1.0,1.0,-0.17878683178503244,0.09194549655060494,1.0,-0.31688585920186774,-1.0,1.0,-0.15656992566473144,1.0,-0.11414258717435738,-0.03754955763783811,-1.0,-1.0,0.016394456640524323,1.0,-0.2877339909975954,1.0,-0.2972372959738315,1.0,-0.026502777082901663,-1.0,-1.0,1.0,-1.0,-1.0,-0.13971505131009684,-0.10588279949969041,-0.06500982613419581,0.25769096546060133,0.11060054594124984,1.0,1.0,-1.0,1.0,0.15997272599025977,-1.0,-1.0,-1.0,0.025103479798512088,0.22061208981403443,1.0,-1.0,0.17930126260731882,-1.0,-0.04821206489776755,0.06596610903172735,0.12163018285075418,0.0,-1.0,-0.03125930176452023,-0.03357187903233335,-1.0,-1.0,-1.0,-0.02704320051041536,1.0,1.0,0.04753363144022353,1.0,-0.08535336810003788,0.2179036789470162,0.14257357817699406,0.23954589279515792,1.0,-1.0,0.05465044914168077,-0.15629595456572826,-0.32865172928736314,0.029789494329913513,0.9976429773960448,1.0,1.0,-1.0,0.145605616317614,-0.3110754609265242,-1.0,-0.11318024679939105,1.0,-1.0,0.3149786091018468,-1.0,-0.1787050955599429,-0.07931626871241437,1.0,1.0,0.14034298012495855,-1.0,-0.3266511840695137,-1.0,0.06919770428745886,-1.0,-0.07941163265504372,1.0,1.0,-1.0,1.0,1.0,-0.06038327767038534,-0.08354304632230936,-1.0,-1.0,-1.0,-0.014619801390919623,-0.21057824522517193,-0.3091933327707936,0.3998823317413966,-1.0,-0.1016677191054441,-0.1750738631370903,-0.019201185121259408,1.0,-1.0,-0.16342234357664417,0.08654304962334297,-1.0,0.2622344397111653,-1.0,1.0,-1.0,1.0,0.0,1.0,-1.0,0.13098409964802243,0.1446346701993618,0.09022357826095695,-1.0,0.1729494825803698,-0.08408643938773844,1.0,0.06190114865850294,1.0,-1.0,-1.0,1.0,0.10010261582436833,0.1406284079749249,-1.0,1.0,1.0,-1.0,-1.0,-0.02407406481783264,0.23706124794268552,-0.017595654398266207,1.0,-1.0,0.3424015617154836,1.0,0.028778452908876852,-0.05073846708737074,-1.0,0.10635721241534782,1.0,1.0,0.159633860801698,0.08278074241427687,-1.0,0.16629078155401356,-1.0,0.14490336114481686,-1.0,-0.18401320133936924,-1.0,0.3161543137675492,-0.13966485483131735,-0.087304397803543,-0.11677070276386879,0.12115570599297745,1.0,-1.0,0.2568824952479092,0.14439782008562865,-0.05946674310407617,1.0,1.0,-1.0,1.0,0.2773524917761601,-1.0,-1.0,-1.0,-0.1799201184934323,0.10308886229263646,1.0,-1.0,0.06493901735447495,-1.0,0.006501969213079436,0.019122265004953405,-0.028531763137771733,0.21848487782472664,-1.0,0.0,-0.01870486556784512,-1.0,-1.0,-1.0,-0.006768380556678732,1.0,1.0,0.0027424474126913484,1.0,-0.12822595916083104,0.1291345242517005,0.20052941378464845,0.2775271770309425,1.0,-1.0,-0.05893147729052635,-0.1671641749697208,0.06598092037886928,0.02750398438407508,0.9976429773960448,1.0,1.0,-1.0,0.22949378119418848,-0.25103991884227206,-1.0,-0.09476769599701297,1.0,-1.0,0.08970831163330033,-1.0,0.00305765406221066,0.047440048539546566,1.0,1.0,0.05463259590291458,-1.0,0.06096674956830906,-1.0,0.035562775854134615,-1.0,-0.11397775209648495,1.0,1.0,-1.0,1.0,1.0,0.15858933681647222,-0.03430660486808167,-0.21410770905893217,0.0845624125707437,0.026929800379328683,-1.0,-1.0,1.0,-1.0,-0.18820913331140146,1.0,1.0,1.0,-0.02817998063574901,0.025330647417724436,-1.0,1.0,-0.2152243718515732,1.0,0.03833216016625252,0.028397676158458077,-0.013778888886509773,-0.21491655777763488,1.0,0.07171185343940728,0.0,1.0,1.0,1.0,-0.0028913080688600136,-1.0,-1.0,-0.15593295543439864,-1.0,0.05170721391893147,-0.16729440044736796,-0.029314369360194804,0.10601233974217915,-1.0,1.0,-0.12571928152581516,0.21398773086890302,0.21901630119690543,0.1059946592280868,-1.0,-1.0,-1.0,1.0,-0.04237852379057594,0.00837249134150783,1.0,-0.0730390441707836,-1.0,1.0,0.26876192949182287,1.0,-0.08821581795780345,0.274998488822779,-1.0,-1.0,0.04318000958918591,1.0,-0.0959086245509825,1.0,-0.022770130767917597,1.0,-0.0874500808265793,-1.0,-1.0,1.0,-1.0,-1.0,0.24759698841766703,-0.12428033662514884,-1.0,-1.0,-1.0,0.24830455783269506,-0.13444654298182054,0.01935756290921163,0.2202409423410271,-1.0,-0.1195530934073047,0.19287804273268414,0.1305826396260465,1.0,-1.0,0.13320701808017377,-0.06971605406828583,-1.0,-0.02937425394638394,-1.0,1.0,-1.0,1.0,-0.1448829888283997,1.0,-1.0,0.0,0.05743837209154939,0.10734179168701177,-1.0,0.09994478476652625,0.15205051834325742,1.0,0.09254656054031199,1.0,-1.0,-1.0,1.0,-0.2719461553613658,-0.15001935484840276,-1.0,1.0,1.0,-1.0,-1.0,0.061932948679170964,-0.02980401592189247,0.1360792979982048,1.0,-1.0,-0.09582163071612564,1.0,0.19670356975409983,-0.14664387537710846,-1.0,-0.09933137427390216,1.0,1.0,-0.10892642300271434,-0.050912076500397176,-1.0,-0.23726214845975585,-1.0,0.07698832695280826,-1.0,-0.060837881113443015,-1.0,-0.08577426247117514,0.17469659865547213,-0.13275943894287484,-0.020077748439289,-0.18598764023061962,1.0,-1.0,-1.0,-1.0,-1.0,0.1709902168359844,-0.09428078227011495,-0.08020062511224443,0.3977787571426021,-1.0,-0.08820175144932174,-0.06283843627820654,-0.034639369823592614,1.0,-1.0,-0.19336824336153086,0.06645498750567286,-1.0,0.011860050313019309,-1.0,1.0,-1.0,1.0,-0.1312152113027752,1.0,-1.0,0.034842194369081994,0.0,0.052782026620669255,-1.0,0.061877405193170525,-0.10378267822029623,1.0,0.13035412435272073,1.0,-1.0,-1.0,1.0,-0.06823840685895934,0.04957363356314437,-1.0,1.0,1.0,-1.0,-1.0,-0.059295136084724615,0.05505835718128183,0.28025256298235374,1.0,-1.0,0.03245002371486516,1.0,-0.11746437939412806,-0.13369367222011733,-1.0,-0.19729250202356113,1.0,1.0,0.22762338072795266,0.2564186493950535,-1.0,0.02776835704202002,-1.0,-0.10569773722613991,-1.0,-0.033488130744313165,-1.0,-0.059264912675061926,-0.019150558654084764,-0.1897116468163675,0.1221532901438174,0.012101184107969298,1.0,-1.0,-1.0,-1.0,-1.0,-0.046472724028404376,-0.006283835957298818,-0.06159874016771675,0.34008226766788446,-1.0,0.11962795484965384,0.23917221785268425,-0.37132845977794937,1.0,-1.0,-0.19835469444089227,0.0059321642732926266,-1.0,0.15497280551952192,-1.0,1.0,-1.0,1.0,-0.4463871243081419,1.0,-1.0,-0.23103848321459913,0.05933844553730101,0.0,-1.0,0.07041021695641653,0.1588354475243531,1.0,-0.08271872162292632,1.0,-1.0,-1.0,1.0,0.11593926800466048,0.0946858635494333,-1.0,1.0,1.0,-1.0,-1.0,0.11199542281054561,0.19647884460945014,-0.0428408454416858,1.0,-1.0,0.006253223269211457,1.0,-0.23430624766425814,-0.06134904984371602,-1.0,-0.16177208277371646,1.0,1.0,-0.26223328051174954,-0.11877632682661109,-1.0,0.41381633602974155,-1.0,0.020843794041017008,-1.0,0.16010476204399987,-1.0,-0.049940943320714276,0.16742664169544796,-0.21738664562426194,0.05392189353107639,-0.04099506994976274,1.0,-1.0,-0.05715408107438095,-0.12109330797856194,-0.25118204899441815,-1.0,-1.0,1.0,-1.0,-0.13840655141130234,1.0,1.0,1.0,-0.0039070326637302265,-0.14302337228681897,-1.0,1.0,0.08442703663850704,1.0,-0.029909290460649746,0.17268540453147088,-0.3024819920491385,-0.03529517342760959,1.0,0.05536655066459202,-0.10449832770709197,1.0,1.0,1.0,0.0,-1.0,-1.0,0.16226750645756116,-1.0,0.07632193757745966,0.18322280412406738,-0.1155498519122452,-0.1554605492493904,-1.0,1.0,-0.06690220680472256,0.09444253896517973,0.07157029952829652,-0.09647625208413593,-1.0,-1.0,-1.0,1.0,-0.1922749303666057,0.047330915982008705,1.0,0.21042856156699372,-1.0,1.0,0.10897867301810484,1.0,0.03727287174622199,0.04331825907255815,-1.0,-1.0,0.023286771014924816,1.0,-0.11159426854229298,1.0,-0.09948808428015206,1.0,-0.0021459411612170243,-1.0,-1.0,1.0,-1.0,-1.0,-0.12787636495315546,0.0051634804540957435,1.0,1.0,1.0,-0.06878452736881409,-0.2671615869448371,-0.13035783397242448,-0.3477154447827378,1.0,-0.22276662170033149,0.017098620258790262,0.13077153305708697,-1.0,1.0,0.31704241137971423,-0.017720088183760717,1.0,-0.08206716918423972,1.0,-1.0,1.0,-1.0,0.11672302136200449,-1.0,1.0,0.16031314698946098,-0.25961342003258864,-0.10657824930138232,1.0,0.0,0.01376048241089191,-1.0,0.030571854747795252,-1.0,1.0,1.0,-1.0,-0.05013658474383996,-0.12738320974376025,1.0,-1.0,-1.0,1.0,1.0,-0.018840416856007035,-0.16972463178679356,0.08325717708526295,-1.0,1.0,-0.22060557939656084,-1.0,0.029729804763262778,-0.0981779665959674,1.0,-0.1520626090444141,-1.0,-1.0,0.040122177693696276,0.019338396229294064,1.0,-0.2235810009634549,1.0,-0.13042773539386898,1.0,-0.15842654803900205,1.0,-0.010532162561637014,0.05595485320019033,0.31682630175709636,0.005112812227770059,0.09241441567702526,-1.0,1.0,1.0,1.0,1.0,-0.18293754371314397,-0.26706375565381424,0.08523212371189663,-0.27143744951191257,1.0,-0.04836714103978655,-0.007200433540992174,-0.1549898778981851,-1.0,1.0,-0.058384418276403144,-0.07137175617340297,1.0,-0.26530733421322306,1.0,-1.0,1.0,-1.0,0.23624020753562858,-1.0,1.0,0.02358942499289244,0.17378482899335224,0.10773713326257961,1.0,-0.16560907513618292,0.0,-1.0,0.15939093170915802,-1.0,1.0,1.0,-1.0,-0.30354946718873316,0.34669065269154337,1.0,-1.0,-1.0,1.0,1.0,-0.04371962114546181,-0.07755267202253498,0.045750342896128206,-1.0,1.0,-0.38622912909627777,-1.0,-0.33493218141013,0.12847630997369175,1.0,0.26130478273487123,-1.0,-1.0,-0.19141299533184197,-0.2086896903095874,1.0,-0.07097464873094855,1.0,-0.02543356200615869,1.0,-0.05554167144925209,1.0,0.21932321285300016,-0.09171333278606199,0.09760808847545638,-0.20895777662895296,0.1955153296979023,-1.0,1.0,0.2819674416692501,0.2385399785792845,0.06970068151992047,1.0,1.0,-1.0,1.0,0.16912526232095146,-1.0,-1.0,-1.0,-0.17794837721048698,0.040652732584934695,1.0,-1.0,0.0020206101660195097,-1.0,0.006930426219532191,-0.1716272052859938,0.24903390969449152,-0.20734764284210155,-1.0,-0.0401056579988567,-0.0031760953079640712,-1.0,-1.0,-1.0,-0.09773023685814833,1.0,1.0,0.0,1.0,-0.2404482077443609,0.199971754497574,0.016465833570715543,0.18761321295508718,1.0,-1.0,0.029958220712239934,-0.28040991791242187,-0.15363557229797561,0.3341145819824561,0.9976429773960448,1.0,1.0,-1.0,0.14790523290199753,-0.13502431206725,-1.0,-0.05980071493638565,1.0,-1.0,0.0644222113018699,-1.0,-0.04661702432223458,-0.19285270748275346,1.0,1.0,0.14765004750037966,-1.0,0.18248375657326804,-1.0,0.08577983659300879,-1.0,0.01477409554597998,1.0,1.0,-1.0,1.0,1.0,0.08855426031169675,0.2609253550474167,1.0,1.0,1.0,-0.30482949706584944,0.007220992742906988,-0.16278886535604215,-0.4055505693988273,1.0,-0.03280764365368717,0.1554144324266499,0.08281036868027442,-1.0,1.0,0.05191032349747047,0.16390842480763562,1.0,-0.2807291133886342,1.0,-1.0,1.0,-1.0,0.026074769876520243,-1.0,1.0,0.07980572753864147,0.021361456600404984,0.21691907945201455,1.0,-0.06056855576754825,0.16572941004882027,-1.0,0.0,-1.0,1.0,1.0,-1.0,-0.017310777914596336,-0.2611906189223164,1.0,-1.0,-1.0,1.0,1.0,-0.13568300267677139,-0.2662022380361017,0.06249783803811272,-1.0,1.0,-0.11183809692163689,-1.0,0.1727979535923537,0.04927476915805508,1.0,0.3346979605027879,-1.0,-1.0,0.21438553795550364,0.1328480701222603,1.0,-0.12838402109897065,1.0,-0.09333572495070917,1.0,0.1425728377115233,1.0,-0.34840151949152276,-0.28151603207432024,0.39959343530037916,-0.07573134482664945,0.10392033937249083,-1.0,1.0,0.26077111919340085,0.024648919590354736,0.06487828329628569,1.0,1.0,-1.0,1.0,-0.14785595769599338,-1.0,-1.0,-1.0,-0.0659374650307846,0.1174488631398734,1.0,-1.0,0.05210191212619727,-1.0,-0.2250645492733018,0.01765235837183298,0.20251417955439344,0.08009268682935822,-1.0,0.12522203180098837,0.07065398585307922,-1.0,-1.0,-1.0,0.009297973971620967,1.0,1.0,0.034724429388730486,1.0,0.0,-0.09323160606365116,-0.010667344285727168,-0.2604193941337655,1.0,-1.0,0.10175162105901214,-0.08954638168941133,-0.08340485973053677,0.08641935046475249,0.9976429773960448,1.0,1.0,-1.0,0.17618435526128334,-0.16233188077743774,-1.0,0.2074557574294349,1.0,-1.0,-0.14588492017090668,-1.0,-0.052880080192903196,-0.17832716607658425,1.0,1.0,-0.06933150473855733,-1.0,-0.014366132152435774,-1.0,0.21897869323705274,-1.0,-0.197030844809664,1.0,1.0,-1.0,1.0,1.0,0.18247826772880382,0.11883406253147795,-0.10150026132469524,-0.07404925670126063,-0.026027807665599277,-1.0,-1.0,1.0,-1.0,-0.06908765380116721,1.0,1.0,1.0,0.05864746899622136,-0.26191774822965247,-1.0,1.0,0.12510512394992193,1.0,-0.07381805588459023,0.04514558960261776,-0.0007960170724851997,-0.06968531221250815,1.0,-0.054549866740870714,-0.018558491119248496,1.0,1.0,1.0,0.018499139924968176,-1.0,-1.0,-0.07886484230820076,-1.0,0.10012985902846966,0.0,-0.03822810762461386,-0.008353772922221383,-1.0,1.0,0.038318763636642765,0.089547434163464,-0.025972298369197552,-0.07502912427216098,-1.0,-1.0,-1.0,1.0,-0.04886626407057338,0.10826195206088382,1.0,0.18400539484031284,-1.0,1.0,0.01734249948077709,1.0,-0.053222810871453155,0.17837355304098784,-1.0,-1.0,-0.048225739486483434,1.0,-0.05269612231869136,1.0,-0.018917762822606356,1.0,-0.05174630728691867,-1.0,-1.0,1.0,-1.0,-1.0,0.09108592480403004,-0.1728743626475871,-0.2812492532696538,0.33898624085694784,0.0625974692982208,-1.0,-1.0,1.0,-1.0,0.14286339832703066,1.0,1.0,1.0,0.05468787719653172,-0.065989402881521,-1.0,1.0,-0.05170211524232063,1.0,-0.16035570999657675,-0.08977818228284705,0.07864011422987127,-0.25433469386068164,1.0,-0.1507319238056819,0.2000638406144617,1.0,1.0,1.0,0.027918120649834822,-1.0,-1.0,-0.37999118882429966,-1.0,-0.10630936592662853,0.11440167688882114,0.0,0.2349097408155666,-1.0,1.0,-0.13276305345669526,-0.2546881699591091,0.09631763040438403,-0.1786808011017182,-1.0,-1.0,-1.0,1.0,-0.040081531860900924,0.170789155188232,1.0,-0.12964967693010995,-1.0,1.0,0.1859196712036159,1.0,0.19101692899562744,0.15720791550344565,-1.0,-1.0,-0.09444342734130544,1.0,0.10503960782492526,1.0,-0.14662447988420427,1.0,0.17223113820379063,-1.0,-1.0,1.0,-1.0,-1.0,-0.17376744040518302,-0.07177298887636195,-0.10506239877729547,-0.03323919484693307,-0.002956535148576831,1.0,1.0,-1.0,1.0,0.13425140249478676,-1.0,-1.0,-1.0,0.006229469622751636,0.20285382829297846,1.0,-1.0,0.06210005098120681,-1.0,0.18199864274894054,-0.0381709389981352,-0.08651284524671897,0.004695034162499922,-1.0,-0.22269647788214447,0.3020915967552363,-1.0,-1.0,-1.0,0.08209645889021902,1.0,1.0,-0.11130539421416955,1.0,0.023597740863877746,-0.06874310765090239,-0.1830254235252627,0.0,1.0,-1.0,0.25176374175548344,0.0076741360982124154,-0.03756016490489816,0.13372692576792647,0.9976429773960448,1.0,1.0,-1.0,0.144825311817373,0.11825364546875049,-1.0,-0.005003678092316737,1.0,-1.0,-0.13907559638857975,-1.0,0.2505632872413298,0.044739813517175764,1.0,1.0,0.08253209834175647,-1.0,-0.07604984648678,-1.0,0.18242232415223406,-1.0,-0.16383096780767512,1.0,1.0,-1.0,1.0,1.0,-0.06958946590824241,0.042865604445534285,1.0,1.0,1.0,-0.12683467841020948,-0.27796973213726367,-0.0339354069316382,-0.12264627325627915,1.0,-0.06050066091580373,-0.009637993280415638,0.12632284979050892,-1.0,1.0,0.035694312493325574,0.009108701830315763,1.0,-0.014099832877196282,1.0,-1.0,1.0,-1.0,-0.049777808364698486,-1.0,1.0,-0.00043017145507665173,0.19866944716067236,0.06744919880682852,1.0,-0.19537134485479665,-0.08820170836918598,-1.0,0.09734357731658357,-1.0,1.0,1.0,-1.0,0.0,-0.04242902186007669,1.0,-1.0,-1.0,1.0,1.0,0.1781107910894968,0.002650401901021251,0.0014063750754732957,-1.0,1.0,-0.12860747397143946,-1.0,0.2246055702584647,0.004712070029653364,1.0,0.05194879545134661,-1.0,-1.0,0.06956471555145924,0.16784463062704075,1.0,-0.04641693267326909,1.0,-0.04770100194563506,1.0,-0.07385283870400432,1.0,0.052672406889415345,-0.281747244447525,0.22255673335541074,-0.08351732886017736,0.1355185921506413,-1.0,1.0,-1.0,-1.0,-1.0,0.07634662003529029,0.22253333306306983,-0.004577843540140564,0.4107875020623191,-1.0,0.3584772001107687,-0.020890086500941957,-0.1264030616375894,1.0,-1.0,0.04514850708303904,0.04568608848481645,-1.0,-0.0012925538542545596,-1.0,1.0,-1.0,1.0,0.012748518975861291,1.0,-1.0,-0.056364252769643415,-0.08561015272812068,0.1469332738183957,-1.0,0.09270901618028446,-0.25200134846788547,1.0,0.24596087990350174,1.0,-1.0,-1.0,1.0,0.14041504280302095,0.0,-1.0,1.0,1.0,-1.0,-1.0,-0.23094952553569736,-0.039264093196079486,-0.1440332401891472,1.0,-1.0,-0.06323668919608509,1.0,-0.09715091596382798,-0.08128537735078095,-1.0,-0.13604055107134844,1.0,1.0,0.11091918998121646,-0.06918448879904736,-1.0,-0.08704528365658477,-1.0,0.04998783358863763,-1.0,-0.2975227703096453,-1.0,0.03965380022696837,0.020385013019273472,-0.09361518261954536,0.15457950208767957,0.156277063794694,1.0,-1.0,-0.08108005539075441,-0.16975241937144356,-0.005759727566955124,-1.0,-1.0,1.0,-1.0,-0.1618185998853386,1.0,1.0,1.0,-0.05510360462412359,-0.25667489325314874,-1.0,1.0,-0.17870549600008676,1.0,0.07460841633871054,0.041289868068633474,-0.12072174891584517,0.11446392914312135,1.0,0.12709831886946055,0.06148936355364241,1.0,1.0,1.0,0.12600629120142526,-1.0,-1.0,0.03605940565600528,-1.0,0.18675981145641485,0.006427469029276812,0.005347725133275456,0.1771129736380425,-1.0,1.0,0.0,-0.13210101771649732,0.045455017709305275,-0.048434859178488505,-1.0,-1.0,-1.0,1.0,-0.09405435230751565,0.12279154712136016,1.0,0.2378586712919498,-1.0,1.0,0.06635593345209623,1.0,-0.2398465843006816,-0.053156577898681,-1.0,-1.0,0.13481192731980354,1.0,0.13945102179058722,1.0,-0.3175197346249025,1.0,0.04543303845522309,-1.0,-1.0,1.0,-1.0,-1.0,0.05637010209373842,0.020827787930984304,-0.1432383329002715,-0.11142260533014477,-0.010553018028729322,1.0,1.0,-1.0,1.0,-0.01334863063116913,-1.0,-1.0,-1.0,0.032795758885901055,-0.004178281390662212,1.0,-1.0,0.17760748719163796,-1.0,-0.1059012767452304,-0.11791796737811286,0.023972399528290257,0.4303844070501591,-1.0,0.28137139668768335,-0.051351379563411036,-1.0,-1.0,-1.0,-0.02321328875162875,1.0,1.0,0.08156580936185395,1.0,0.049966590425157255,-0.3987353516660062,-0.0790413352864988,-0.08555689421044298,1.0,-1.0,-0.0423654740171572,0.0,-0.10776712033715943,-0.22763373500625408,0.9976429773960448,1.0,1.0,-1.0,0.40066788747730797,-0.21636173188652183,-1.0,0.10397899388383079,1.0,-1.0,-0.13116612054451904,-1.0,-0.016213766083744183,-0.016649020085621635,1.0,1.0,-0.2731668816487888,-1.0,-0.12128805577461779,-1.0,0.22350644517422186,-1.0,-0.25561341551388816,1.0,1.0,-1.0,1.0,1.0,0.08965862792154956,0.24192106475719935,0.17259993474656218,-0.07760347964659291,-0.10962814892304147,1.0,1.0,-1.0,1.0,-0.06042906391677392,-1.0,-1.0,-1.0,-0.13192857933139582,0.12703695480507815,1.0,-1.0,0.23083287277499673,-1.0,0.05548977362575481,0.22505224752693082,0.3154001672037885,0.20943787497293545,-1.0,-0.06622490274139806,-0.11288715996872033,-1.0,-1.0,-1.0,-0.22872964924196745,1.0,1.0,-0.0994642189311354,1.0,-0.004621560385997819,0.014003173829652693,0.2298467117064596,0.1902001146174154,1.0,-1.0,-0.07503560079427703,-0.148948446204426,0.0,0.20907302227084373,0.9976429773960448,1.0,1.0,-1.0,-0.15676845891603816,-0.1803129798595301,-1.0,0.15018508355680954,1.0,-1.0,-0.22291283528178968,-1.0,-0.0613534875139689,-0.07869129726463672,1.0,1.0,-0.07737231933048767,-1.0,0.0037228103176599227,-1.0,0.28643295380922557,-1.0,-0.3941613235948059,1.0,1.0,-1.0,1.0,1.0,0.008483579442151902,0.1157514158274988,-0.004184460327654101,0.15675687927637658,-0.029968197546333307,-1.0,-1.0,1.0,-1.0,0.1583194308313897,1.0,1.0,1.0,0.07502807737241808,-0.13091985869621955,-1.0,1.0,-0.021447252338735033,1.0,-0.03103639211387413,-0.10565656015226828,-0.19140391153880618,-0.1167835146649087,1.0,-0.0643397533995325,0.11430488685014313,1.0,1.0,1.0,0.07198791766731051,-1.0,-1.0,0.19838928541330264,-1.0,-0.1514760246850186,-0.011442312889773511,0.18485688574939002,0.03737687010954733,-1.0,1.0,0.2151217826742967,0.19445245331898334,-0.21682193414598688,0.0,-1.0,-1.0,-1.0,1.0,-0.04314711716859037,0.14171961137501835,1.0,0.13325072259936122,-1.0,1.0,0.04154101297406559,1.0,-0.3129340346383624,-0.13986627268779453,-1.0,-1.0,0.00047086608756885355,1.0,0.1723726591139676,1.0,-0.10988792279981659,1.0,0.383865659023446,-1.0,-1.0,1.0,-1.0,-1.0,-0.0018481052079569182,-0.35121100411164896,1.0,1.0,1.0,-1.0,-1.0,1.0,-1.0,1.0,1.0,1.0,1.0,-0.9976429773960448,1.0,-1.0,1.0,1.0,1.0,1.0,-0.9976429773960448,1.0,-0.9976429773960448,1.0,-0.9976429773960448,1.0,1.0,1.0,1.0,1.0,-1.0,-1.0,-0.9976429773960448,-1.0,-0.9976429773960448,1.0,1.0,-0.9976429773960448,-1.0,1.0,1.0,-0.9976429773960448,-0.9976429773960448,1.0,0.0,-1.0,-1.0,1.0,-0.9976429773960448,0.9976429773960448,1.0,-0.9976429773960448,-1.0,1.0,0.9976429773960448,1.0,-0.9976429773960448,-0.9976429773960448,-1.0,-1.0,0.9976429773960448,1.0,0.9976429773960448,1.0,0.9976429773960448,1.0,0.9976429773960448,-1.0,-1.0,1.0,-1.0,-1.0,-0.9976429773960448,0.9976429773960448,1.0,1.0,1.0,-0.14546101864841937,-0.04982022954073334,-0.029189834359906776,-0.35857869838019285,1.0,-0.05920683896216457,-0.026811516032927626,0.04618811093695163,-1.0,1.0,0.0675921797114381,-0.04811391995909036,1.0,-0.028664224069393507,1.0,-1.0,1.0,-1.0,0.016702543483600042,-1.0,1.0,-0.16145939369547915,0.22533528296668304,0.09859765059488718,1.0,0.18214452109205662,-0.16536490345391225,-1.0,0.062319210092379444,-1.0,1.0,1.0,-1.0,0.11511113550783135,-0.04439914401667676,1.0,-1.0,-1.0,1.0,1.0,0.0,0.07102490408779238,0.08666812774440223,-1.0,1.0,-0.13184874547759537,-1.0,-0.1254703950119918,0.07387589454007176,1.0,0.06392429829849684,-1.0,-1.0,-0.0446591593949854,-0.018468832145787817,1.0,0.1512424412559779,1.0,-0.3202199986733035,1.0,0.06342158378984526,1.0,-0.11001190305522789,0.0601190854951731,0.12750537779805798,0.057111514312557295,-0.09066548482344113,-1.0,1.0,1.0,1.0,1.0,-0.0278636255890398,0.2474035910313851,0.04770862115995508,-0.46134120535311546,1.0,-0.07633267904345588,0.026181034754889004,-0.07389900580661705,-1.0,1.0,0.026153410285157497,-0.07193952235412698,1.0,-0.09366037846585344,1.0,-1.0,1.0,-1.0,0.02107413494208439,-1.0,1.0,-0.11975868525516697,-0.2294094689694201,-0.05017784592954641,1.0,-0.20615067643540785,0.1597194233366551,-1.0,-0.041524246251359705,-1.0,1.0,1.0,-1.0,0.03492993461350889,-0.18044524887206642,1.0,-1.0,-1.0,1.0,1.0,-0.08745872231063966,0.0,-0.037725341030157865,-1.0,1.0,-0.07289166115074559,-1.0,0.06085858181135031,-0.15500281804857766,1.0,0.011727389340554516,-1.0,-1.0,0.16037641844466188,-0.0019380960582200575,1.0,-0.24725422960315535,1.0,-0.002921172737585201,1.0,-0.13096246703781012,1.0,0.11320669722074525,0.042800512657142194,0.08438862070522918,0.15161025167315048,0.17465011137446773,-1.0,1.0,-1.0,-1.0,-1.0,0.1722008555666348,-0.016275715804490214,0.23936060772069725,0.35712073200120087,-1.0,0.15257536183782508,-0.02028242380178505,-0.23083625527598667,1.0,-1.0,-0.09591020467518317,-0.17915777159836715,-1.0,0.15849496616015527,-1.0,1.0,-1.0,1.0,-0.0972573718507857,1.0,-1.0,0.007567227118924744,0.0009097761590763226,0.2597250948268787,-1.0,-0.21193552827559517,0.06604699731052299,1.0,-0.07417122754733065,1.0,-1.0,-1.0,1.0,-0.03679799736477272,0.1610856495935458,-1.0,1.0,1.0,-1.0,-1.0,-0.10592114956980994,-0.10731195000087362,0.0,1.0,-1.0,0.12736276881428252,1.0,-0.25307096537963525,-0.04648547994447209,-1.0,0.10762731628312167,1.0,1.0,-0.1051526923029056,-0.25285229340005816,-1.0,0.17889815938890763,-1.0,0.07239032802974499,-1.0,0.012463417450605932,-1.0,-0.0310125656022755,0.0351929781171299,-0.04638989686895334,0.03695956000742389,-0.13387291582797595,1.0,-1.0,-0.003457073074987261,-0.15447220443042878,0.022937543977211178,1.0,1.0,-1.0,1.0,0.1573213246289429,-1.0,-1.0,-1.0,-0.29451059909661137,0.23521753934119274,1.0,-1.0,0.13894947257723095,-1.0,-0.01613240967278244,0.18106299363536332,-0.01184311460298135,-0.19356749575803825,-1.0,0.11087614532552406,0.03590805377741229,-1.0,-1.0,-1.0,0.21411307637204702,1.0,1.0,-0.29785756934347024,1.0,0.07021127566527369,-0.1709534198027041,0.03910746321198791,-0.015622327647791935,1.0,-1.0,0.11822925637894226,-0.1177007835621404,-0.11467754869093712,-0.0009496346146821936,0.9976429773960448,1.0,1.0,-1.0,0.0,-0.035942187218232335,-1.0,0.0470543299808441,1.0,-1.0,-0.0034225012850783963,-1.0,0.014969406536333258,0.007461043166067022,1.0,1.0,0.07733243814848562,-1.0,-0.023873136376996403,-1.0,0.1306580218697314,-1.0,-0.044816495695846156,1.0,1.0,-1.0,1.0,1.0,0.034492193834652254,-0.1953837006267271,-0.1384693102636056,-0.23630937661508417,-0.2580206404218716,-1.0,-1.0,1.0,-1.0,-0.23254539577754033,1.0,1.0,1.0,0.16849430339490265,0.17993017008107637,-1.0,1.0,0.09598586336043109,1.0,-0.13704400937083833,0.11684515580131237,-0.15629414150208928,-0.12736012789057816,1.0,0.2708278704907022,-0.2038387183366591,1.0,1.0,1.0,-0.04895533828739429,-1.0,-1.0,0.12743333170620585,-1.0,-0.1177899040460618,-0.3988237562288361,-0.27083293046893314,0.10855615025785854,-1.0,1.0,-0.29719201127335054,0.1375775966380427,0.214928107167674,-0.3057091479743332,-0.9976429773960448,-1.0,-1.0,1.0,0.12458115253561115,0.0,1.0,0.06884303862711895,-1.0,1.0,-0.050313498206687984,1.0,-0.1136134248478471,0.21930011803067195,-1.0,-1.0,-0.25085280444153524,1.0,-0.20435103976052485,1.0,-0.23953704503828907,1.0,0.06874652285908961,-1.0,-1.0,1.0,-1.0,-1.0,0.17972238415169045,-0.2102396853493937,-1.0,-1.0,-1.0,0.05291861696346884,0.1573995220897279,-0.10701427954442311,0.3724337279831243,-1.0,-0.3481679011742887,0.02028642434635196,0.1628810293416094,1.0,-1.0,-0.08591072111020634,0.17869614191649602,-1.0,0.04915960906488724,-1.0,1.0,-1.0,1.0,-0.10333364906817098,1.0,-1.0,-0.029610261016315545,0.03963776891612118,-0.032296687762006095,-1.0,0.38376715389627125,0.13780118162824195,1.0,0.050892501925601595,1.0,-1.0,-1.0,1.0,0.1441462987332912,-0.010467531232953853,-1.0,1.0,1.0,-1.0,-1.0,-0.14694296625869582,-0.11758915689625637,-0.30278896589501075,1.0,-1.0,0.0,1.0,0.031674796180179536,-0.08060711046928494,-1.0,0.1826950861856903,1.0,1.0,0.35789636667758395,-0.03816248859339274,-1.0,0.0993939305136829,-1.0,0.0610867331857844,-1.0,-0.013969591615347466,-1.0,0.22543822732471508,-0.02657519295137853,-0.4250346331984802,0.08157762281198593,-0.2582743315243669,1.0,-1.0,0.38749015086990113,0.05245795218186828,0.242735034548518,1.0,1.0,-1.0,1.0,0.39083601037265425,-1.0,-1.0,-1.0,-0.18271090633357906,-0.20887248603923975,1.0,-1.0,0.00938351175961291,-1.0,-0.14354482393324985,0.005352660488394985,-0.03506140578144025,-0.06846760463080108,-1.0,0.1552389939022745,0.18603647461627185,-1.0,-1.0,-1.0,0.030812816795470196,1.0,1.0,-0.20930293630802865,1.0,-0.19926294093483407,0.008854649731923925,0.10922883436639608,-0.0023595720508502553,1.0,-1.0,-0.30940527896385617,-0.01653318564713232,0.042852831448283155,-0.10026254709996991,0.9976429773960448,1.0,1.0,-1.0,0.08282421224080687,-0.11430444883611292,-1.0,0.0,1.0,-1.0,0.1409408836536902,-1.0,0.1747248494491311,0.10660557663087082,1.0,1.0,-0.09982022224359442,-1.0,0.057062382780533556,-1.0,0.3540902137221646,-1.0,-0.1599516361841391,1.0,1.0,-1.0,1.0,1.0,0.044155561051170696,0.021298331441409628,1.0,1.0,1.0,-0.06901825634871285,-0.15178419586689024,0.007344890407085334,-0.28902673470219065,1.0,0.04105117242918837,0.164159317792289,0.025267719190846957,-1.0,1.0,-0.1940132137228303,-0.23136882176350376,1.0,-0.19820639310105173,1.0,-1.0,1.0,-1.0,-0.13808860623553984,-1.0,1.0,0.01381677513809077,-0.08873742486039915,0.29311809791443033,1.0,0.0655061438210676,0.0577357620297592,-1.0,-0.2155233915188302,-1.0,1.0,1.0,-1.0,-0.01894048336383581,0.1318624521612676,1.0,-1.0,-1.0,1.0,1.0,0.04343716580536075,-0.07660366684535841,0.2927951938953299,-1.0,1.0,-0.08774610753135291,-1.0,0.0,-0.2186171443913145,1.0,0.17887536864122774,-1.0,-1.0,-0.09493024410817467,-0.11034510087768519,1.0,-0.15487376561905328,1.0,-0.2726389258805663,1.0,0.1497245616916453,1.0,-0.044402604651140244,-0.1531144982966703,0.20131555078335509,-0.0948678209595072,0.14529601587001253,-1.0,1.0,-1.0,-1.0,-1.0,0.2157353013453233,-0.11650777923310801,-0.2011763499722965,0.29306584801957014,-1.0,0.0796257773173429,-0.1375941785994524,0.1607373962381434,1.0,-1.0,0.2314689547340273,-0.23695174910895767,-1.0,-0.04834566795806249,-1.0,1.0,-1.0,1.0,-0.015597603090496534,1.0,-1.0,0.4234810586389611,0.05099281045131461,-0.18953917340988416,-1.0,0.10297465465495619,-0.017816160791313804,1.0,-0.1519246708441334,1.0,-1.0,-1.0,1.0,-0.01596153103144597,0.057481760560774794,-1.0,1.0,1.0,-1.0,-1.0,-0.16717130764657628,0.3195275694422291,-0.24938015434928773,1.0,-1.0,0.07924941921145072,1.0,0.04866401621915885,0.0,-1.0,0.02923261564120281,1.0,1.0,-0.08130502363314422,-0.047234028789117984,-1.0,0.19401179894190848,-1.0,0.20547574275846467,-1.0,0.07881476808583825,-1.0,0.17158493439915187,-0.09669469081173286,-0.13004979403173897,0.21012023268306956,-0.1359301249631065,1.0,-1.0,-0.04718760051559899,-0.06466608238218108,-0.169337320009687,-1.0,-1.0,1.0,-1.0,-0.13830170506249367,1.0,1.0,1.0,-0.1097283234935283,-0.05078128934628638,-1.0,1.0,-0.22865649200895752,1.0,-0.09619026463387305,0.23641371963967117,0.2918723843045751,-0.06343898104445003,1.0,0.12797967212812658,-0.07597449097290088,1.0,1.0,1.0,-0.1461895410310834,-1.0,-1.0,-0.15133529635476584,-1.0,0.2266628618064544,-0.06195727882495657,-0.2469263834782657,0.011999367056891388,-1.0,1.0,0.016636547367896708,0.1474484138281712,0.14757821919550612,-0.2458988520790781,-0.9976429773960448,-1.0,-1.0,1.0,